{"version": 1, "model": {"layer_sizes": [5, 16, 1], "lr": 0.03, "momentum": 0.9, "grad_clip": 3.0, "total_samples": 1524, "W": [[[1.2729767252907895, 0.9167098936040888, 0.041954449334932704, -0.48353986153823236, -0.6907509918316201], [-0.022979124890603633, -0.6464348041825333, -0.9087307311439718, 0.12605596212771603, 0.08435350654913912], [0.673202063867177, -0.5780459794834379, 0.003165619319023322, -0.04094628450130507, -0.9523698821441012], [0.32128135202901587, 0.20283551001133254, 1.5110071283958506, 0.12836897902201092, -0.09151777529694573], [0.5130720597278025, 0.12572662463981144, 0.5749217012808462, -0.23119049338194606, 0.137983970293719], [0.8977388396087261, 0.4403452810123505, 0.08125298436065588, -0.6845116975202081, 0.2815829729115831], [0.010166661814939493, 0.45566371728464317, 0.13675771771954995, 0.6882288831510016, -0.032609575100486295], [0.07098405449961005, 0.4217064472385048, -0.6874061856520259, -0.25403225348189823, -0.3162458346088078], [1.823331888190532, -0.05873110184204383, 0.41250028865134114, 0.3917271844754705, -0.17763995472297467], [-0.9760323502114167, 0.6102209068034645, -0.25753384959998116, 0.45407565931871485, -0.8255219594097656], [-0.27661833384719287, 0.7948836121736637, 0.9050463886060675, -0.8237471601839077, -0.84294146328566], [-0.028107116023725662, 0.46058025358844906, 0.10151207239074857, 0.19198485424004202, -0.6253950672515969], [0.6860459046751309, 0.7063594416167539, -0.2755434956086589, -0.9066174559682012, -0.4799204277611376], [0.2849598507625479, -1.0964863798482016, -0.05810798271313834, -0.6267686722314738, -0.08293670326895732], [-0.14984774321948446, 0.010028710300835318, 0.9494469225219566, 0.2660806474441458, 0.8435140039500585], [-0.09361826110877193, -0.3033172032094295, 0.23958084834702262, -1.7935115707259193, -0.02522790151826406]], [[0.9534161250786486, -0.4350983434232649, 0.5477435553947584, 0.17186078005272937, -0.6992722550019423, 0.634959723331468, -0.3405959895240243, -0.15943823037267074, 1.321841160761045, 0.43153105173517886, 0.03343038829419769, -0.010378293358486093, 0.5485357171638738, -0.5430258734604084, 0.436756064340133, -0.3817906390407735]]], "b": [[-0.401353099779299, -0.0751690405171697, -0.20692503270359192, -0.10970958052440237, -0.5163403805642931, -0.28762327733274184, -0.06872789823613026, -0.10966382727669909, -0.5802284697879518, -0.000840531243320685, -5.9043714689018284e-05, 2.177277339205425e-05, -0.21205456156011654, -0.3804442257185205, -0.0008760212940769653, 0.0007725592037024851], [-0.20163638329690756]], "vW": [[[0.0010915168106106219, 0.0, 0.0, 0.0, 0.0], [-5.086705035091111e-06, 0.0, 0.0, 0.0, 0.0], [0.0006276548549983235, 0.0, 0.0, 0.0, 0.0], [0.00019585170281221368, 0.0, 0.0, 0.0, 0.0], [-8.174107859455478e-06, 0.0, 0.0, 0.0, 0.0], [0.0007264413332565821, 0.0, 0.0, 0.0, 0.0], [-3.9819264998216936e-06, 0.0, 0.0, 0.0, 0.0], [-1.8636023014462161e-06, 0.0, 0.0, 0.0, 0.0], [0.0015127329187354479, 0.0, 0.0, 0.0, 0.0], [5.050401200261556e-06, 0.0, 0.0, 0.0, 0.0], [3.921984648709424e-07, 0.0, 0.0, 0.0, 0.0], [-1.2121863567537195e-07, 0.0, 0.0, 0.0, 0.0], [0.0006284458696713106, 0.0, 0.0, 0.0, 0.0], [-6.3473269809390125e-06, 0.0, 0.0, 0.0, 0.0], [5.107601043456324e-06, 0.0, 0.0, 0.0, 0.0], [-4.463754328794139e-06, 0.0, 0.0, 0.0, 0.0]], [[0.0005203389613375732, -1.6562843255654495e-06, 0.00027490857431188134, 0.0001317493708675917, -3.585549522290516e-06, 0.0003671878484837968, -1.1511495742993771e-06, -1.2054256992027256e-06, 0.0007455701908207163, -1.1438196224633975e-05, -3.2363098496904927e-06, -3.2800340127117424e-07, 0.00028021291199239817, -3.7295365648807767e-06, -1.7785944659289488e-06, -1.0714003704419914e-06]]], "vb": [[0.00172861382448079, -8.08880717576192e-06, 0.0009940426014889818, 0.00031010667444919315, -1.299770106975226e-05, 0.0011504183747315974, -6.332011729204401e-06, -2.9632807738169045e-06, 0.0023956474492743316, 8.033054254845707e-06, 6.24159093995576e-07, -1.9272113428213575e-07, 0.0009952876349855185, -1.0092816299544845e-05, 8.122629815130124e-06, -7.098341958643375e-06], [0.0018594451230405482]]}}