{"version": 1, "model": {"layer_sizes": [5, 16, 1], "lr": 0.03, "momentum": 0.9, "grad_clip": 3.0, "total_samples": 231, "W": [[[0.8697718513611555, 0.9167098936040888, 0.041954449334932704, -0.48353986153823236, -0.6907509918316201], [-0.020086608973713154, -0.6464348041825333, -0.9087307311439718, 0.12605596212771603, 0.08435350654913912], [0.42204495509181256, -0.5780459794834379, 0.003165619319023322, -0.04094628450130507, -0.9523698821441012], [0.2794216107625543, 0.20283551001133254, 1.5110071283958506, 0.12836897902201092, -0.09151777529694573], [0.5177368442065157, 0.12572662463981144, 0.5749217012808462, -0.23119049338194606, 0.137983970293719], [0.645980400836632, 0.4403452810123505, 0.08125298436065588, -0.6845116975202081, 0.2815829729115831], [0.012431740336024913, 0.45566371728464317, 0.13675771771954995, 0.6882288831510016, -0.032609575100486295], [0.07204633791058256, 0.4217064472385048, -0.6874061856520259, -0.25403225348189823, -0.3162458346088078], [1.2839363178416303, -0.05873110184204383, 0.41250028865134114, 0.3917271844754705, -0.17763995472297467], [-0.9789294353442359, 0.6102209068034645, -0.25753384959998116, 0.45407565931871485, -0.8255219594097656], [-0.276848477446928, 0.7948836121736637, 0.9050463886060675, -0.8237471601839077, -0.84294146328566], [-0.02803890621024818, 0.46058025358844906, 0.10151207239074857, 0.19198485424004202, -0.6253950672515969], [0.4385101544807508, 0.7063594416167539, -0.2755434956086589, -0.9066174559682012, -0.4799204277611376], [0.28857908425787265, -1.0964863798482016, -0.05810798271313834, -0.6267686722314738, -0.08293670326895732], [-0.15275610716936147, 0.010028710300835318, 0.9494469225219566, 0.2660806474441458, 0.8435140039500585], [-0.0910822914698826, -0.3033172032094295, 0.23958084834702262, -1.7935115707259193, -0.02522790151826406]], [[0.3792565301614602, -0.4353018698217279, 0.2804268814992645, -0.030419686584861185, -0.7049900833606972, 0.19883142984447927, -0.34098584641110297, -0.16040071922781685, 0.46293343551405963, 0.43804388395523935, 0.035271497176315746, -0.01019194722251132, 0.2680615788659934, -0.5466216489937802, 0.4377755556396969, -0.3811883251600338]]], "b": [[-0.06201489716391487, -0.07707848331199142, 0.0010420007198106156, -0.06909837662826725, -0.5194250984037919, -0.072814496701607, -0.07022308518121098, -0.11036666163950362, -0.12284613094763182, 0.001055758936967574, 8.886980346640904e-05, -2.357387264073019e-05, -0.006444416457940671, -0.38283843634694015, 0.001039021360031699, -0.0009003489098621738], [0.23665342183644777]], "vW": [[[0.0002623431151111492, 0.0, 0.0, 0.0, 0.0], [-3.4532352981125505e-06, 0.0, 0.0, 0.0, 0.0], [0.00020092233830668315, 0.0, 0.0, 0.0, 0.0], [-3.2008041554156243e-05, 0.0, 0.0, 0.0, 0.0], [-5.591865570943719e-06, 0.0, 0.0, 0.0, 0.0], [0.00013157125407110268, 0.0, 0.0, 0.0, 0.0], [-2.7050825285447573e-06, 0.0, 0.0, 0.0, 0.0], [-1.2721116202719072e-06, 0.0, 0.0, 0.0, 0.0], [0.00031324496845370326, 0.0, 0.0, 0.0, 0.0], [3.480736721567125e-06, 0.0, 0.0, 0.0, 0.0], [2.812722945505492e-07, 0.0, 0.0, 0.0, 0.0], [-8.072908066325367e-08, 0.0, 0.0, 0.0, 0.0], [0.00019096125322628035, 0.0, 0.0, 0.0, 0.0], [-4.335322818403938e-06, 0.0, 0.0, 0.0, 0.0], [3.474428195607475e-06, 0.0, 0.0, 0.0, 0.0], [-3.0241871038830023e-06, 0.0, 0.0, 0.0, 0.0]], [[0.0005603270534291988, -6.091629975166617e-07, 0.000266757867741653, 0.0001881176732079245, 1.0227440951134346e-06, 0.0004205668481996297, -3.124891371864805e-07, -8.364822014192835e-08, 0.0008323021398740718, -7.771998721146757e-06, -2.197069208673622e-06, -2.2237545935258038e-07, 0.0002784058948919018, 1.6408524566866178e-08, -1.2165656663597153e-06, -7.187975322391423e-07]]], "vb": [[0.0001576079528345653, -2.5984475305106895e-06, 0.00012756085706344743, -3.0053203428005566e-05, -4.205664985306076e-06, 7.315501416039626e-05, -2.0355122269663853e-06, -9.566167536624835e-07, 0.00018129875885091232, 2.6253666135559935e-06, 2.131936264706834e-07, -6.062292591566781e-08, 0.0001201871404801902, -3.26026764111465e-06, 2.6162629484131637e-06, -2.2760480714291665e-06], [0.0005973147982165847]]}}