{"version": 1, "model": {"layer_sizes": [5, 16, 1], "lr": 0.03, "momentum": 0.9, "grad_clip": 3.0, "total_samples": 926, "W": [[[1.0777363823296693, 0.9167098936040888, 0.041954449334932704, -0.48353986153823236, -0.6907509918316201], [-0.021898139562207812, -0.6464348041825333, -0.9087307311439718, 0.12605596212771603, 0.08435350654913912], [0.5583537760478187, -0.5780459794834379, 0.003165619319023322, -0.04094628450130507, -0.9523698821441012], [0.2903231080184354, 0.20283551001133254, 1.5110071283958506, 0.12836897902201092, -0.09151777529694573], [0.5148111324427607, 0.12572662463981144, 0.5749217012808462, -0.23119049338194606, 0.137983970293719], [0.7700163531607163, 0.4403452810123505, 0.08125298436065588, -0.6845116975202081, 0.2815829729115831], [0.011012988200568377, 0.45566371728464317, 0.13675771771954995, 0.6882288831510016, -0.032609575100486295], [0.0713803332244713, 0.4217064472385048, -0.6874061856520259, -0.25403225348189823, -0.3162458346088078], [1.5553414447280742, -0.05873110184204383, 0.41250028865134114, 0.3917271844754705, -0.17763995472297467], [-0.9771106216978783, 0.6102209068034645, -0.25753384959998116, 0.45407565931871485, -0.8255219594097656], [-0.27670304760630154, 0.7948836121736637, 0.9050463886060675, -0.8237471601839077, -0.84294146328566], [-0.028081486692248414, 0.46058025358844906, 0.10151207239074857, 0.19198485424004202, -0.6253950672515969], [0.5715790733024136, 0.7063594416167539, -0.2755434956086589, -0.9066174559682012, -0.4799204277611376], [0.28630975246028734, -1.0964863798482016, -0.05810798271313834, -0.6267686722314738, -0.08293670326895732], [-0.1509341473930561, 0.010028710300835318, 0.9494469225219566, 0.2660806474441458, 0.8435140039500585], [-0.09266989962044818, -0.3033172032094295, 0.23958084834702262, -1.7935115707259193, -0.02522790151826406]], [[0.7349933451611713, -0.4351436528522802, 0.4411493664744576, 0.10265015248942856, -0.7012111709212038, 0.4732589942058618, -0.34071390824082903, -0.15975581029137212, 1.0000214714361357, 0.43396334199076736, 0.0341184064223031, -0.010308588584159057, 0.4379298530578929, -0.5442236345777213, 0.4371349897591882, -0.3815636250614433]]], "b": [[-0.2681091238781883, -0.07571903109635923, -0.12978700832991996, -0.08662086656940829, -0.5172268131618695, -0.19939071114326665, -0.0691584412686013, -0.10986601739920229, -0.3960872076238026, -0.0002996342034532335, -1.788852710725936e-05, 8.5723654392294e-06, -0.13492515315436834, -0.3811327782604639, -0.00032545782520106213, 0.0002904482404892232], [-0.07545013885454524]], "vW": [[[0.0007760320125767531, 0.0, 0.0, 0.0, 0.0], [-4.754835505048265e-06, 0.0, 0.0, 0.0, 0.0], [0.0004671850762431293, 0.0, 0.0, 0.0, 0.0], [0.00010616415267546528, 0.0, 0.0, 0.0, 0.0], [-7.661205627057136e-06, 0.0, 0.0, 0.0, 0.0], [0.0004984770828163648, 0.0, 0.0, 0.0, 0.0], [-3.7230420304979092e-06, 0.0, 0.0, 0.0, 0.0], [-1.7452932081910004e-06, 0.0, 0.0, 0.0, 0.0], [0.0010544466049092053, 0.0, 0.0, 0.0, 0.0], [4.747400148259182e-06, 0.0, 0.0, 0.0, 0.0], [3.7419789493564846e-07, 0.0, 0.0, 0.0, 0.0], [-1.1252711779538752e-07, 0.0, 0.0, 0.0, 0.0], [0.00046350114752411603, 0.0, 0.0, 0.0, 0.0], [-5.945654080189357e-06, 0.0, 0.0, 0.0, 0.0], [4.778115314634892e-06, 0.0, 0.0, 0.0, 0.0], [-4.169618838795432e-06, 0.0, 0.0, 0.0, 0.0]], [[0.0005930873527491639, -1.396581504412373e-06, 0.00030716697232482454, 0.00015992484492889837, -2.3318216229286405e-06, 0.00042383219807400107, -9.379553097412472e-07, -9.100554074339707e-07, 0.000856017737399624, -1.0693467701278418e-05, -3.0251239634262175e-06, -3.065260093780959e-07, 0.0003144651955828918, -2.734478628037658e-06, -1.6647651963590504e-06, -9.993890444249187e-07]]], "vb": [[0.0010830620398496046, -6.707352502033914e-06, 0.0006523273040213615, 0.0001476857834650901, -1.080620446086798e-05, 0.000695433174001831, -5.251874461168169e-06, -2.461691103951872e-06, 0.0014713225130941294, 6.699643500807204e-06, 5.285451896102133e-07, -1.5868077174647672e-07, 0.0006471240859978193, -8.38625361241804e-06, 6.7410372744148935e-06, -5.882035079368725e-06], [0.0015417802622243403]]}}