{"version": 1, "model": {"layer_sizes": [5, 16, 1], "lr": 0.03, "momentum": 0.9, "grad_clip": 3.0, "total_samples": 887, "W": [[[1.0651137300116604, 0.9167098936040888, 0.041954449334932704, -0.48353986153823236, -0.6907509918316201], [-0.021816216056023626, -0.6464348041825333, -0.9087307311439718, 0.12605596212771603, 0.08435350654913912], [0.550699944997202, -0.5780459794834379, 0.003165619319023322, -0.04094628450130507, -0.9523698821441012], [0.2886827890179877, 0.20283551001133254, 1.5110071283958506, 0.12836897902201092, -0.09151777529694573], [0.5149431299204212, 0.12572662463981144, 0.5749217012808462, -0.23119049338194606, 0.137983970293719], [0.7619553759296199, 0.4403452810123505, 0.08125298436065588, -0.6845116975202081, 0.2815829729115831], [0.01107713609814775, 0.45566371728464317, 0.13675771771954995, 0.6882288831510016, -0.032609575100486295], [0.07141039932629271, 0.4217064472385048, -0.6874061856520259, -0.25403225348189823, -0.3162458346088078], [1.5382452668831266, -0.05873110184204383, 0.41250028865134114, 0.3917271844754705, -0.17763995472297467], [-0.9771925495741475, 0.6102209068034645, -0.25753384959998116, 0.45407565931871485, -0.8255219594097656], [-0.2767095291961817, 0.7948836121736637, 0.9050463886060675, -0.8237471601839077, -0.84294146328566], [-0.028079550897552725, 0.46058025358844906, 0.10151207239074857, 0.19198485424004202, -0.6253950672515969], [0.5639962683539536, 0.7063594416167539, -0.2755434956086589, -0.9066174559682012, -0.4799204277611376], [0.28641218202191077, -1.0964863798482016, -0.05810798271313834, -0.6267686722314738, -0.08293670326895732], [-0.15101650569447783, 0.010028710300835318, 0.9494469225219566, 0.2660806474441458, 0.8435140039500585], [-0.09259805656457981, -0.3033172032094295, 0.23958084834702262, -1.7935115707259193, -0.02522790151826406]], [[0.7183420421087776, -0.43514809313261144, 0.43317084899782665, 0.09714077646080366, -0.7013645789497444, 0.46080499895231464, -0.34072375353157675, -0.15978125445710872, 0.9753393725534848, 0.43414772549546277, 0.03417054810116415, -0.010303308251458504, 0.42961557951962026, -0.544319179129667, 0.4371637756257279, -0.38154648541014546]]], "b": [[-0.25834208698755, -0.07576605120203872, -0.12400527055145517, -0.08512960525362882, -0.5173026753133374, -0.19303255929915544, -0.06919525505601117, -0.10988331083376128, -0.38271736132257245, -0.00025313150579440427, -1.4299830815471587e-05, 7.450428911536318e-06, -0.12916987219748824, -0.3811916802898338, -0.0002783343988825809, 0.00024923980504299706], [-0.06465839550110221]], "vW": [[[0.000750640497727215, 0.0, 0.0, 0.0, 0.0], [-4.713679866424237e-06, 0.0, 0.0, 0.0, 0.0], [0.0004541488793279602, 0.0, 0.0, 0.0, 0.0], [9.913673491525972e-05, 0.0, 0.0, 0.0, 0.0], [-7.596476719873766e-06, 0.0, 0.0, 0.0, 0.0], [0.00048023350607113915, 0.0, 0.0, 0.0, 0.0], [-3.6908867922321006e-06, 0.0, 0.0, 0.0, 0.0], [-1.7304426982597317e-06, 0.0, 0.0, 0.0, 0.0], [0.0010176834151351998, 0.0, 0.0, 0.0, 0.0], [4.708313924243733e-06, 0.0, 0.0, 0.0, 0.0], [3.7153447542066364e-07, 0.0, 0.0, 0.0, 0.0], [-1.1149354572089804e-07, 0.0, 0.0, 0.0, 0.0], [0.00045012930724659694, 0.0, 0.0, 0.0, 0.0], [-5.89516084463836e-06, 0.0, 0.0, 0.0, 0.0], [4.737035959788985e-06, 0.0, 0.0, 0.0, 0.0], [-4.1333019226206014e-06, 0.0, 0.0, 0.0, 0.0]], [[0.0005967732277050164, -1.368640503857786e-06, 0.00030848213604795925, 0.00016185662469857565, -2.204846863044574e-06, 0.00042697649651142467, -9.153961119609209e-07, -8.794843707676559e-07, 0.0008619346387046219, -1.0601042260324406e-05, -2.9989347721936624e-06, -3.038657382929369e-07, 0.0003159461085720596, -2.6320926987150603e-06, -1.6505536839400667e-06, -9.905486104314466e-07]]], "vb": [[0.001032433556128334, -6.5598383210305794e-06, 0.000624987791288762, 0.00013580044262414848, -1.0570691249702466e-05, 0.0006602141904093245, -5.136467845473082e-06, -2.407891486317508e-06, 0.0013993735946344387, 6.5552386135912075e-06, 5.177586202670341e-07, -1.5510510388728087e-07, 0.0006193883271771396, -8.203113404819607e-06, 6.593214762884352e-06, -5.752368540309188e-06], [0.0015078649652141922]]}}