{"version": 1, "model": {"layer_sizes": [5, 16, 1], "lr": 0.03, "momentum": 0.9, "grad_clip": 3.0, "total_samples": 1225, "W": [[[1.1754709995625015, 0.9167098936040888, 0.041954449334932704, -0.48353986153823236, -0.6907509918316201], [-0.022475720232523397, -0.6464348041825333, -0.9087307311439718, 0.12605596212771603, 0.08435350654913912], [0.6165186213626463, -0.5780459794834379, 0.003165619319023322, -0.04094628450130507, -0.9523698821441012], [0.30475678259446926, 0.20283551001133254, 1.5110071283958506, 0.12836897902201092, -0.09151777529694573], [0.5138813247680024, 0.12572662463981144, 0.5749217012808462, -0.23119049338194606, 0.137983970293719], [0.8333737726034114, 0.4403452810123505, 0.08125298436065588, -0.6845116975202081, 0.2815829729115831], [0.010560763112506075, 0.45566371728464317, 0.13675771771954995, 0.6882288831510016, -0.032609575100486295], [0.07116849585842415, 0.4217064472385048, -0.6874061856520259, -0.25403225348189823, -0.3162458346088078], [1.688816757615553, -0.05873110184204383, 0.41250028865134114, 0.3917271844754705, -0.17763995472297467], [-0.9765338561289407, 0.6102209068034645, -0.25753384959998116, 0.45407565931871485, -0.8255219594097656], [-0.27665759842359405, 0.7948836121736637, 0.9050463886060675, -0.8237471601839077, -0.84294146328566], [-0.0280951608942382, 0.46058025358844906, 0.10151207239074857, 0.19198485424004202, -0.6253950672515969], [0.6294164379612707, 0.7063594416167539, -0.2755434956086589, -0.9066174559682012, -0.4799204277611376], [0.285588106758446, -1.0964863798482016, -0.05810798271313834, -0.6267686722314738, -0.08293670326895732], [-0.15035359839644022, 0.010028710300835318, 0.9494469225219566, 0.2660806474441458, 0.8435140039500585], [-0.09317652924435277, -0.3033172032094295, 0.23958084834702262, -1.7935115707259193, -0.02522790151826406]], [[0.8523226412931728, -0.4351167609471538, 0.4980195210539624, 0.14044157344002028, -0.7001579830719774, 0.5604531075200908, -0.340648481829088, -0.1595824617503692, 1.1732827850784497, 0.43266361606807124, 0.03375079473048039, -0.01034582603869916, 0.49703373698194914, -0.5435709610163463, 0.43693234035461886, -0.381684743696701]]], "b": [[-0.3381787554154706, -0.07541096750382563, -0.1706936187997303, -0.09822296116003162, -0.5167300900146196, -0.24549635024804856, -0.06891726771440249, -0.10975274689813536, -0.4925789186098827, -0.0006033531227333902, -4.114226695661774e-05, 1.594738931065929e-05, -0.17575795703405347, -0.3807470112188157, -0.0006340012603726741, 0.0005604691586967954], [-0.14614174166395982]], "vW": [[[0.0009512205420733827, 0.0, 0.0, 0.0, 0.0], [-4.982112401936633e-06, 0.0, 0.0, 0.0, 0.0], [0.0005566803289161575, 0.0, 0.0, 0.0, 0.0], [0.00015535716544761124, 0.0, 0.0, 0.0, 0.0], [-8.015843479650065e-06, 0.0, 0.0, 0.0, 0.0], [0.0006247333708759053, 0.0, 0.0, 0.0, 0.0], [-3.9004881500986384e-06, 0.0, 0.0, 0.0, 0.0], [-1.8268548598728245e-06, 0.0, 0.0, 0.0, 0.0], [0.0013085441823759883, 0.0, 0.0, 0.0, 0.0], [4.959441911795176e-06, 0.0, 0.0, 0.0, 0.0], [3.8782011415051805e-07, 0.0, 0.0, 0.0, 0.0], [-1.1834637771112368e-07, 0.0, 0.0, 0.0, 0.0], [0.000555402975196676, 0.0, 0.0, 0.0, 0.0], [-6.222787825029696e-06, 0.0, 0.0, 0.0, 0.0], [5.004416576071906e-06, 0.0, 0.0, 0.0, 0.0], [-4.370574054770403e-06, 0.0, 0.0, 0.0, 0.0]], [[0.0005584160528849245, -1.561892463693682e-06, 0.0002926092096744094, 0.00014520725571638845, -3.1068953010093534e-06, 0.0003961344132461153, -1.0725574756726711e-06, -1.0945803645263581e-06, 0.0008025586036891463, -1.1203743704197846e-05, -3.1697540180766683e-06, -3.21223723245692e-07, 0.0002987916506134047, -3.3543487868507183e-06, -1.7430556707194389e-06, -1.0483914018616824e-06]]], "vb": [[0.001439281868260798, -7.583743124828768e-06, 0.000842418368129084, 0.0002348937034515275, -1.2200893032504989e-05, 0.000945181996184558, -5.937309154307668e-06, -2.780599475352624e-06, 0.001979832763105497, 7.5515086413469345e-06, 5.909009496415387e-07, -1.8010152525053319e-07, 0.0008404630764299573, -9.471564598579757e-06, 7.6183821706279454e-06, -6.653031493815397e-06], [0.0017432901810546823]]}}