{"version": 1, "model": {"layer_sizes": [5, 16, 1], "lr": 0.03, "momentum": 0.9, "grad_clip": 3.0, "total_samples": 1173, "W": [[[1.1584382672808708, 0.9167098936040888, 0.041954449334932704, -0.48353986153823236, -0.6907509918316201], [-0.022381219098542876, -0.6464348041825333, -0.9087307311439718, 0.12605596212771603, 0.08435350654913912], [0.6064981778556936, -0.5780459794834379, 0.003165619319023322, -0.04094628450130507, -0.9523698821441012], [0.30205772778805423, 0.20283551001133254, 1.5110071283958506, 0.12836897902201092, -0.09151777529694573], [0.5140333599007347, 0.12572662463981144, 0.5749217012808462, -0.23119049338194606, 0.137983970293719], [0.8222322309221869, 0.4403452810123505, 0.08125298436065588, -0.6845116975202081, 0.2815829729115831], [0.010634750190390804, 0.45566371728464317, 0.13675771771954995, 0.6882288831510016, -0.032609575100486295], [0.0712031395820591, 0.4217064472385048, -0.6874061856520259, -0.25403225348189823, -0.3162458346088078], [1.665438425213147, -0.05873110184204383, 0.41250028865134114, 0.3917271844754705, -0.17763995472297467], [-0.9766281234854173, 0.6102209068034645, -0.25753384959998116, 0.45407565931871485, -0.8255219594097656], [-0.2766650052200185, 0.7948836121736637, 0.9050463886060675, -0.8237471601839077, -0.84294146328566], [-0.028092920451749735, 0.46058025358844906, 0.10151207239074857, 0.19198485424004202, -0.6253950672515969], [0.6194294955927966, 0.7063594416167539, -0.2755434956086589, -0.9066174559682012, -0.4799204277611376], [0.28570611887776143, -1.0964863798482016, -0.05810798271313834, -0.6267686722314738, -0.08293670326895732], [-0.15044857367428993, 0.010028710300835318, 0.9494469225219566, 0.2660806474441458, 0.8435140039500585], [-0.09309362271780786, -0.3033172032094295, 0.23958084834702262, -1.7935115707259193, -0.02522790151826406]], [[0.8331831062932427, -0.4351206870061908, 0.4886740750397055, 0.1343848354412262, -0.700327255309899, 0.5462882128875816, -0.34065875872116, -0.1596101760478026, 1.1450880233626863, 0.43287624825902604, 0.033810941971295166, -0.010339732329193458, 0.48733778006069767, -0.5436755010598512, 0.4369654649510188, -0.3816648965461623]]], "b": [[-0.32655546979867117, -0.075458856392556, -0.1639682797405187, -0.09620309545253451, -0.5168072713483449, -0.23779641265250115, -0.06895475596646516, -0.10977035160393547, -0.47651203485463056, -0.0005562570215630855, -3.755913201976452e-05, 1.4797957737606374e-05, -0.16903262947863495, -0.3808069634448612, -0.0005860624068038444, 0.000518490334198968], [-0.13515436114184423]], "vW": [[[0.000923313620298506, 0.0, 0.0, 0.0, 0.0], [-4.952685407229154e-06, 0.0, 0.0, 0.0, 0.0], [0.000542481726988868, 0.0, 0.0, 0.0, 0.0], [0.00014742978573626354, 0.0, 0.0, 0.0, 0.0], [-7.970353042654869e-06, 0.0, 0.0, 0.0, 0.0], [0.0006045716154758431, 0.0, 0.0, 0.0, 0.0], [-3.877532293293117e-06, 0.0, 0.0, 0.0, 0.0], [-1.8163624918208368e-06, 0.0, 0.0, 0.0, 0.0], [0.0012680093347234478, 0.0, 0.0, 0.0, 0.0], [4.932561930566594e-06, 0.0, 0.0, 0.0, 0.0], [3.862202940690105e-07, 0.0, 0.0, 0.0, 0.0], [-1.1757608701471186e-07, 0.0, 0.0, 0.0, 0.0], [0.0005408093196116947, 0.0, 0.0, 0.0, 0.0], [-6.187164366100925e-06, 0.0, 0.0, 0.0, 0.0], [4.975199348658664e-06, 0.0, 0.0, 0.0, 0.0], [-4.344494580810273e-06, 0.0, 0.0, 0.0, 0.0]], [[0.000564942147716203, -1.5388731935446056e-06, 0.000295519390792584, 0.00014770898539501903, -2.99574659928117e-06, 0.00040120179741977464, -1.0536603867979623e-06, -1.0683941991413821e-06, 0.0008124501645078438, -1.1137701801359389e-05, -3.1510277503161212e-06, -3.193195161590304e-07, 0.00030187738319894673, -3.266131786163837e-06, -1.7329550489905832e-06, -1.0420127359636284e-06]]], "vb": [[0.0013819328644754944, -7.461256346920916e-06, 0.0008120700005939266, 0.00022045101369602547, -1.2006586902789944e-05, 0.0009047549510196688, -5.841538824603058e-06, -2.736126528327051e-06, 0.001897709632735476, 7.433284307066123e-06, 5.824241244051418e-07, -1.7708324709056192e-07, 0.0008095401089919312, -9.320254076170104e-06, 7.495883387552875e-06, -6.545187094527326e-06], [0.0017151243440651134]]}}