{"version": 1, "model": {"layer_sizes": [5, 16, 1], "lr": 0.03, "momentum": 0.9, "grad_clip": 3.0, "total_samples": 653, "W": [[[0.9858908486285527, 0.9167098936040888, 0.041954449334932704, -0.48353986153823236, -0.6907509918316201], [-0.021248987872737192, -0.6464348041825333, -0.9087307311439718, 0.12605596212771603, 0.08435350654913912], [0.5015500044573192, -0.5780459794834379, 0.003165619319023322, -0.04094628450130507, -0.9523698821441012], [0.2801450915107382, 0.20283551001133254, 1.5110071283958506, 0.12836897902201092, -0.09151777529694573], [0.5158578715379818, 0.12572662463981144, 0.5749217012808462, -0.23119049338194606, 0.137983970293719], [0.7123188509365634, 0.4403452810123505, 0.08125298436065588, -0.6845116975202081, 0.2815829729115831], [0.0115213205685873, 0.45566371728464317, 0.13675771771954995, 0.6882288831510016, -0.032609575100486295], [0.07161871144267187, 0.4217064472385048, -0.6874061856520259, -0.25403225348189823, -0.3162458346088078], [1.4320640231949222, -0.05873110184204383, 0.41250028865134114, 0.3917271844754705, -0.17763995472297467], [-0.9777605895576096, 0.6102209068034645, -0.25753384959998116, 0.45407565931871485, -0.8255219594097656], [-0.27675463784183124, 0.7948836121736637, 0.9050463886060675, -0.8237471601839077, -0.84294146328566], [-0.02806617262024886, 0.46058025358844906, 0.10151207239074857, 0.19198485424004202, -0.6253950672515969], [0.515517688180989, 0.7063594416167539, -0.2755434956086589, -0.9066174559682012, -0.4799204277611376], [0.2871219047504509, -1.0964863798482016, -0.05810798271313834, -0.6267686722314738, -0.08293670326895732], [-0.15158682504287327, 0.010028710300835318, 0.9494469225219566, 0.2660806474441458, 0.8435140039500585], [-0.09210074400844748, -0.3033172032094295, 0.23958084834702262, -1.7935115707259193, -0.02522790151826406]], [[0.6065444673616658, -0.43516689003421405, 0.3800199657236264, 0.059491574770922165, -0.702344070525969, 0.37682977005655705, -0.3407809807166545, -0.1599398718327873, 0.8092032108768406, 0.4354245089169119, 0.034531558754562104, -0.01026675685345576, 0.3741258211609574, -0.5449198101027032, 0.4373633149642834, -0.3814280382032587]]], "b": [[-0.20611952554175866, -0.07602179016483059, -0.09284039646324656, -0.07755252111173203, -0.5177155792094177, -0.15925237044160526, -0.06939549110406917, -0.1099774271024502, -0.3114835640595122, -1.7577220872408618e-07, 5.237104376102453e-06, 1.3516285431368494e-06, -0.0981973442404153, -0.38151225133937655, -2.2068396721932503e-05, 2.5158362154987086e-05], [-0.005973741590146471]], "vW": [[[0.0012068439047788844, 0.0, 0.0, 0.0, 0.0], [-8.917801153630092e-06, 0.0, 0.0, 0.0, 0.0], [0.000759340388449006, 0.0, 0.0, 0.0, 0.0], [0.00011329545552353983, 0.0, 0.0, 0.0, 0.0], [-1.4392172752352776e-05, 0.0, 0.0, 0.0, 0.0], [0.0007470183207675661, 0.0, 0.0, 0.0, 0.0], [-6.983633189867855e-06, 0.0, 0.0, 0.0, 0.0], [-3.2772338091451987e-06, 0.0, 0.0, 0.0, 0.0], [0.0016068443579176804, 0.0, 0.0, 0.0, 0.0], [8.929948385559488e-06, 0.0, 0.0, 0.0, 0.0], [7.094028451037132e-07, 0.0, 0.0, 0.0, 0.0], [-2.1024664289735045e-07, 0.0, 0.0, 0.0, 0.0], [0.0007469613099728949, 0.0, 0.0, 0.0, 0.0], [-1.116582065910625e-05, 0.0, 0.0, 0.0, 0.0], [8.964670980219507e-06, 0.0, 0.0, 0.0, 0.0], [-7.81680007284319e-06, 0.0, 0.0, 0.0, 0.0]], [[0.0012041650403810053, -2.830466422660161e-06, 0.0006310187403604919, 0.0003130640560704384, -5.799378666746836e-06, 0.0008541892352584855, -1.95163236420118e-06, -2.009730946577153e-06, 0.0017305943854943695, -2.0051107388000688e-05, -5.67285944033545e-06, -5.748916631186985e-07, 0.0006443428167946728, -6.179369746966469e-06, -3.1194416762263184e-06, -1.8763629560320422e-06]]], "vb": [[0.0018601983890216898, -1.3775730153422896e-05, 0.0011700487755537696, 0.00017522953244267345, -2.223095267553159e-05, 0.0011517607779229682, -1.0787918986107046e-05, -5.062181513285283e-06, 0.0024771300311826304, 1.3796086539485282e-05, 1.096215197169671e-06, -3.2475283572488313e-07, 0.0011510448464247334, -1.724731147506285e-05, 1.3848720895038024e-05, -1.2075204715152665e-05], [0.0031660439303050347]]}}