{"version": 1, "model": {"layer_sizes": [5, 16, 1], "lr": 0.03, "momentum": 0.9, "grad_clip": 3.0, "total_samples": 1394, "W": [[[1.2306955604314422, 0.9167098936040888, 0.041954449334932704, -0.48353986153823236, -0.6907509918316201], [-0.022767964185756863, -0.6464348041825333, -0.9087307311439718, 0.12605596212771603, 0.08435350654913912], [0.6487495250357372, -0.5780459794834379, 0.003165619319023322, -0.04094628450130507, -0.9523698821441012], [0.313915310801666, 0.20283551001133254, 1.5110071283958506, 0.12836897902201092, -0.09151777529694573], [0.513411391475154, 0.12572662463981144, 0.5749217012808462, -0.23119049338194606, 0.137983970293719], [0.8697192676423631, 0.4403452810123505, 0.08125298436065588, -0.6845116975202081, 0.2815829729115831], [0.010331968343818478, 0.45566371728464317, 0.13675771771954995, 0.6882288831510016, -0.032609575100486295], [0.07106139988149349, 0.4217064472385048, -0.6874061856520259, -0.25403225348189823, -0.3162458346088078], [1.7648747838409673, -0.05873110184204383, 0.41250028865134114, 0.3917271844754705, -0.17763995472297467], [-0.9762425808682645, 0.6102209068034645, -0.25753384959998116, 0.45407565931871485, -0.8255219594097656], [-0.2766347648880584, 0.7948836121736637, 0.9050463886060675, -0.8237471601839077, -0.84294146328566], [-0.02810209710387605, 0.46058025358844906, 0.10151207239074857, 0.19198485424004202, -0.6253950672515969], [0.6615910296674039, 0.7063594416167539, -0.2755434956086589, -0.9066174559682012, -0.4799204277611376], [0.2852233025567467, -1.0964863798482016, -0.05810798271313834, -0.6267686722314738, -0.08293670326895732], [-0.150059916401579, 0.010028710300835318, 0.9494469225219566, 0.2660806474441458, 0.8435140039500585], [-0.09343295137466104, -0.3033172032094295, 0.23958084834702262, -1.7935115707259193, -0.02522790151826406]], [[0.9112116368860744, -0.4351056000943006, 0.5269146932282806, 0.15885458908896044, -0.6996407950169318, 0.6039149429241045, -0.34061758545645404, -0.1594980933789633, 1.2598914971647348, 0.43200609962576875, 0.03356478850039724, -0.010364673198518498, 0.5269788077190832, -0.543252310208109, 0.4368299711377098, -0.3817461861741766]]], "b": [[-0.37457828125099274, -0.07526805617208587, -0.19162961285051866, -0.10474597977485772, -0.5164998402213502, -0.269717016393441, -0.06880540006896545, -0.10970021699188386, -0.5430198094044051, -0.0007436144370297328, -5.175872281900049e-05, 1.93846852610769e-05, -0.19671928000569597, -0.3805681328451837, -0.0007770009775879959, 0.0006857512455809596], [-0.1789261046748603]], "vW": [[[0.0010345961722628368, 0.0, 0.0, 0.0, 0.0], [-5.053494182347273e-06, 0.0, 0.0, 0.0, 0.0], [0.0005989473473284881, 0.0, 0.0, 0.0, 0.0], [0.00017928322228490695, 0.0, 0.0, 0.0, 0.0], [-8.124889216941805e-06, 0.0, 0.0, 0.0, 0.0], [0.0006851009366594826, 0.0, 0.0, 0.0, 0.0], [-3.9561141981854004e-06, 0.0, 0.0, 0.0, 0.0], [-1.8520990186949116e-06, 0.0, 0.0, 0.0, 0.0], [0.0014298014274413, 0.0, 0.0, 0.0, 0.0], [5.022901432923905e-06, 0.0, 0.0, 0.0, 0.0], [3.912029380856992e-07, 0.0, 0.0, 0.0, 0.0], [-1.2026604880041613e-07, 0.0, 0.0, 0.0, 0.0], [0.0005988813279325132, 0.0, 0.0, 0.0, 0.0], [-6.308410635768921e-06, 0.0, 0.0, 0.0, 0.0], [5.0750370251651745e-06, 0.0, 0.0, 0.0, 0.0], [-4.434020353999255e-06, 0.0, 0.0, 0.0, 0.0]], [[0.0005368319743854492, -1.6225224237016125e-06, 0.0002826964267792873, 0.0001373877304221924, -3.408391776502079e-06, 0.00037962212846101725, -1.1227512303163704e-06, -1.1648779501228603e-06, 0.0007701330947156598, -1.1363840202425474e-05, -3.2151777907050303e-06, -3.258470731266088e-07, 0.00028835660869280235, -3.591844302172378e-06, -1.7674236751861135e-06, -1.0639886332995598e-06]]], "vb": [[0.001611218364040051, -7.90745183606215e-06, 0.0009328272711666341, 0.0002791064356547503, -1.2712716669623368e-05, 0.0010668817060697708, -6.1903352496722936e-06, -2.897864138721773e-06, 0.0022266247184740792, 7.861669163630258e-06, 6.12652130002547e-07, -1.881451013444572e-07, 0.0009327118047537746, -9.870424925662482e-06, 7.94178990601034e-06, -6.938282661339554e-06], [0.0018177329545129989]]}}