{"version": 1, "model": {"layer_sizes": [5, 16, 1], "lr": 0.03, "momentum": 0.9, "grad_clip": 3.0, "total_samples": 1082, "W": [[[1.128627912633371, 0.9167098936040888, 0.041954449334932704, -0.48353986153823236, -0.6907509918316201], [-0.022210089608818567, -0.6464348041825333, -0.9087307311439718, 0.12605596212771603, 0.08435350654913912], [0.5888537486850357, -0.5780459794834379, 0.003165619319023322, -0.04094628450130507, -0.9523698821441012], [0.29750265529643516, 0.20283551001133254, 1.5110071283958506, 0.12836897902201092, -0.09151777529694573], [0.514308771030231, 0.12572662463981144, 0.5749217012808462, -0.23119049338194606, 0.137983970293719], [0.8028243437355943, 0.4403452810123505, 0.08125298436065588, -0.6845116975202081, 0.2815829729115831], [0.010768735250573978, 0.45566371728464317, 0.13675771771954995, 0.6882288831510016, -0.032609575100486295], [0.07126589094236914, 0.4217064472385048, -0.6874061856520259, -0.25403225348189823, -0.3162458346088078], [1.6246295448097088, -0.05873110184204383, 0.41250028865134114, 0.3917271844754705, -0.17763995472297467], [-0.9767989291276157, 0.6102209068034645, -0.25753384959998116, 0.45407565931871485, -0.8255219594097656], [-0.2766784471064483, 0.7948836121736637, 0.9050463886060675, -0.8237471601839077, -0.84294146328566], [-0.028088866399200767, 0.46058025358844906, 0.10151207239074857, 0.19198485424004202, -0.6253950672515969], [0.6018653624708217, 0.7063594416167539, -0.2755434956086589, -0.9066174559682012, -0.4799204277611376], [0.28591988349217407, -1.0964863798482016, -0.05810798271313834, -0.6267686722314738, -0.08293670326895732], [-0.1506205731923416, 0.010028710300835318, 0.9494469225219566, 0.2660806474441458, 0.8435140039500585], [-0.09294350353475772, -0.3033172032094295, 0.23958084834702262, -1.7935115707259193, -0.02522790151826406]], [[0.7984407906840653, -0.4351282393429584, 0.4717736119294141, 0.12329026818135501, -0.7006366298962154, 0.5205213506779257, -0.34067776859306503, -0.1596609684672458, 1.093844705660916, 0.4332613191963484, 0.033919860538476114, -0.010328698434389553, 0.46978818984859577, -0.5438669086171093, 0.4370254793479832, -0.3816289843878445]]], "b": [[-0.30567340338291443, -0.07554792526631124, -0.1518300698159932, -0.09266216950732124, -0.5169508556780955, -0.22401075217066485, -0.06902448312814313, -0.10980309784682561, -0.4477026806238119, -0.0004685429534523975, -3.0862571595594285e-05, 1.266314255927839e-05, -0.15690572453602167, -0.38091848409845513, -0.0004968752930178209, 0.0004404171937850654], [-0.1147170453913598]], "vW": [[[0.0008718633986639887, 0.0, 0.0, 0.0, 0.0], [-4.891572298298371e-06, 0.0, 0.0, 0.0, 0.0], [0.0005162441063768816, 0.0, 0.0, 0.0, 0.0], [0.00013291023041035806, 0.0, 0.0, 0.0, 0.0], [-7.875345189475021e-06, 0.0, 0.0, 0.0, 0.0], [0.00056745270912498, 0.0, 0.0, 0.0, 0.0], [-3.8298341776559685e-06, 0.0, 0.0, 0.0, 0.0], [-1.7944871067302302e-06, 0.0, 0.0, 0.0, 0.0], [0.0011933386914043478, 0.0, 0.0, 0.0, 0.0], [4.876019863587109e-06, 0.0, 0.0, 0.0, 0.0], [3.826927473611065e-07, 0.0, 0.0, 0.0, 0.0], [-1.1599743405471711e-07, 0.0, 0.0, 0.0, 0.0], [0.0005138556420235893, 0.0, 0.0, 0.0, 0.0], [-6.112858305521581e-06, 0.0, 0.0, 0.0, 0.0], [4.914417616471684e-06, 0.0, 0.0, 0.0, 0.0], [-4.290409333070357e-06, 0.0, 0.0, 0.0, 0.0]], [[0.0005760145146197008, -1.4930654702150465e-06, 0.0003003214035598734, 0.00015216749476471486, -2.778244874256485e-06, 0.00040991570794804053, -1.016232176782316e-06, -1.016844759072539e-06, 0.0008293686967140324, -1.1000510849838608e-05, -3.112137483785766e-06, -3.1536651656497236e-07, 0.00030700471206547976, -3.0927520089933433e-06, -1.7119293185808028e-06, -1.0288116851377777e-06]]], "vb": [[0.0012766859698174252, -7.218004531580246e-06, 0.0007561246930521803, 0.00019434063184853968, -1.16199950555799e-05, 0.0008307780661986834, -5.651312304091837e-06, -2.6476926931404386e-06, 0.0017472485852555288, 7.197538057126239e-06, 5.653158904311528e-07, -1.7111721575743494e-07, 0.0007525909799113524, -9.019329053443238e-06, 7.252468072760265e-06, -6.331114962033751e-06], [0.0016591911274107451]]}}