{"version": 1, "model": {"layer_sizes": [5, 16, 1], "lr": 0.03, "momentum": 0.9, "grad_clip": 3.0, "total_samples": 244, "W": [[[0.8725058276385347, 0.9167098936040888, 0.041954449334932704, -0.48353986153823236, -0.6907509918316201], [-0.02012345332239017, -0.6464348041825333, -0.9087307311439718, 0.12605596212771603, 0.08435350654913912], [0.424153984448301, -0.5780459794834379, 0.003165619319023322, -0.04094628450130507, -0.9523698821441012], [0.27906412618035015, 0.20283551001133254, 1.5110071283958506, 0.12836897902201092, -0.09151777529694573], [0.5176771819773236, 0.12572662463981144, 0.5749217012808462, -0.23119049338194606, 0.137983970293719], [0.6473385414833767, 0.4403452810123505, 0.08125298436065588, -0.6845116975202081, 0.2815829729115831], [0.012402878293579193, 0.45566371728464317, 0.13675771771954995, 0.6882288831510016, -0.032609575100486295], [0.07203276546083681, 0.4217064472385048, -0.6874061856520259, -0.25403225348189823, -0.3162458346088078], [1.2871855379938284, -0.05873110184204383, 0.41250028865134114, 0.3917271844754705, -0.17763995472297467], [-0.9788922876975557, 0.6102209068034645, -0.25753384959998116, 0.45407565931871485, -0.8255219594097656], [-0.2768454738545156, 0.7948836121736637, 0.9050463886060675, -0.8237471601839077, -0.84294146328566], [-0.0280397673288996, 0.46058025358844906, 0.10151207239074857, 0.19198485424004202, -0.6253950672515969], [0.44051230553860404, 0.7063594416167539, -0.2755434956086589, -0.9066174559682012, -0.4799204277611376], [0.28853282941291225, -1.0964863798482016, -0.05810798271313834, -0.6267686722314738, -0.08293670326895732], [-0.1527190341684333, 0.010028710300835318, 0.9494469225219566, 0.2660806474441458, 0.8435140039500585], [-0.09111455829890734, -0.3033172032094295, 0.23958084834702262, -1.7935115707259193, -0.02522790151826406]], [[0.3860082178782078, -0.4352972561055854, 0.28317043793380015, -0.027409401860022515, -0.7049043504419701, 0.20430362996462906, -0.3409790574502397, -0.16038571367791543, 0.47343558567023925, 0.4379607916824271, 0.03524804082537011, -0.010194316213953194, 0.2710409351547198, -0.5465663272335722, 0.43776241132643684, -0.38119585269038514]]], "b": [[-0.06597120417292968, -0.07704352225514777, -0.0017245709108628766, -0.06903182104301246, -0.51936845315686, -0.07502509952751374, -0.07019570020248192, -0.11035376988364677, -0.12783495717856372, 0.001020715632440971, 8.607196248893215e-05, -2.2752398320734762e-05, -0.009114187247938884, -0.3827945068159052, 0.0010039000390702235, -0.0008697403964374888], [0.2286265955050527]], "vW": [[[0.0002693110399351635, 0.0, 0.0, 0.0, 0.0], [-3.467833051615071e-06, 0.0, 0.0, 0.0, 0.0], [0.00020424066503474142, 0.0, 0.0, 0.0, 0.0], [-2.9670401521911313e-05, 0.0, 0.0, 0.0, 0.0], [-5.614877463834081e-06, 0.0, 0.0, 0.0, 0.0], [0.00013680027699508097, 0.0, 0.0, 0.0, 0.0], [-2.7164918149232273e-06, 0.0, 0.0, 0.0, 0.0], [-1.2773837255030308e-06, 0.0, 0.0, 0.0, 0.0], [0.00032359395305954063, 0.0, 0.0, 0.0, 0.0], [3.4947897015976527e-06, 0.0, 0.0, 0.0, 0.0], [2.822679816918129e-07, 0.0, 0.0, 0.0, 0.0], [-8.109091547230875e-08, 0.0, 0.0, 0.0, 0.0], [0.00019442421161845226, 0.0, 0.0, 0.0, 0.0], [-4.35325552937124e-06, 0.0, 0.0, 0.0, 0.0], [3.489038996144213e-06, 0.0, 0.0, 0.0, 0.0], [-3.037063051209461e-06, 0.0, 0.0, 0.0, 0.0]], [[0.0005606122864996691, -6.205686656535894e-07, 0.00026759151344474415, 0.00018711118394702396, 9.683034280035176e-07, 0.00042018121254208977, -3.2183567018038037e-07, -9.649393573320058e-08, 0.0008320242169548046, -7.804667463536712e-06, -2.2063557238506262e-06, -2.2332337394520774e-07, 0.00027910397911883825, -2.6848794053380094e-08, -1.2214651765304203e-06, -7.220635617145463e-07]]], "vb": [[0.00016747957674519555, -2.6585049872008565e-06, 0.0001334574213207357, -2.8629551500652532e-05, -4.3024539349658055e-06, 7.953577607553786e-05, -2.082537776911879e-06, -9.786659705719984e-07, 0.00019475857253685707, 2.685318778749712e-06, 2.1791789897880224e-07, -6.204428793912838e-08, 0.0001260462360734958, -3.3353824247414283e-06, 2.6766082333246826e-06, -2.328709751392065e-06], [0.0006111177036310167]]}}