{"version": 1, "model": {"layer_sizes": [5, 16, 1], "lr": 0.03, "momentum": 0.9, "grad_clip": 3.0, "total_samples": 1277, "W": [[[1.1924894121041616, 0.9167098936040888, 0.041954449334932704, -0.48353986153823236, -0.6907509918316201], [-0.022567978193393394, -0.6464348041825333, -0.9087307311439718, 0.12605596212771603, 0.08435350654913912], [0.6264909019572283, -0.5780459794834379, 0.003165619319023322, -0.04094628450130507, -0.9523698821441012], [0.3075163347497612, 0.20283551001133254, 1.5110071283958506, 0.12836897902201092, -0.09151777529694573], [0.5137329342770439, 0.12572662463981144, 0.5749217012808462, -0.23119049338194606, 0.137983970293719], [0.8445400980535517, 0.4403452810123505, 0.08125298436065588, -0.6845116975202081, 0.2815829729115831], [0.01048853373909428, 0.45566371728464317, 0.13675771771954995, 0.6882288831510016, -0.032609575100486295], [0.07113468050410764, 0.4217064472385048, -0.6874061856520259, -0.25403225348189823, -0.3162458346088078], [1.7122153875412975, -0.05873110184204383, 0.41250028865134114, 0.3917271844754705, -0.17763995472297467], [-0.9764418639325547, 0.6102209068034645, -0.25753384959998116, 0.45407565931871485, -0.8255219594097656], [-0.27665037842898277, 0.7948836121736637, 0.9050463886060675, -0.8237471601839077, -0.84294146328566], [-0.02809734932573354, 0.46058025358844906, 0.10151207239074857, 0.19198485424004202, -0.6253950672515969], [0.6393633026344727, 0.7063594416167539, -0.2755434956086589, -0.9066174559682012, -0.4799204277611376], [0.28547291841073935, -1.0964863798482016, -0.05810798271313834, -0.6267686722314738, -0.08293670326895732], [-0.15026088185616254, 0.010028710300835318, 0.9494469225219566, 0.2660806474441458, 0.8435140039500585], [-0.09325747307902998, -0.3033172032094295, 0.23958084834702262, -1.7935115707259193, -0.02522790151826406]], [[0.8709665840930463, -0.4351130839446252, 0.5071452822781013, 0.14630625345882353, -0.6999937289765892, 0.5742320548069078, -0.3406385895692161, -0.15955561819269626, 1.2007250591399463, 0.43245603852996045, 0.03369207500759264, -0.010351775477597394, 0.5064964111797107, -0.5434696405292248, 0.43690001274157353, -0.38170412995412367]]], "b": [[-0.34959305774234867, -0.07536504070643714, -0.17727829599552805, -0.10023769285678943, -0.5166560830531067, -0.2530748113672027, -0.06888131632934949, -0.10973586454315624, -0.5083767728146771, -0.000648475580744747, -4.456674311389368e-05, 1.705083352786808e-05, -0.18234662570093926, -0.38068952055551475, -0.0006799665962852915, 0.0006007292699663396], [-0.15667826455765854]], "vW": [[[0.0009780526669110746, 0.0, 0.0, 0.0, 0.0], [-5.007852346338578e-06, 0.0, 0.0, 0.0, 0.0], [0.0005703087689608614, 0.0, 0.0, 0.0, 0.0], [0.0001630160699845054, 0.0, 0.0, 0.0, 0.0], [-8.05543386802259e-06, 0.0, 0.0, 0.0, 0.0], [0.0006441386665147649, 0.0, 0.0, 0.0, 0.0], [-3.9205587431221465e-06, 0.0, 0.0, 0.0, 0.0], [-1.8360006692680835e-06, 0.0, 0.0, 0.0, 0.0], [0.0013475413332890047, 0.0, 0.0, 0.0, 0.0], [4.982685251011048e-06, 0.0, 0.0, 0.0, 0.0], [3.89142771277794e-07, 0.0, 0.0, 0.0, 0.0], [-1.1902803597372333e-07, 0.0, 0.0, 0.0, 0.0], [0.0005694159825493413, 0.0, 0.0, 0.0, 0.0], [-6.253826291953984e-06, 0.0, 0.0, 0.0, 0.0], [5.029934097082488e-06, 0.0, 0.0, 0.0, 0.0], [-4.3934143266187565e-06, 0.0, 0.0, 0.0, 0.0]], [[0.000551807056352537, -1.5827679594609552e-06, 0.00028961558922426103, 0.00014274714659342163, -3.2090482058858037e-06, 0.000391042593964244, -1.0897598675704711e-06, -1.1185336592189773e-06, 0.0007925881100450279, -1.1261495686099184e-05, -3.186133862974094e-06, -3.228899809183945e-07, 0.0002956296707123189, -3.4351478942189714e-06, -1.7518709208970239e-06, -1.0539893605673492e-06]]], "vb": [[0.001494545923240693, -7.694996252332906e-06, 0.0008715727445443807, 0.0002489545230825539, -1.2377116267307058e-05, 0.0009842172119508494, -6.02428424143478e-06, -2.820951928724308e-06, 0.002059061420052045, 7.658535647924889e-06, 5.984991733228018e-07, -1.8285337040214453e-07, 0.0008701895448941115, -9.608838891846192e-06, 7.729594544974839e-06, -6.75102233301471e-06], [0.001768873767510643]]}}