{"version": 1, "model": {"layer_sizes": [5, 16, 1], "lr": 0.03, "momentum": 0.9, "grad_clip": 3.0, "total_samples": 456, "W": [[[0.9303948551628024, 0.9167098936040888, 0.041954449334932704, -0.48353986153823236, -0.6907509918316201], [-0.020765132294245002, -0.6464348041825333, -0.9087307311439718, 0.12605596212771603, 0.08435350654913912], [0.4652880104816405, -0.5780459794834379, 0.003165619319023322, -0.04094628450130507, -0.9523698821441012], [0.27705838480671824, 0.20283551001133254, 1.5110071283958506, 0.12836897902201092, -0.09151777529694573], [0.5166392521954893, 0.12572662463981144, 0.5749217012808462, -0.23119049338194606, 0.137983970293719], [0.6791228296935727, 0.4403452810123505, 0.08125298436065588, -0.6845116975202081, 0.2815829729115831], [0.011900264213456373, 0.45566371728464317, 0.13675771771954995, 0.6882288831510016, -0.032609575100486295], [0.07179658512340804, 0.4217064472385048, -0.6874061856520259, -0.25403225348189823, -0.3162458346088078], [1.3595256550473969, -0.05873110184204383, 0.41250028865134114, 0.3917271844754705, -0.17763995472297467], [-0.9782464055877172, 0.6102209068034645, -0.25753384959998116, 0.45407565931871485, -0.8255219594097656], [-0.2767934833135128, 0.7948836121736637, 0.9050463886060675, -0.8237471601839077, -0.84294146328566], [-0.028054799192439254, 0.46058025358844906, 0.10151207239074857, 0.19198485424004202, -0.6253950672515969], [0.4800974736534797, 0.7063594416167539, -0.2755434956086589, -0.9066174559682012, -0.4799204277611376], [0.2877279870192717, -1.0964863798482016, -0.05810798271313834, -0.6267686722314738, -0.08293670326895732], [-0.15207348021709927, 0.010028710300835318, 0.9494469225219566, 0.2660806474441458, 0.8435140039500585], [-0.09167668573004695, -0.3033172032094295, 0.23958084834702262, -1.7935115707259193, -0.02522790151826406]], [[0.508268073657083, -0.43522459814380104, 0.3356041101475958, 0.022752270623673253, -0.7034585540755296, 0.30102838368840706, -0.3408677158318617, -0.1601344604391802, 0.6608409478431523, 0.4365144591201262, 0.03483955770153673, -0.010235601433444987, 0.32718625908608623, -0.5456377950166995, 0.43753442505500445, -0.38132780251066933]]], "b": [[-0.1365913505954473, -0.07647324989125828, -0.049234743109578205, -0.07080246240250578, -0.5184451811001826, -0.11609417657548113, -0.06974903652543092, -0.11014359973106111, -0.2187688350585695, 0.00044994447259516496, 4.067784871751189e-05, -9.327396464360684e-06, -0.055276252623119, -0.38207837967330843, 0.00043112447878075844, -0.0003703633023996839], [0.09768976857908795]], "vW": [[[0.00043672985372053064, 0.0, 0.0, 0.0, 0.0], [-4.026641972914767e-06, 0.0, 0.0, 0.0, 0.0], [0.0002920030261720296, 0.0, 0.0, 0.0, 0.0], [1.380870285074323e-05, 0.0, 0.0, 0.0, 0.0], [-6.507443337696416e-06, 0.0, 0.0, 0.0, 0.0], [0.00025553520272936816, 0.0, 0.0, 0.0, 0.0], [-3.153713624522519e-06, 0.0, 0.0, 0.0, 0.0], [-1.4811925075352335e-06, 0.0, 0.0, 0.0, 0.0], [0.0005641738553313649, 0.0, 0.0, 0.0, 0.0], [4.044178366763611e-06, 0.0, 0.0, 0.0, 0.0], [3.237554860638498e-07, 0.0, 0.0, 0.0, 0.0], [-9.45790797768553e-08, 0.0, 0.0, 0.0, 0.0], [0.00028403300611251273, 0.0, 0.0, 0.0, 0.0], [-5.0471255877372305e-06, 0.0, 0.0, 0.0, 0.0], [4.049554028140252e-06, 0.0, 0.0, 0.0, 0.0], [-3.528236926471853e-06, 0.0, 0.0, 0.0, 0.0]], [[0.0006044907563473478, -9.386581003428858e-07, 0.00030162959956258175, 0.0001810743407787206, -3.336731895427185e-07, 0.0004418155191595726, -5.720816040087496e-07, -4.2193506018173627e-07, 0.0008839813918039103, -9.058356964115141e-06, -2.561791201262383e-06, -2.59458616426437e-07, 0.0003113883008393027, -1.1060315716356181e-06, -1.413415424405722e-06, -8.429141090821517e-07]]], "vb": [[0.00044266668462828113, -4.305974217388708e-06, 0.00029801771460258785, 1.0765971691083779e-05, -6.9572910051753855e-06, 0.00025725124947806213, -3.372505101217385e-06, -1.5834842995078912e-06, 0.0005697868957988358, 4.329214684731601e-06, 3.473247666817136e-07, -1.0105241419788229e-07, 0.00028952467388102, -5.395782479216558e-06, 4.331839174858181e-06, -3.77333427981402e-06], [0.0009897447257340044]]}}