{"version": 1, "model": {"layer_sizes": [5, 16, 1], "lr": 0.03, "momentum": 0.9, "grad_clip": 3.0, "total_samples": 1212, "W": [[[1.1712138241714647, 0.9167098936040888, 0.041954449334932704, -0.48353986153823236, -0.6907509918316201], [-0.022452309867152555, -0.6464348041825333, -0.9087307311439718, 0.12605596212771603, 0.08435350654913912], [0.6140179650212864, -0.5780459794834379, 0.003165619319023322, -0.04094628450130507, -0.9523698821441012], [0.30407607904854306, 0.20283551001133254, 1.5110071283958506, 0.12836897902201092, -0.09151777529694573], [0.5139189843247326, 0.12572662463981144, 0.5749217012808462, -0.23119049338194606, 0.137983970293719], [0.8305857276367014, 0.4403452810123505, 0.08125298436065588, -0.6845116975202081, 0.2815829729115831], [0.010579091475163832, 0.45566371728464317, 0.13675771771954995, 0.6882288831510016, -0.032609575100486295], [0.07117707741764226, 0.4217064472385048, -0.6874061856520259, -0.25403225348189823, -0.3162458346088078], [1.6829696751395566, -0.05873110184204383, 0.41250028865134114, 0.3917271844754705, -0.17763995472297467], [-0.9765572049509965, 0.6102209068034645, -0.25753384959998116, 0.45407565931871485, -0.8255219594097656], [-0.2766594322151727, 0.7948836121736637, 0.9050463886060675, -0.8237471601839077, -0.84294146328566], [-0.028094605765703967, 0.46058025358844906, 0.10151207239074857, 0.19198485424004202, -0.6253950672515969], [0.6269233719541525, 0.7063594416167539, -0.2755434956086589, -0.9066174559682012, -0.4799204277611376], [0.2856173392217245, -1.0964863798482016, -0.05810798271313834, -0.6267686722314738, -0.08293670326895732], [-0.15037712580277768, 0.010028710300835318, 0.9494469225219566, 0.2660806474441458, 0.8435140039500585], [-0.09315599065298058, -0.3033172032094295, 0.23958084834702262, -1.7935115707259193, -0.02522790151826406]], [[0.8475849887951454, -0.4351177181121221, 0.49570401600668756, 0.13894581907228568, -0.7001998171697574, 0.5569487344940247, -0.34065101375907886, -0.15958930622413708, 1.1663058892377578, 0.4327162898067414, 0.033765694769374854, -0.0103443164330985, 0.49463191636488263, -0.5435967852207296, 0.4369405451177357, -0.3816798260425674]]], "b": [[-0.3352930313158091, -0.07542274910464851, -0.16902585951998989, -0.09771841192975787, -0.5167490769329242, -0.24358300624530171, -0.06892649046680162, -0.10975707789352256, -0.48858802073644503, -0.0005917708572156018, -4.026190207724092e-05, 1.566449865994194e-05, -0.17408980585271305, -0.3807617601176495, -0.0006222082798899146, 0.000550141426519438], [-0.14343869801045633]], "vW": [[[0.0009443451204445999, 0.0, 0.0, 0.0, 0.0], [-4.97511077589617e-06, 0.0, 0.0, 0.0, 0.0], [0.0005531844680360893, 0.0, 0.0, 0.0, 0.0], [0.00015340055242815104, 0.0, 0.0, 0.0, 0.0], [-8.005039283362467e-06, 0.0, 0.0, 0.0, 0.0], [0.0006197641944776621, 0.0, 0.0, 0.0, 0.0], [-3.895027090144283e-06, 0.0, 0.0, 0.0, 0.0], [-1.8243614854972117e-06, 0.0, 0.0, 0.0, 0.0], [0.0012985553643336425, 0.0, 0.0, 0.0, 0.0], [4.95307239158697e-06, 0.0, 0.0, 0.0, 0.0], [3.8744691325752244e-07, 0.0, 0.0, 0.0, 0.0], [-1.1816233579390267e-07, 0.0, 0.0, 0.0, 0.0], [0.0005518093298088299, 0.0, 0.0, 0.0, 0.0], [-6.214323654640516e-06, 0.0, 0.0, 0.0, 0.0], [4.9974686426623065e-06, 0.0, 0.0, 0.0, 0.0], [-4.364366153914133e-06, 0.0, 0.0, 0.0, 0.0]], [[0.0005600570863823681, -1.5563433793424585e-06, 0.00029334563404515967, 0.00014582900736486763, -3.0799693324719645e-06, 0.00039740465729343037, -1.0679957446557477e-06, -1.088247773636442e-06, 0.0008050412444996294, -1.1188031654021847e-05, -3.165298447514094e-06, -3.2077059054064917e-07, 0.0002995712782223572, -3.3330051446947264e-06, -1.7406542887982922e-06, -1.0468719551586462e-06]]], "vb": [[0.0014251389996628294, -7.554198983301176e-06, 0.0008349430330687176, 0.00023131793895787075, -1.2154051463235189e-05, 0.00093520461911465, -5.91421024688374e-06, -2.7698765508349367e-06, 0.001959571393918362, 7.523027182186534e-06, 5.88866179187888e-07, -1.793724961412691e-07, 0.0008328442360829333, -9.435083603414992e-06, 7.588840168483288e-06, -6.62701550672552e-06], [0.001736496414390159]]}}