{"version": 1, "model": {"layer_sizes": [5, 16, 1], "lr": 0.03, "momentum": 0.9, "grad_clip": 3.0, "total_samples": 1433, "W": [[[1.2433993556232315, 0.9167098936040888, 0.041954449334932704, -0.48353986153823236, -0.6907509918316201], [-0.022832461233537295, -0.6464348041825333, -0.9087307311439718, 0.12605596212771603, 0.08435350654913912], [0.6561149894862779, -0.5780459794834379, 0.003165619319023322, -0.04094628450130507, -0.9523698821441012], [0.3160993587806126, 0.20283551001133254, 1.5110071283958506, 0.12836897902201092, -0.09151777529694573], [0.5133077264603659, 0.12572662463981144, 0.5749217012808462, -0.23119049338194606, 0.137983970293719], [0.878122164436423, 0.4403452810123505, 0.08125298436065588, -0.6845116975202081, 0.2815829729115831], [0.010281476223901034, 0.45566371728464317, 0.13675771771954995, 0.6882288831510016, -0.032609575100486295], [0.07103777221077583, 0.4217064472385048, -0.6874061856520259, -0.25403225348189823, -0.3162458346088078], [1.7824202445135147, -0.05873110184204383, 0.41250028865134114, 0.3917271844754705, -0.17763995472297467], [-0.976178347447046, 0.6102209068034645, -0.25753384959998116, 0.45407565931871485, -0.8255219594097656], [-0.27662974020211134, 0.7948836121736637, 0.9050463886060675, -0.8237471601839077, -0.84294146328566], [-0.028103629449550426, 0.46058025358844906, 0.10151207239074857, 0.19198485424004202, -0.6253950672515969], [0.6689534539163804, 0.7063594416167539, -0.2755434956086589, -0.9066174559682012, -0.4799204277611376], [0.28514282153786996, -1.0964863798482016, -0.05810798271313834, -0.6267686722314738, -0.08293670326895732], [-0.14999510773072297, 0.010028710300835318, 0.9494469225219566, 0.2660806474441458, 0.8435140039500585], [-0.09348954964865641, -0.3033172032094295, 0.23958084834702262, -1.7935115707259193, -0.02522790151826406]], [[0.9241356218811138, -0.4351033176267657, 0.533282722958544, 0.16285356880186466, -0.6995278084779345, 0.6134303747729315, -0.34061092972492196, -0.1594797194669784, 1.27887221102022, 0.4318609972715528, 0.03352373736166127, -0.010368833161015237, 0.5335718598532134, -0.5431828375886938, 0.43680739181909317, -0.3817597588992118]]], "b": [[-0.3827115360196602, -0.07523746777616404, -0.19628441904481203, -0.10624017764887464, -0.5164505731658028, -0.27514892941417496, -0.06878145735452039, -0.10968897483667314, -0.5543138629204376, -0.0007735780114668508, -5.401556357427274e-05, 2.012183694673763e-05, -0.20138445278544923, -0.38052985240463977, -0.0008075959023670364, 0.0007125678004033011], [-0.1859422606355291]], "vW": [[[0.001052304775110297, 0.0, 0.0, 0.0, 0.0], [-5.065260134614748e-06, 0.0, 0.0, 0.0, 0.0], [0.0006078923837434789, 0.0, 0.0, 0.0, 0.0], [0.00018441600138586114, 0.0, 0.0, 0.0, 0.0], [-8.142532338237806e-06, 0.0, 0.0, 0.0, 0.0], [0.0006979504771157025, 0.0, 0.0, 0.0, 0.0], [-3.965268236516167e-06, 0.0, 0.0, 0.0, 0.0], [-1.8562072590108108e-06, 0.0, 0.0, 0.0, 0.0], [0.0014555883708573956, 0.0, 0.0, 0.0, 0.0], [5.0329189077766375e-06, 0.0, 0.0, 0.0, 0.0], [3.9163413252100237e-07, 0.0, 0.0, 0.0, 0.0], [-1.205954617418995e-07, 0.0, 0.0, 0.0, 0.0], [0.0006080901920876901, 0.0, 0.0, 0.0, 0.0], [-6.322322987138823e-06, 0.0, 0.0, 0.0, 0.0], [5.0866134955138695e-06, 0.0, 0.0, 0.0, 0.0], [-4.4445252782627886e-06, 0.0, 0.0, 0.0, 0.0]], [[0.0005318533135464307, -1.6337288878558446e-06, 0.0002803617755207508, 0.00013566007656492547, -3.46614543992605e-06, 0.00037585471068821955, -1.1321266060442883e-06, -1.1781781542336292e-06, 0.000762702102673337, -1.1390201188882924e-05, -3.222664708304161e-06, -3.2661028500389996e-07, 0.000285911250392735, -3.636932035943643e-06, -1.771404424979245e-06, -1.0665929278534233e-06]]], "vb": [[0.0016477683522561617, -7.967526815788616e-06, 0.0009519322041323822, 0.00028868524655211076, -1.2807315422812863e-05, 0.001092850449394612, -6.237275229838711e-06, -2.919564946086653e-06, 0.0022792020234393205, 7.918706372084693e-06, 6.165394585331391e-07, -1.8965318108410027e-07, 0.0009522309684020323, -9.94421214021779e-06, 8.001732745334874e-06, -6.9912754253822825e-06], [0.001831549658114045]]}}