{"version": 1, "model": {"layer_sizes": [5, 16, 1], "lr": 0.03, "momentum": 0.9, "grad_clip": 3.0, "total_samples": 1251, "W": [[[1.1839824994619212, 0.9167098936040888, 0.041954449334932704, -0.48353986153823236, -0.6907509918316201], [-0.022522122222702574, -0.6464348041825333, -0.9087307311439718, 0.12605596212771603, 0.08435350654913912], [0.6215108647224716, -0.5780459794834379, 0.003165619319023322, -0.04094628450130507, -0.9523698821441012], [0.3061294137059469, 0.20283551001133254, 1.5110071283958506, 0.12836897902201092, -0.09151777529694573], [0.5138066859953134, 0.12572662463981144, 0.5749217012808462, -0.23119049338194606, 0.137983970293719], [0.8389543503861286, 0.4403452810123505, 0.08125298436065588, -0.6845116975202081, 0.2815829729115831], [0.010524434503033598, 0.45566371728464317, 0.13675771771954995, 0.6882288831510016, -0.032609575100486295], [0.07115148737162863, 0.4217064472385048, -0.6874061856520259, -0.25403225348189823, -0.3162458346088078], [1.7005144414457327, -0.05873110184204383, 0.41250028865134114, 0.3917271844754705, -0.17763995472297467], [-0.9764875831794151, 0.6102209068034645, -0.25753384959998116, 0.45407565931871485, -0.8255219594097656], [-0.27665396570633743, 0.7948836121736637, 0.9050463886060675, -0.8237471601839077, -0.84294146328566], [-0.028096261441706512, 0.46058025358844906, 0.10151207239074857, 0.19198485424004202, -0.6253950672515969], [0.6343950050269805, 0.7063594416167539, -0.2755434956086589, -0.9066174559682012, -0.4799204277611376], [0.28553016894423233, -1.0964863798482016, -0.05810798271313834, -0.6267686722314738, -0.08293670326895732], [-0.15030696522787823, 0.010028710300835318, 0.9494469225219566, 0.2660806474441458, 0.8435140039500585], [-0.09321724004245364, -0.3033172032094295, 0.23958084834702262, -1.7935115707259193, -0.02522790151826406]], [[0.8617053117352279, -0.4351148928836134, 0.5026094297455186, 0.14339724427027875, -0.7000752501641844, 0.5673897466699453, -0.34064348956538254, -0.15956893503497335, 1.187095962918013, 0.43255921214795134, 0.03372126113168164, -0.010348818318050894, 0.5017937429568002, -0.5435199125318152, 0.43691607959058776, -0.381694492956448]]], "b": [[-0.34391121991447254, -0.07538776935733926, -0.17400292205622997, -0.09923106443831181, -0.516692706773925, -0.24930035766116995, -0.06889910814967008, -0.10974421930213213, -0.5005105057793108, -0.0006261504576927151, -4.287348007930684e-05, 1.6504614205226247e-05, -0.1790687859960977, -0.38071797139920777, -0.0006572200410611214, 0.0005808048480345821], [-0.15146394491094017]], "vW": [[[0.000964769996652885, 0.0, 0.0, 0.0, 0.0], [-4.995428228032128e-06, 0.0, 0.0, 0.0, 0.0], [0.0005635652375561153, 0.0, 0.0, 0.0, 0.0], [0.00015922005436124037, 0.0, 0.0, 0.0, 0.0], [-8.036351911521891e-06, 0.0, 0.0, 0.0, 0.0], [0.0006345299656310492, 0.0, 0.0, 0.0, 0.0], [-3.910872334757011e-06, 0.0, 0.0, 0.0, 0.0], [-1.8315905617160799e-06, 0.0, 0.0, 0.0, 0.0], [0.0013282336742046475, 0.0, 0.0, 0.0, 0.0], [4.971503017500797e-06, 0.0, 0.0, 0.0, 0.0], [3.885148671119549e-07, 0.0, 0.0, 0.0, 0.0], [-1.1869793393789538e-07, 0.0, 0.0, 0.0, 0.0], [0.0005624814838862226, 0.0, 0.0, 0.0, 0.0], [-6.23886136291642e-06, 0.0, 0.0, 0.0, 0.0], [5.017622671492237e-06, 0.0, 0.0, 0.0, 0.0], [-4.38238591984302e-06, 0.0, 0.0, 0.0, 0.0]], [[0.0005551192248768769, -1.5725905866690526e-06, 0.00029112118946533625, 0.0001439716602497006, -3.1590675551235924e-06, 0.000393589844844128, -1.0813646484967186e-06, -1.1068287166835743e-06, 0.0007975795841493358, -1.1233622190383483e-05, -3.1782276832322645e-06, -3.2208562490009914e-07, 0.00029721856830952024, -3.3956512302067377e-06, -1.747618771808514e-06, -1.0512847496653302e-06]]], "vb": [[0.001467175976817608, -7.640734872310502e-06, 0.0008571449607506379, 0.0002419731920842374, -1.2291201548673135e-05, 0.0009648751451178013, -5.981865521889242e-06, -2.801276346832703e-06, 0.002019811616710423, 7.606382050927386e-06, 5.94806588053313e-07, -1.815098517973692e-07, 0.0008554761685911718, -9.54190712214664e-06, 7.675359828624132e-06, -6.703224471966744e-06], [0.0017563957882828587]]}}