{"version": 1, "model": {"layer_sizes": [5, 16, 1], "lr": 0.03, "momentum": 0.9, "grad_clip": 3.0, "total_samples": 1134, "W": [[[1.1456601316093515, 0.9167098936040888, 0.041954449334932704, -0.48353986153823236, -0.6907509918316201], [-0.022308800042451924, -0.6464348041825333, -0.9087307311439718, 0.12605596212771603, 0.08435350654913912], [0.59895247217078, -0.5780459794834379, 0.003165619319023322, -0.04094628450130507, -0.9523698821441012], [0.30007750959182133, 0.20283551001133254, 1.5110071283958506, 0.12836897902201092, -0.09151777529694573], [0.5141498941892014, 0.12572662463981144, 0.5749217012808462, -0.23119049338194606, 0.137983970293719], [0.813898017549529, 0.4403452810123505, 0.08125298436065588, -0.6845116975202081, 0.2815829729115831], [0.010691449746927213, 0.45566371728464317, 0.13675771771954995, 0.6882288831510016, -0.032609575100486295], [0.0712296923557452, 0.4217064472385048, -0.6874061856520259, -0.25403225348189823, -0.3162458346088078], [1.6479281683385256, -0.05873110184204383, 0.41250028865134114, 0.3917271844754705, -0.17763995472297467], [-0.9767003898112666, 0.6102209068034645, -0.25753384959998116, 0.45407565931871485, -0.8255219594097656], [-0.27667068900417463, 0.7948836121736637, 0.9050463886060675, -0.8237471601839077, -0.84294146328566], [-0.028091204357331055, 0.46058025358844906, 0.10151207239074857, 0.19198485424004202, -0.6253950672515969], [0.6119146532091942, 0.7063594416167539, -0.2755434956086589, -0.9066174559682012, -0.4799204277611376], [0.285796570967912, -1.0964863798482016, -0.05810798271313834, -0.6267686722314738, -0.08293670326895732], [-0.15052135911243908, 0.010028710300835318, 0.9494469225219566, 0.2660806474441458, 0.8435140039500585], [-0.09303009266227587, -0.3033172032094295, 0.23958084834702262, -1.7935115707259193, -0.02522790151826406]], [[0.8184917853748941, -0.4351238110381752, 0.48151712163346544, 0.1297096490390277, -0.7004577146944878, 0.5354011804509112, -0.3406667383733239, -0.15963157206311332, 1.1234293896297993, 0.4330392001904169, 0.033857034489983305, -0.010335062808458681, 0.4799084284220911, -0.5437561600583952, 0.4369908571570592, -0.3816496945339874]]], "b": [[-0.3176931259230796, -0.07549616679832116, -0.15882592307175997, -0.09468595930560338, -0.5168674125289359, -0.23193796419834042, -0.06898396385612171, -0.10978406829817974, -0.4642762064243353, -0.0005195327127925631, -3.475899437867994e-05, 1.3903227060297441e-05, -0.163893226280587, -0.38085367634804546, -0.0005487063840382969, 0.00048578540367275746], [-0.12659357164237103]], "vW": [[[0.0009016714285663748, 0.0, 0.0, 0.0, 0.0], [-4.928047881005981e-06, 0.0, 0.0, 0.0, 0.0], [0.000531454319500271, 0.0, 0.0, 0.0, 0.0], [0.00014130758655520729, 0.0, 0.0, 0.0, 0.0], [-7.932124691926412e-06, 0.0, 0.0, 0.0, 0.0], [0.0005889498273184525, 0.0, 0.0, 0.0, 0.0], [-3.8583062929747235e-06, 0.0, 0.0, 0.0, 0.0], [-1.8075552470864323e-06, 0.0, 0.0, 0.0, 0.0], [0.0012365903058287836, 0.0, 0.0, 0.0, 0.0], [4.909866365439705e-06, 0.0, 0.0, 0.0, 0.0], [3.8482647804008993e-07, 0.0, 0.0, 0.0, 0.0], [-1.1693675247564177e-07, 0.0, 0.0, 0.0, 0.0], [0.0005294788275910512, 0.0, 0.0, 0.0, 0.0], [-6.157252858280371e-06, 0.0, 0.0, 0.0, 0.0], [4.950709815085896e-06, 0.0, 0.0, 0.0, 0.0], [-4.322679857677047e-06, 0.0, 0.0, 0.0, 0.0]], [[0.0005697537847915855, -1.5201286513540372e-06, 0.00029762997644026436, 0.000149608879027921, -2.906209737857174e-06, 0.0004049680752799927, -1.0383191349154682e-06, -1.0472186031483618e-06, 0.000819778388409109, -1.1082398612675616e-05, -3.13534928035098e-06, -3.177256658176585e-07, 0.0003041245115022192, -3.194869100182638e-06, -1.7244850718969934e-06, -1.0366847050109662e-06]]], "vb": [[0.0013375750532256636, -7.361644138421195e-06, 0.0007885306755724096, 0.00020938383026105397, -1.1848379855999932e-05, 0.0008735422792010476, -5.763645258606179e-06, -2.6999290855959306e-06, 0.0018342558299975966, 7.3368849086266594e-06, 5.754579979660787e-07, -1.746360635520139e-07, 0.0007855696747349678, -9.197087141797074e-06, 7.396224487916163e-06, -6.457509401858839e-06], [0.0016922191840384208]]}}