{"version": 1, "model": {"layer_sizes": [5, 16, 1], "lr": 0.03, "momentum": 0.9, "grad_clip": 3.0, "total_samples": 1121, "W": [[[1.141401064833028, 0.9167098936040888, 0.041954449334932704, -0.48353986153823236, -0.6907509918316201], [-0.022284356606004942, -0.6464348041825333, -0.9087307311439718, 0.12605596212771603, 0.08435350654913912], [0.5964317095524581, -0.5780459794834379, 0.003165619319023322, -0.04094628450130507, -0.9523698821441012], [0.29942650641832974, 0.20283551001133254, 1.5110071283958506, 0.12836897902201092, -0.09151777529694573], [0.5141892326883744, 0.12572662463981144, 0.5749217012808462, -0.23119049338194606, 0.137983970293719], [0.8111250581514162, 0.4403452810123505, 0.08125298436065588, -0.6845116975202081, 0.2815829729115831], [0.01071058762084327, 0.45566371728464317, 0.13675771771954995, 0.6882288831510016, -0.032609575100486295], [0.07123865548652084, 0.4217064472385048, -0.6874061856520259, -0.25403225348189823, -0.3162458346088078], [1.6420975854904996, -0.05873110184204383, 0.41250028865134114, 0.3917271844754705, -0.17763995472297467], [-0.9767247868857201, 0.6102209068034645, -0.25753384959998116, 0.45407565931871485, -0.8255219594097656], [-0.2766726089575381, 0.7948836121736637, 0.9050463886060675, -0.8237471601839077, -0.84294146328566], [-0.028090625289771177, 0.46058025358844906, 0.10151207239074857, 0.19198485424004202, -0.6253950672515969], [0.6094053356211129, 0.7063594416167539, -0.2755434956086589, -0.9066174559682012, -0.4799204277611376], [0.2858271041681242, -1.0964863798482016, -0.05810798271313834, -0.6267686722314738, -0.08293670326895732], [-0.15054592680815196, 0.010028710300835318, 0.9494469225219566, 0.2660806474441458, 0.8435140039500585], [-0.0930086502373736, -0.3033172032094295, 0.23958084834702262, -1.7935115707259193, -0.02522790151826406]], [[0.8135290922872361, -0.4351248889745791, 0.47910288783367844, 0.12812506261113882, -0.700501899278473, 0.5317206725528885, -0.340669452935049, -0.15963882593463272, 1.1161097688729855, 0.43309420210542676, 0.03387259197154009, -0.01033348677045899, 0.4774014962927468, -0.5437834960823428, 0.43699942931560115, -0.38164456493984694]]], "b": [[-0.31471036022441307, -0.07550888471651894, -0.1570922174603684, -0.09418002094025656, -0.5168879145093586, -0.22996875376030604, -0.0689939200166861, -0.10978874404354348, -0.4601610176515547, -0.0005070083987287891, -3.380285185999596e-05, 1.3598398165628692e-05, -0.16216111525711632, -0.3808696000672866, -0.0005359716129408761, 0.00047463753089025496], [-0.12367538090779005]], "vW": [[[0.0008943213427334199, 0.0, 0.0, 0.0, 0.0], [-4.919325421434966e-06, 0.0, 0.0, 0.0, 0.0], [0.000527706104254244, 0.0, 0.0, 0.0, 0.0], [0.00013923327974683992, 0.0, 0.0, 0.0, 0.0], [-7.918565070313757e-06, 0.0, 0.0, 0.0, 0.0], [0.0005836470496067606, 0.0, 0.0, 0.0, 0.0], [-3.851498531734055e-06, 0.0, 0.0, 0.0, 0.0], [-1.804433131837396e-06, 0.0, 0.0, 0.0, 0.0], [0.00122592294831877, 0.0, 0.0, 0.0, 0.0], [4.901797022318074e-06, 0.0, 0.0, 0.0, 0.0], [3.8432320529676924e-07, 0.0, 0.0, 0.0, 0.0], [-1.1671141622846897e-07, 0.0, 0.0, 0.0, 0.0], [0.0005256283088375845, 0.0, 0.0, 0.0, 0.0], [-6.1466477268193225e-06, 0.0, 0.0, 0.0, 0.0], [4.9420347559968395e-06, 0.0, 0.0, 0.0, 0.0], [-4.314960387161364e-06, 0.0, 0.0, 0.0, 0.0]], [[0.0005713374087387969, -1.5135884383048349e-06, 0.0002983170934073957, 0.00015024606767950296, -2.8751512624067787e-06, 0.00040621411516383524, -1.0329750960640623e-06, -1.0398578993769295e-06, 0.0008221978481149554, -1.1062817821718893e-05, -3.129798606508417e-06, -3.17161467742856e-07, 0.00030485809397980183, -3.170111997878217e-06, -1.7214841433959774e-06, -1.034800562967287e-06]]], "vb": [[0.0013225374112215789, -7.3269128876669766e-06, 0.0007805375970660344, 0.00020565260489829038, -1.1793183490034162e-05, 0.0008629721690691695, -5.736484943652167e-06, -2.6873027238245776e-06, 0.001812757633793231, 7.303226400395435e-06, 5.730156172543616e-07, -1.7378420708714436e-07, 0.0007774330957594975, -9.154121873217146e-06, 7.3614700520395835e-06, -6.426944278948139e-06], [0.0016842330918868473]]}}