{"version": 1, "model": {"layer_sizes": [5, 16, 1], "lr": 0.03, "momentum": 0.9, "grad_clip": 3.0, "total_samples": 1147, "W": [[[1.1499194912730446, 0.9167098936040888, 0.041954449334932704, -0.48353986153823236, -0.6907509918316201], [-0.02233309038362839, -0.6464348041825333, -0.9087307311439718, 0.12605596212771603, 0.08435350654913912], [0.601470509167172, -0.5780459794834379, 0.003165619319023322, -0.04094628450130507, -0.9523698821441012], [0.3007331364179284, 0.20283551001133254, 1.5110071283958506, 0.12836897902201092, -0.09151777529694573], [0.5141108045536334, 0.12572662463981144, 0.5749217012808462, -0.23119049338194606, 0.137983970293719], [0.8166736589674006, 0.4403452810123505, 0.08125298436065588, -0.6845116975202081, 0.2815829729115831], [0.010672431840194984, 0.45566371728464317, 0.13675771771954995, 0.6882288831510016, -0.032609575100486295], [0.0712207857808074, 0.4217064472385048, -0.6874061856520259, -0.25403225348189823, -0.3162458346088078], [1.6537620666953974, -0.05873110184204383, 0.41250028865134114, 0.3917271844754705, -0.17763995472297467], [-0.9766761481377337, 0.6102209068034645, -0.25753384959998116, 0.45407565931871485, -0.8255219594097656], [-0.276668781835871, 0.7948836121736637, 0.9050463886060675, -0.8237471601839077, -0.84294146328566], [-0.028091779879010452, 0.46058025358844906, 0.10151207239074857, 0.19198485424004202, -0.6253950672515969], [0.6144218321590506, 0.7063594416167539, -0.2755434956086589, -0.9066174559682012, -0.4799204277611376], [0.2857662305634754, -1.0964863798482016, -0.05810798271313834, -0.6267686722314738, -0.08293670326895732], [-0.150496945588034, 0.010028710300835318, 0.9494469225219566, 0.2660806474441458, 0.8435140039500585], [-0.0930514011521072, -0.3033172032094295, 0.23958084834702262, -1.7935115707259193, -0.02522790151826406]], [[0.8234215119981007, -0.4351227517104378, 0.48391701858084823, 0.13128102327339347, -0.7004138830464007, 0.5390557778243256, -0.34066405151967233, -0.15962437984206235, 1.130698677486977, 0.4329845433357778, 0.03384157443941251, -0.010336629002776609, 0.48240006312605777, -0.5437290514760392, 0.436982339487819, -0.38165479275910696]]], "b": [[-0.3206614356317536, -0.07548359145445799, -0.16054972782257143, -0.09519181241529986, -0.5168471412782426, -0.2338989185892237, -0.06897411937378313, -0.10977944505338635, -0.46837295741371937, -0.0005319135526395659, -3.570359006219386e-05, 1.4204716264801412e-05, -0.1656157479841968, -0.38083793153891843, -0.0005612977447273931, 0.0004968083968591958], [-0.12947900208767793]], "vW": [[[0.0009089534887692057, 0.0, 0.0, 0.0, 0.0], [-4.936512720792204e-06, 0.0, 0.0, 0.0, 0.0], [0.0005351663060412286, 0.0, 0.0, 0.0, 0.0], [0.00014336512580452962, 0.0, 0.0, 0.0, 0.0], [-7.94527161470434e-06, 0.0, 0.0, 0.0, 0.0], [0.0005942048497123264, 0.0, 0.0, 0.0, 0.0], [-3.864912435417909e-06, 0.0, 0.0, 0.0, 0.0], [-1.8105832055448762e-06, 0.0, 0.0, 0.0, 0.0], [0.0012471604830395263, 0.0, 0.0, 0.0, 0.0], [4.917680953101797e-06, 0.0, 0.0, 0.0, 0.0], [3.853101984867709e-07, 0.0, 0.0, 0.0, 0.0], [-1.1715591480329009e-07, 0.0, 0.0, 0.0, 0.0], [0.0005332924827810145, 0.0, 0.0, 0.0, 0.0], [-6.167537358038804e-06, 0.0, 0.0, 0.0, 0.0], [4.959126269435606e-06, 0.0, 0.0, 0.0, 0.0], [-4.33017306371175e-06, 0.0, 0.0, 0.0, 0.0]], [[0.0005681594430024679, -1.5265215903718647e-06, 0.00029693429862214535, 0.00014897355451332924, -2.936657295987948e-06, 0.00040371696291672274, -1.0435470709239833e-06, -1.0544270361187183e-06, 0.0008173464855072545, -1.1101400271809937e-05, -3.1407360136014255e-06, -3.1827323565454755e-07, 0.00030338284655840854, -3.2191208906475495e-06, -1.7273962883425165e-06, -1.0385142114632413e-06]]], "vb": [[0.0013524875366765156, -7.395605402840897e-06, 0.0007964506847635737, 0.0002130943348141311, -1.190233544410269e-05, 0.0008840300368911907, -5.790202663359682e-06, -2.7122728051129626e-06, 0.001855581674297373, 7.369774169005522e-06, 5.778396562332697e-07, -1.7546970947188838e-07, 0.0007936333165985713, -9.239089521453063e-06, 7.430205070295309e-06, -6.4873993221578994e-06], [0.0017000282872705924]]}}