{"version": 1, "model": {"layer_sizes": [5, 16, 1], "lr": 0.03, "momentum": 0.9, "grad_clip": 3.0, "total_samples": 1420, "W": [[[1.239166613372767, 0.9167098936040888, 0.041954449334932704, -0.48353986153823236, -0.6907509918316201], [-0.022811076094431497, -0.6464348041825333, -0.9087307311439718, 0.12605596212771603, 0.08435350654913912], [0.6536627561944489, -0.5780459794834379, 0.003165619319023322, -0.04094628450130507, -0.9523698821441012], [0.31536874717662217, 0.20283551001133254, 1.5110071283958506, 0.12836897902201092, -0.09151777529694573], [0.5133420965447305, 0.12572662463981144, 0.5749217012808462, -0.23119049338194606, 0.137983970293719], [0.8753208407093641, 0.4403452810123505, 0.08125298436065588, -0.6845116975202081, 0.2815829729115831], [0.010298217703082809, 0.45566371728464317, 0.13675771771954995, 0.6882288831510016, -0.032609575100486295], [0.07104560606583288, 0.4217064472385048, -0.6874061856520259, -0.25403225348189823, -0.3162458346088078], [1.7765724659049276, -0.05873110184204383, 0.41250028865134114, 0.3917271844754705, -0.17763995472297467], [-0.9761996431825948, 0.6102209068034645, -0.25753384959998116, 0.45407565931871485, -0.8255219594097656], [-0.2766314056427091, 0.7948836121736637, 0.9050463886060675, -0.8237471601839077, -0.84294146328566], [-0.028103121311139297, 0.46058025358844906, 0.10151207239074857, 0.19198485424004202, -0.6253950672515969], [0.6665018594312169, 0.7063594416167539, -0.2755434956086589, -0.9066174559682012, -0.4799204277611376], [0.28516950525856744, -1.0964863798482016, -0.05810798271313834, -0.6267686722314738, -0.08293670326895732], [-0.1500165959633338, 0.010028710300835318, 0.9494469225219566, 0.2660806474441458, 0.8435140039500585], [-0.0934707832106273, -0.3033172032094295, 0.23958084834702262, -1.7935115707259193, -0.02522790151826406]], [[0.919853602710377, -0.4351040677247093, 0.5311718284505754, 0.16153021940794304, -0.6995652285192402, 0.6102785631421362, -0.34061313051600495, -0.1594858025823478, 1.2725844780627613, 0.431909108188441, 0.033537348607658286, -0.010367453833334619, 0.5313866163445925, -0.5432058409858485, 0.4368148778821601, -0.38175525813125927]]], "b": [[-0.3800105661247342, -0.07524757479790704, -0.1947394717500045, -0.1057426025133168, -0.5164668514015213, -0.273344303189466, -0.06878936846296403, -0.10969268942458434, -0.5505623539983021, -0.0007636797503503804, -5.3270477367868016e-05, 1.987820959004198e-05, -0.19983588732051186, -0.3805425007905759, -0.0007974872210893023, 0.0007037070135478611], [-0.18362401918691929]], "vW": [[[0.0010464635028803438, 0.0, 0.0, 0.0, 0.0], [-5.061517829585504e-06, 0.0, 0.0, 0.0, 0.0], [0.0006049431540251397, 0.0, 0.0, 0.0, 0.0], [0.00018272081836805614, 0.0, 0.0, 0.0, 0.0], [-8.136938209078127e-06, 0.0, 0.0, 0.0, 0.0], [0.0006937108432364626, 0.0, 0.0, 0.0, 0.0], [-3.9623574678781575e-06, 0.0, 0.0, 0.0, 0.0], [-1.8549033714642298e-06, 0.0, 0.0, 0.0, 0.0], [0.0014470810741534599, 0.0, 0.0, 0.0, 0.0], [5.029756074680534e-06, 0.0, 0.0, 0.0, 0.0], [3.915036536583236e-07, 0.0, 0.0, 0.0, 0.0], [-1.2049000252086591e-07, 0.0, 0.0, 0.0, 0.0], [0.0006050536666205759, 0.0, 0.0, 0.0, 0.0], [-6.31790860872536e-06, 0.0, 0.0, 0.0, 0.0], [5.08293482970092e-06, 0.0, 0.0, 0.0, 0.0], [-4.441181576747735e-06, 0.0, 0.0, 0.0, 0.0]], [[0.0005335107235640439, -1.6301005318372385e-06, 0.00028114066497811113, 0.00013623256763027958, -3.4473512205828543e-06, 0.00037710745284787796, -1.1290865086820503e-06, -1.1738575179469615e-06, 0.0007651742139703254, -1.1381818274216467e-05, -3.2202834227079816e-06, -3.263674745433999e-07, 0.0002867266544014591, -3.6222779946257367e-06, -1.770140243595344e-06, -1.0657627910345169e-06]]], "vb": [[0.0016357135163135661, -7.948065009804613e-06, 0.0009456355876825966, 0.00028551882916173776, -1.277668727586581e-05, 0.001084281603035608, -6.222069429061332e-06, -2.912537634432975e-06, 0.0022618565390186626, 7.900252914632704e-06, 6.152870393079175e-07, -1.8916391609942912e-07, 0.0009457968128209003, -9.920319004660286e-06, 7.982317279083768e-06, -6.974105423199155e-06], [0.0018270735554310829]]}}