{"version": 1, "model": {"layer_sizes": [5, 16, 1], "lr": 0.03, "momentum": 0.9, "grad_clip": 3.0, "total_samples": 822, "W": [[[1.044228725876197, 0.9167098936040888, 0.041954449334932704, -0.48353986153823236, -0.6907509918316201], [-0.021676002059885874, -0.6464348041825333, -0.9087307311439718, 0.12605596212771603, 0.08435350654913912], [0.537942859586079, -0.5780459794834379, 0.003165619319023322, -0.04094628450130507, -0.9523698821441012], [0.286116173458401, 0.20283551001133254, 1.5110071283958506, 0.12836897902201092, -0.09151777529694573], [0.5151691135857815, 0.12572662463981144, 0.5749217012808462, -0.23119049338194606, 0.137983970293719], [0.7486981604279773, 0.4403452810123505, 0.08125298436065588, -0.6845116975202081, 0.2815829729115831], [0.011186929479402146, 0.45566371728464317, 0.13675771771954995, 0.6882288831510016, -0.032609575100486295], [0.07146186943693765, 0.4217064472385048, -0.6874061856520259, -0.25403225348189823, -0.3162458346088078], [1.510052344829912, -0.05873110184204383, 0.41250028865134114, 0.3917271844754705, -0.17763995472297467], [-0.977332841245356, 0.6102209068034645, -0.25753384959998116, 0.45407565931871485, -0.8255219594097656], [-0.2767206431340055, 0.7948836121736637, 0.9050463886060675, -0.8237471601839077, -0.84294146328566], [-0.02807623992817581, 0.46058025358844906, 0.10151207239074857, 0.19198485424004202, -0.6253950672515969], [0.5513756212916674, 0.7063594416167539, -0.2755434956086589, -0.9066174559682012, -0.4799204277611376], [0.2865875347059359, -1.0964863798482016, -0.05810798271313834, -0.6267686722314738, -0.08293670326895732], [-0.15115747191567863, 0.010028710300835318, 0.9494469225219566, 0.2660806474441458, 0.8435140039500585], [-0.09247510532777316, -0.3033172032094295, 0.23958084834702262, -1.7935115707259193, -0.02522790151826406]], [[0.6898871199654903, -0.4351561126731011, 0.4196009032948889, 0.08762439181754253, -0.7016298409082438, 0.4394674672258092, -0.34074098319509144, -0.1598253774297728, 0.9330962057136145, 0.4344633244292848, 0.03425979008761532, -0.010294271743343388, 0.41545883156536356, -0.5444846984922898, 0.4372130718370408, -0.3815171770428801]]], "b": [[-0.24171079363770243, -0.0758487584515323, -0.11410549069726147, -0.08267660210111677, -0.5174361449319148, -0.18225287210976626, -0.06926001154539964, -0.10991373297065035, -0.3600061509974252, -0.0001712508863248211, -7.964690995148607e-06, 5.479129254209068e-06, -0.11932622271324266, -0.38129530236269976, -0.00019542863214485254, 0.0001767586266694123], [-0.045674954794312474]], "vW": [[[0.0007071443835841091, 0.0, 0.0, 0.0, 0.0], [-4.638289794623923e-06, 0.0, 0.0, 0.0, 0.0], [0.00043178247140779065, 0.0, 0.0, 0.0, 0.0], [8.715419764673299e-05, 0.0, 0.0, 0.0, 0.0], [-7.477666169859209e-06, 0.0, 0.0, 0.0, 0.0], [0.00044901216260215097, 0.0, 0.0, 0.0, 0.0], [-3.631973144261863e-06, 0.0, 0.0, 0.0, 0.0], [-1.7032012507268753e-06, 0.0, 0.0, 0.0, 0.0], [0.0009547427816950027, 0.0, 0.0, 0.0, 0.0], [4.636391619513172e-06, 0.0, 0.0, 0.0, 0.0], [3.665634130588232e-07, 0.0, 0.0, 0.0, 0.0], [-1.0960967059443037e-07, 0.0, 0.0, 0.0, 0.0], [0.00042719506748401594, 0.0, 0.0, 0.0, 0.0], [-5.802521568219052e-06, 0.0, 0.0, 0.0, 0.0], [4.661738448061144e-06, 0.0, 0.0, 0.0, 0.0], [-4.066809307498723e-06, 0.0, 0.0, 0.0, 0.0]], [[0.0006021885412925526, -1.3184529870818081e-06, 0.00031019720173675286, 0.00016503784559338588, -1.978976957924241e-06, 0.00043178276498480886, -8.749789187882758e-07, -8.249127479784803e-07, 0.0008708461415168172, -1.0431730866140444e-05, -2.9509614781997202e-06, -2.989929550728362e-07, 0.0003179487282896569, -2.4494969422490795e-06, -1.624512118322974e-06, -9.743631329108493e-07]]], "vb": [[0.0009464918275607012, -6.295252428946588e-06, 0.0005783709477616553, 0.0001159537757441116, -1.0147873927812688e-05, 0.0006006088775720284, -4.929453395060485e-06, -2.311331999136264e-06, 0.001277449685005155, 6.295705881406896e-06, 4.982618674809155e-07, -1.487070678137471e-07, 0.0005721410468159471, -7.874388366183806e-06, 6.32800041307956e-06, -5.519850650046819e-06], [0.001447035091323831]]}}