{"version": 1, "model": {"layer_sizes": [5, 16, 1], "lr": 0.03, "momentum": 0.9, "grad_clip": 3.0, "total_samples": 218, "W": [[[0.8670589365886421, 0.9167098936040888, 0.041954449334932704, -0.48353986153823236, -0.6907509918316201], [-0.020049293649969505, -0.6464348041825333, -0.9087307311439718, 0.12605596212771603, 0.08435350654913912], [0.4199314527356984, -0.5780459794834379, 0.003165619319023322, -0.04094628450130507, -0.9523698821441012], [0.2798090686299205, 0.20283551001133254, 1.5110071283958506, 0.12836897902201092, -0.09151777529694573], [0.5177972760547637, 0.12572662463981144, 0.5749217012808462, -0.23119049338194606, 0.137983970293719], [0.6446505293586331, 0.4403452810123505, 0.08125298436065588, -0.6845116975202081, 0.2815829729115831], [0.012460971586744155, 0.45566371728464317, 0.13675771771954995, 0.6882288831510016, -0.032609575100486295], [0.07206008506895296, 0.4217064472385048, -0.6874061856520259, -0.25403225348189823, -0.3162458346088078], [1.280732959958642, -0.05873110184204383, 0.41250028865134114, 0.3917271844754705, -0.17763995472297467], [-0.9789670638753409, 0.6102209068034645, -0.25753384959998116, 0.45407565931871485, -0.8255219594097656], [-0.2768515212409993, 0.7948836121736637, 0.9050463886060675, -0.8237471601839077, -0.84294146328566], [-0.028038034282826755, 0.46058025358844906, 0.10151207239074857, 0.19198485424004202, -0.6253950672515969], [0.43650690811817305, 0.7063594416167539, -0.2755434956086589, -0.9066174559682012, -0.4799204277611376], [0.28862593485217874, -1.0964863798482016, -0.05810798271313834, -0.6267686722314738, -0.08293670326895732], [-0.1527936545873653, 0.010028710300835318, 0.9494469225219566, 0.2660806474441458, 0.8435140039500585], [-0.09104961322285961, -0.3033172032094295, 0.23958084834702262, -1.7935115707259193, -0.02522790151826406]], [[0.3724480507942546, -0.4353064453979038, 0.2776703388614992, -0.0334712310859337, -0.7050762341514485, 0.1933045282736627, -0.34099263307012134, -0.1604157726742313, 0.45233280139557824, 0.4381280403408751, 0.035295253288104504, -0.010189548054626955, 0.2650652069521772, -0.5466771785620297, 0.4377888709130847, -0.38118070423168604]]], "b": [[-0.058117074023940334, -0.07711331758607472, 0.0037828065020558336, -0.06918784730561083, -0.5194815445086578, -0.0706495751752728, -0.07025037109890078, -0.110379507731041, -0.11794626389567552, 0.0010906808497193287, 9.165919446386382e-05, -2.4392182649600647e-05, -0.0038020483637653613, -0.3828822105918066, 0.0010740158415016988, -0.0009308454802652443], [0.24465103632435298]], "vW": [[[0.0002566566984047499, 0.0, 0.0, 0.0, 0.0], [-3.4531984718781685e-06, 0.0, 0.0, 0.0, 0.0], [0.00019855870463087502, 0.0, 0.0, 0.0, 0.0], [-3.445973209867479e-05, 0.0, 0.0, 0.0, 0.0], [-5.592439134812918e-06, 0.0, 0.0, 0.0, 0.0], [0.00012700795495652065, 0.0, 0.0, 0.0, 0.0], [-2.7050793355392464e-06, 0.0, 0.0, 0.0, 0.0], [-1.2722055682169257e-06, 0.0, 0.0, 0.0, 0.0], [0.00030445306757351037, 0.0, 0.0, 0.0, 0.0], [3.481337977063048e-06, 0.0, 0.0, 0.0, 0.0], [2.81456904841618e-07, 0.0, 0.0, 0.0, 0.0], [-8.070812020258158e-08, 0.0, 0.0, 0.0, 0.0], [0.00018840975981961728, 0.0, 0.0, 0.0, 0.0], [-4.335676913353779e-06, 0.0, 0.0, 0.0, 0.0], [3.4744612716414167e-06, 0.0, 0.0, 0.0, 0.0], [-3.024061778302803e-06, 0.0, 0.0, 0.0, 0.0]], [[0.0005624599985127774, -6.034992514071952e-07, 0.0002672723526887594, 0.0001896250191338478, 1.0602833619396305e-06, 0.0004225982960752719, -3.073472024126426e-07, -7.566339399749528e-08, 0.0008359740374651152, -7.772016363617861e-06, -2.197038282350664e-06, -2.2236674824323987e-07, 0.0002790662892459872, 4.409774713686836e-08, -1.216718153734882e-06, -7.186281503884172e-07]]], "vb": [[0.00015037096397065497, -2.567082893783669e-06, 0.00012357234667500832, -3.1624953566548904e-05, -4.155335265790539e-06, 6.818990149640679e-05, -2.010962115156207e-06, -9.451386622659102e-07, 0.00017109511282678352, 2.594275144168233e-06, 2.1079043723577913e-07, -5.987378120924464e-08, 0.00011615831454844555, -3.221176994906167e-06, 2.5847723260763355e-06, -2.248514437581336e-06], [0.0005901035893262261]]}}