{"version": 1, "model": {"layer_sizes": [5, 16, 1], "lr": 0.03, "momentum": 0.9, "grad_clip": 3.0, "total_samples": 547, "W": [[[0.9559578866360198, 0.9167098936040888, 0.041954449334932704, -0.48353986153823236, -0.6907509918316201], [-0.02099934062342541, -0.6464348041825333, -0.9087307311439718, 0.12605596212771603, 0.08435350654913912], [0.48225958823941595, -0.5780459794834379, 0.003165619319023322, -0.04094628450130507, -0.9523698821441012], [0.278056475990605, 0.20283551001133254, 1.5110071283958506, 0.12836897902201092, -0.09151777529694573], [0.5162608763076401, 0.12572662463981144, 0.5749217012808462, -0.23119049338194606, 0.137983970293719], [0.6941833107449252, 0.4403452810123505, 0.08125298436065588, -0.6845116975202081, 0.2815829729115831], [0.011716832420513355, 0.45566371728464317, 0.13675771771954995, 0.6882288831510016, -0.032609575100486295], [0.0717104590907766, 0.4217064472385048, -0.6874061856520259, -0.25403225348189823, -0.3162458346088078], [1.3926691736184953, -0.05873110184204383, 0.41250028865134114, 0.3917271844754705, -0.17763995472297467], [-0.9780111342449852, 0.6102209068034645, -0.25753384959998116, 0.45407565931871485, -0.8255219594097656], [-0.27677464544044356, 0.7948836121736637, 0.9050463886060675, -0.8237471601839077, -0.84294146328566], [-0.028060300514146565, 0.46058025358844906, 0.10151207239074857, 0.19198485424004202, -0.6253950672515969], [0.49662691110273743, 0.7063594416167539, -0.2755434956086589, -0.9066174559682012, -0.4799204277611376], [0.2874345163907759, -1.0964863798482016, -0.05810798271313834, -0.6267686722314738, -0.08293670326895732], [-0.15183790988600226, 0.010028710300835318, 0.9494469225219566, 0.2660806474441458, 0.8435140039500585], [-0.09188192632165422, -0.3033172032094295, 0.23958084834702262, -1.7935115707259193, -0.02522790151826406]], [[0.5540809919536623, -0.43520447339059193, 0.35627245472377117, 0.039936825138074054, -0.702972374054114, 0.3363958266482018, -0.3408328630635121, -0.16005158753740556, 0.7300390225132493, 0.4359868855376298, 0.03469047942353965, -0.010250680743083381, 0.3490385116811777, -0.5453295173012344, 0.4374515857577873, -0.38137630166544445]]], "b": [[-0.1631006865216251, -0.07629952776279347, -0.06600431059321339, -0.07314890543667919, -0.5181642898065272, -0.13242569656643335, -0.06961298814592944, -0.11007962798410423, -0.2539740110490866, 0.0002767434351562481, 2.703683031180649e-05, -5.219215124936344e-06, -0.0717556514626604, -0.38186043326460356, 0.0002567571045129329, -0.00021818941106674708], [0.0578056690655568]], "vW": [[[0.0005020816255047137, 0.0, 0.0, 0.0, 0.0], [-4.19571382744768e-06, 0.0, 0.0, 0.0, 0.0], [0.00032580956241223433, 0.0, 0.0, 0.0, 0.0], [3.149373541695887e-05, 0.0, 0.0, 0.0, 0.0], [-6.776326534598139e-06, 0.0, 0.0, 0.0, 0.0], [0.00030227120614735245, 0.0, 0.0, 0.0, 0.0], [-3.285945845923478e-06, 0.0, 0.0, 0.0, 0.0], [-1.5426698870027152e-06, 0.0, 0.0, 0.0, 0.0], [0.0006585378298974875, 0.0, 0.0, 0.0, 0.0], [4.208837611008716e-06, 0.0, 0.0, 0.0, 0.0], [3.3586163933131467e-07, 0.0, 0.0, 0.0, 0.0], [-9.870588996747865e-08, 0.0, 0.0, 0.0, 0.0], [0.00031865182122853524, 0.0, 0.0, 0.0, 0.0], [-5.2563512085397635e-06, 0.0, 0.0, 0.0, 0.0], [4.218916339904839e-06, 0.0, 0.0, 0.0, 0.0], [-3.6770113007308417e-06, 0.0, 0.0, 0.0, 0.0]], [[0.0006091308070380418, -1.040878284344152e-06, 0.00030710002961616497, 0.0001774807727554332, -7.689616340481446e-07, 0.0004424954098495543, -6.532694656766199e-07, -5.291853002656816e-07, 0.0008875947130829057, -9.437838246255868e-06, -2.6693517858192208e-06, -2.7038958665359403e-07, 0.0003162939303927124, -1.463025033660157e-06, -1.4716286707565038e-06, -8.793671807373502e-07]]], "vb": [[0.0005584038004132355, -4.83931227248309e-06, 0.0003637345927993683, 3.285232149734149e-05, -7.814342677851264e-06, 0.00033499616719421545, -3.790004426111583e-06, -1.778890320051168e-06, 0.0007310268601673298, 4.858487465415896e-06, 3.8837939830960407e-07, -1.1376797794493197e-07, 0.00035549481063585427, -6.06131680368073e-06, 4.8673025393931545e-06, -4.241351577405783e-06], [0.0011123367213124132]]}}