{"version": 1, "model": {"layer_sizes": [5, 16, 1], "lr": 0.03, "momentum": 0.9, "grad_clip": 3.0, "total_samples": 874, "W": [[[1.0609198725664446, 0.9167098936040888, 0.041954449334932704, -0.48353986153823236, -0.6907509918316201], [-0.021788543008725406, -0.6464348041825333, -0.9087307311439718, 0.12605596212771603, 0.08435350654913912], [0.5481479366047697, -0.5780459794834379, 0.003165619319023322, -0.04094628450130507, -0.9523698821441012], [0.2881520652155809, 0.20283551001133254, 1.5110071283958506, 0.12836897902201092, -0.09151777529694573], [0.5149877240195909, 0.12572662463981144, 0.5749217012808462, -0.23119049338194606, 0.137983970293719], [0.7592848922791553, 0.4403452810123505, 0.08125298436065588, -0.6845116975202081, 0.2815829729115831], [0.011098804967239596, 0.45566371728464317, 0.13675771771954995, 0.6882288831510016, -0.032609575100486295], [0.07142055648935543, 0.4217064472385048, -0.6874061856520259, -0.25403225348189823, -0.3162458346088078], [1.5325741702173594, -0.05873110184204383, 0.41250028865134114, 0.3917271844754705, -0.17763995472297467], [-0.9772202309164757, 0.6102209068034645, -0.25753384959998116, 0.45407565931871485, -0.8255219594097656], [-0.2767117206166658, 0.7948836121736637, 0.9050463886060675, -0.8237471601839077, -0.84294146328566], [-0.028078897215563257, 0.46058025358844906, 0.10151207239074857, 0.19198485424004202, -0.6253950672515969], [0.5614696900209676, 0.7063594416167539, -0.2755434956086589, -0.9066174559682012, -0.4799204277611376], [0.28644678592662653, -1.0964863798482016, -0.05810798271313834, -0.6267686722314738, -0.08293670326895732], [-0.15104432639479315, 0.010028710300835318, 0.9494469225219566, 0.2660806474441458, 0.8435140039500585], [-0.09257378956113264, -0.3033172032094295, 0.23958084834702262, -1.7935115707259193, -0.02522790151826406]], [[0.7127210394641522, -0.4351496327322258, 0.43048361644486194, 0.09527135585153013, -0.7014166541491826, 0.4565956566762039, -0.34072711504674524, -0.1597899036058546, 0.9670012844408892, 0.43421001074059046, 0.03418816112919078, -0.010301524687539643, 0.42681377134402426, -0.5443516416296287, 0.4371735019525477, -0.381540698312067]]], "b": [[-0.2550516295085208, -0.07578214509131799, -0.12205224391859482, -0.08463541043511297, -0.5173286439995454, -0.1908949980495422, -0.06920785574253023, -0.10988923029290791, -0.3782183594484073, -0.0002372066823583285, -1.3069320302946609e-05, 7.06662355464072e-06, -0.12722681161500043, -0.38121184248028606, -0.00026220352524911603, 0.00023513544352321542], [-0.06096453276628842]], "vW": [[[0.0007420629703077905, 0.0, 0.0, 0.0, 0.0], [-4.6993340094302886e-06, 0.0, 0.0, 0.0, 0.0], [0.00044974227150247295, 0.0, 0.0, 0.0, 0.0], [9.676728316596003e-05, 0.0, 0.0, 0.0, 0.0], [-7.573892274442582e-06, 0.0, 0.0, 0.0, 0.0], [0.0004740730698327907, 0.0, 0.0, 0.0, 0.0], [-3.6796772819372735e-06, 0.0, 0.0, 0.0, 0.0], [-1.7252627573033483e-06, 0.0, 0.0, 0.0, 0.0], [0.001005267268598404, 0.0, 0.0, 0.0, 0.0], [4.694660070381712e-06, 0.0, 0.0, 0.0, 0.0], [3.70597707154971e-07, 0.0, 0.0, 0.0, 0.0], [-1.11134125007313e-07, 0.0, 0.0, 0.0, 0.0], [0.0004456098912870693, 0.0, 0.0, 0.0, 0.0], [-5.877547107606819e-06, 0.0, 0.0, 0.0, 0.0], [4.72271238951116e-06, 0.0, 0.0, 0.0, 0.0], [-4.120645771365256e-06, 0.0, 0.0, 0.0, 0.0]], [[0.0005979385159241405, -1.358985141929807e-06, 0.0003088782249262908, 0.0001624984717245362, -2.161154998439258e-06, 0.00042798749511544155, -9.076092479105426e-07, -8.689488453988948e-07, 0.0008638250708173883, -1.0568824584397716e-05, -2.9898059137275288e-06, -3.0293846526493706e-07, 0.0003163985931797245, -2.5968224519847652e-06, -1.645599105993874e-06, -9.874678402735523e-07]]], "vb": [[0.0010154046605718816, -6.5088945566246536e-06, 0.0006157730486434153, 0.00013183296704183834, -1.0489320378961127e-05, 0.0006483846915374665, -5.096610720097654e-06, -2.389306012486259e-06, 0.0013751927661651456, 6.505319515619515e-06, 5.140194678545212e-07, -1.5387169546841403e-07, 0.000610044178623304, -8.139843910044779e-06, 6.542157424097247e-06, -5.707593652059304e-06], [0.0014961525238199594]]}}