{"version": 1, "model": {"layer_sizes": [5, 16, 1], "lr": 0.03, "momentum": 0.9, "grad_clip": 3.0, "total_samples": 991, "W": [[[1.0988825012387877, 0.9167098936040888, 0.041954449334932704, -0.48353986153823236, -0.6907509918316201], [-0.0220311096749076, -0.6464348041825333, -0.9087307311439718, 0.12605596212771603, 0.08435350654913912], [0.571091774143158, -0.5780459794834379, 0.003165619319023322, -0.04094628450130507, -0.9523698821441012], [0.2932038818460482, 0.20283551001133254, 1.5110071283958506, 0.12836897902201092, -0.09151777529694573], [0.5145969481940259, 0.12572662463981144, 0.5749217012808462, -0.23119049338194606, 0.137983970293719], [0.7835927882421931, 0.4403452810123505, 0.08125298436065588, -0.6845116975202081, 0.2815829729115831], [0.010908872203868115, 0.45566371728464317, 0.13675771771954995, 0.6882288831510016, -0.032609575100486295], [0.07133154318516345, 0.4217064472385048, -0.6874061856520259, -0.25403225348189823, -0.3162458346088078], [1.5840663914597448, -0.05873110184204383, 0.41250028865134114, 0.3917271844754705, -0.17763995472297467], [-0.9769777084506204, 0.6102209068034645, -0.25753384959998116, 0.45407565931871485, -0.8255219594097656], [-0.2766925460525647, 0.7948836121736637, 0.9050463886060675, -0.8237471601839077, -0.84294146328566], [-0.02808463067647122, 0.46058025358844906, 0.10151207239074857, 0.19198485424004202, -0.6253950672515969], [0.5842151351744177, 0.7063594416167539, -0.2755434956086589, -0.9066174559682012, -0.4799204277611376], [0.28614353731818776, -1.0964863798482016, -0.05810798271313834, -0.6267686722314738, -0.08293670326895732], [-0.15080047890777962, 0.010028710300835318, 0.9494469225219566, 0.2660806474441458, 0.8435140039500585], [-0.09278651710777129, -0.3033172032094295, 0.23958084834702262, -1.7935115707259193, -0.02522790151826406]], [[0.7620402412079084, -0.43513680495394785, 0.4541630995243421, 0.11151358163755837, -0.7009644836427416, 0.4934416307318063, -0.3406982526620061, -0.15971500331816246, 1.0400584484292141, 0.4336640875950788, 0.034033775347624355, -0.010317159881950456, 0.4514779816885681, -0.5440702602157846, 0.43708829172782687, -0.3815914671836209]]], "b": [[-0.2840462864247698, -0.07564462062459353, -0.13917463457038806, -0.08912781533700877, -0.5171067846885773, -0.20980554778777452, -0.069100184207827, -0.10983865286694645, -0.4179500372400367, -0.00037315171978872727, -2.354760335134907e-05, 1.0349764417299394e-05, -0.14427905846843156, -0.3810395765703346, -0.0004000167123107501, 0.0003556644769382173], [-0.09252737870108671]], "vW": [[[0.0008171062829226051, 0.0, 0.0, 0.0, 0.0], [-4.81704651089708e-06, 0.0, 0.0, 0.0, 0.0], [0.0004882405740431418, 0.0, 0.0, 0.0, 0.0], [0.00011758305688334083, 0.0, 0.0, 0.0, 0.0], [-7.7588356966103e-06, 0.0, 0.0, 0.0, 0.0], [0.000528016376261906, 0.0, 0.0, 0.0, 0.0], [-3.7716383183520306e-06, 0.0, 0.0, 0.0, 0.0], [-1.7677072223288986e-06, 0.0, 0.0, 0.0, 0.0], [0.0011139486436902097, 0.0, 0.0, 0.0, 0.0], [4.806192681150987e-06, 0.0, 0.0, 0.0, 0.0], [3.781411156500328e-07, 0.0, 0.0, 0.0, 0.0], [-1.1409796545717642e-07, 0.0, 0.0, 0.0, 0.0], [0.0004851061526860568, 0.0, 0.0, 0.0, 0.0], [-6.021849969381425e-06, 0.0, 0.0, 0.0, 0.0], [4.840168637072094e-06, 0.0, 0.0, 0.0, 0.0], [-4.224545978990072e-06, 0.0, 0.0, 0.0, 0.0]], [[0.0005863621000681401, -1.439681662614963e-06, 0.00030458444494047574, 0.00015668896987597347, -2.5295795604410906e-06, 0.0004182522689745418, -9.728432802359886e-07, -9.575040397965147e-07, 0.000845405611620253, -1.0833171860169731e-05, -3.0647121392695942e-06, -3.105476972990808e-07, 0.0003116173206173855, -2.8935374422175668e-06, -1.686236646284219e-06, -1.0127627690797884e-06]]], "vb": [[0.0011655991665469258, -6.93520893102473e-06, 0.0006967165882142137, 0.0001673477234031973, -1.1169636861537039e-05, 0.0007530044808008805, -5.430120465783772e-06, -2.544736225180162e-06, 0.0015887992472289466, 6.9222281259368665e-06, 5.450726149216236e-07, -1.6421766203400632e-07, 0.0006921960444074911, -8.66892639687987e-06, 6.969302172754079e-06, -6.082373126435772e-06], [0.0015941686022398764]]}}