{"version": 1, "model": {"layer_sizes": [5, 16, 1], "lr": 0.03, "momentum": 0.9, "grad_clip": 3.0, "total_samples": 1199, "W": [[[1.166955876748466, 0.9167098936040888, 0.041954449334932704, -0.48353986153823236, -0.6907509918316201], [-0.022428757456124323, -0.6464348041825333, -0.9087307311439718, 0.12605596212771603, 0.08435350654913912], [0.611514317815525, -0.5780459794834379, 0.003165619319023322, -0.04094628450130507, -0.9523698821441012], [0.3033992598075613, 0.20283551001133254, 1.5110071283958506, 0.12836897902201092, -0.09151777529694573], [0.5139568746855373, 0.12572662463981144, 0.5749217012808462, -0.23119049338194606, 0.137983970293719], [0.8277993576421515, 0.4403452810123505, 0.08125298436065588, -0.6845116975202081, 0.2815829729115831], [0.010597531142393651, 0.45566371728464317, 0.13675771771954995, 0.6882288831510016, -0.032609575100486295], [0.0711857114342535, 0.4217064472385048, -0.6874061856520259, -0.25403225348189823, -0.3162458346088078], [1.6771240833171441, -0.05873110184204383, 0.41250028865134114, 0.3917271844754705, -0.17763995472297467], [-0.9765806978567858, 0.6102209068034645, -0.25753384959998116, 0.45407565931871485, -0.8255219594097656], [-0.2766612778393929, 0.7948836121736637, 0.9050463886060675, -0.8237471601839077, -0.84294146328566], [-0.028094047344045338, 0.46058025358844906, 0.10151207239074857, 0.19198485424004202, -0.6253950672515969], [0.6244278309158585, 0.7063594416167539, -0.2755434956086589, -0.9066174559682012, -0.4799204277611376], [0.2856467505040947, -1.0964863798482016, -0.05810798271313834, -0.6267686722314738, -0.08293670326895732], [-0.1504007962417373, 0.010028710300835318, 0.9494469225219566, 0.2660806474441458, 0.8435140039500585], [-0.0931353277788568, -0.3033172032094295, 0.23958084834702262, -1.7935115707259193, -0.02522790151826406]], [[0.8428160473414152, -0.43511869123273683, 0.493374671049272, 0.13743789219502667, -0.7002419702362529, 0.5534199692951068, -0.34065357021238546, -0.15959620609192, 1.1592814555456954, 0.43276928363252537, 0.03378068520411649, -0.010342797692058129, 0.49221539130234104, -0.5436228141855148, 0.4369488003586495, -0.3816748792121264]]], "b": [[-0.3323940431191033, -0.07543465594987606, -0.1673491546055778, -0.09721356507878434, -0.5167682664846622, -0.24166196753407934, -0.06893581132090167, -0.109761454999225, -0.4845800656215858, -0.0005800626041186978, -3.93714079410747e-05, 1.5378672730194794e-05, -0.1724129667282972, -0.3807766661474338, -0.0006102893251263751, 0.0005397039862624226], [-0.1407068752822988]], "vW": [[[0.0009374022765459372, 0.0, 0.0, 0.0, 0.0], [-4.967874960195148e-06, 0.0, 0.0, 0.0, 0.0], [0.0005496528224643324, 0.0, 0.0, 0.0, 0.0], [0.00015142712680103743, 0.0, 0.0, 0.0, 0.0], [-7.99386028010549e-06, 0.0, 0.0, 0.0, 0.0], [0.000614747580903674, 0.0, 0.0, 0.0, 0.0], [-3.8893827649050625e-06, 0.0, 0.0, 0.0, 0.0], [-1.8217825734937938e-06, 0.0, 0.0, 0.0, 0.0], [0.0012884701046039808, 0.0, 0.0, 0.0, 0.0], [4.94647180384252e-06, 0.0, 0.0, 0.0, 0.0], [3.870560852822582e-07, 0.0, 0.0, 0.0, 0.0], [-1.1797266652200544e-07, 0.0, 0.0, 0.0, 0.0], [0.0005481792456283974, 0.0, 0.0, 0.0, 0.0], [-6.205568227477643e-06, 0.0, 0.0, 0.0, 0.0], [4.990285703501487e-06, 0.0, 0.0, 0.0, 0.0], [-4.35795251693846e-06, 0.0, 0.0, 0.0, 0.0]], [[0.0005616922733217402, -1.5506584094632e-06, 0.0002940764380493028, 0.00014645327710660123, -3.0524739422784508e-06, 0.000398672951109921, -1.0633266290175507e-06, -1.0817737745864478e-06, 0.0008075180531260552, -1.1171793064951928e-05, -3.1606938404506306e-06, -3.203023437931271e-07, 0.00030034573912615306, -3.311191787267563e-06, -1.7381712748022534e-06, -1.0453029111206148e-06]]], "vb": [[0.0014108661621910225, -7.523942976986828e-06, 0.0008273930999512162, 0.0002277186361782819, -1.210606383944212e-05, 0.000925140624824506, -5.890553986860313e-06, -2.7588924893337464e-06, 0.0019391297622171947, 7.493835946459025e-06, 5.867756716748136e-07, -1.7862658971942624e-07, 0.0008251506755241505, -9.397713049635052e-06, 7.558582927522111e-06, -6.60037513249532e-06], [0.001729539013849256]]}}