{"version": 1, "model": {"layer_sizes": [5, 16, 1], "lr": 0.03, "momentum": 0.9, "grad_clip": 3.0, "total_samples": 900, "W": [[[1.0693147527082998, 0.9167098936040888, 0.041954449334932704, -0.48353986153823236, -0.6907509918316201], [-0.021843705510857774, -0.6464348041825333, -0.9087307311439718, 0.12605596212771603, 0.08435350654913912], [0.553251708811513, -0.5780459794834379, 0.003165619319023322, -0.04094628450130507, -0.9523698821441012], [0.28922169265057823, 0.20283551001133254, 1.5110071283958506, 0.12836897902201092, -0.09151777529694573], [0.5148988349271025, 0.12572662463981144, 0.5749217012808462, -0.23119049338194606, 0.137983970293719], [0.7646343793482033, 0.4403452810123505, 0.08125298436065588, -0.6845116975202081, 0.2815829729115831], [0.011055611121704036, 0.45566371728464317, 0.13675771771954995, 0.6882288831510016, -0.032609575100486295], [0.07140031009767257, 0.4217064472385048, -0.6874061856520259, -0.25403225348189823, -0.3162458346088078], [1.543930682142318, -0.05873110184204383, 0.41250028865134114, 0.3917271844754705, -0.17763995472297467], [-0.9771650552917694, 0.6102209068034645, -0.25753384959998116, 0.45407565931871485, -0.8255219594097656], [-0.27670735331315005, 0.7948836121736637, 0.9050463886060675, -0.8237471601839077, -0.84294146328566], [-0.028080200349194364, 0.46058025358844906, 0.10151207239074857, 0.19198485424004202, -0.6253950672515969], [0.5665234922741299, 0.7063594416167539, -0.2755434956086589, -0.9066174559682012, -0.4799204277611376], [0.2863778097386078, -1.0964863798482016, -0.05810798271313834, -0.6267686722314738, -0.08293670326895732], [-0.1509888699579866, 0.010028710300835318, 0.9494469225219566, 0.2660806474441458, 0.8435140039500585], [-0.09262216305064758, -0.3033172032094295, 0.23958084834702262, -1.7935115707259193, -0.02522790151826406]], [[0.7239277643340699, -0.4351465837306389, 0.43584429840848155, 0.0989935934493231, -0.7013129776796028, 0.4649852713478456, -0.3407204323632742, -0.15977269002418296, 0.9836220264253481, 0.4340858545369876, 0.034153051936365364, -0.01030508002621491, 0.43240226025747325, -0.5442870267735479, 0.43715411519699715, -0.38155223539086003]]], "b": [[-0.2616151305008887, -0.07575017018794, -0.12594532951719475, -0.08562534145718041, -0.5172770515343756, -0.19516106968627378, -0.06918282113069438, -0.109877469832114, -0.387195199178935, -0.0002688417112078643, -1.5512983118196084e-05, 7.829260536936791e-06, -0.131100551444706, -0.38117178548640673, -0.00029425110725511406, 0.00026315777169274164], [-0.06830335026384905]], "vW": [[[0.0007591628541020405, 0.0, 0.0, 0.0, 0.0], [-4.727715901498677e-06, 0.0, 0.0, 0.0, 0.0], [0.0004585258246615123, 0.0, 0.0, 0.0, 0.0], [0.00010149302957252326, 0.0, 0.0, 0.0, 0.0], [-7.618563212799833e-06, 0.0, 0.0, 0.0, 0.0], [0.0004863554516248667, 0.0, 0.0, 0.0, 0.0], [-3.7018537525122157e-06, 0.0, 0.0, 0.0, 0.0], [-1.7355091522826406e-06, 0.0, 0.0, 0.0, 0.0], [0.001030021026535964, 0.0, 0.0, 0.0, 0.0], [4.721658951661942e-06, 0.0, 0.0, 0.0, 0.0], [3.7244703714034545e-07, 0.0, 0.0, 0.0, 0.0], [-1.118456115415723e-07, 0.0, 0.0, 0.0, 0.0], [0.00045461860255469934, 0.0, 0.0, 0.0, 0.0], [-5.912388012537625e-06, 0.0, 0.0, 0.0, 0.0], [4.7510481399653424e-06, 0.0, 0.0, 0.0, 0.0], [-4.145686187090087e-06, 0.0, 0.0, 0.0, 0.0]], [[0.0005955758918715126, -1.3781267278013902e-06, 0.000308064637823774, 0.0001612137358071124, -2.247861258539727e-06, 0.00042594673096803894, -9.230507029886283e-07, -8.898489149839301e-07, 0.0008600027888404356, -1.0632563984008147e-05, -3.007866506638194e-06, -3.04772999662052e-07, 0.0003154727957979833, -2.6667973845706803e-06, -1.655400928344131e-06, -9.935631816662387e-07]]], "vb": [[0.0010493906250422873, -6.6099048049771974e-06, 0.0006341541410242006, 0.00013976622955241515, -1.0650642993880987e-05, 0.0006720019796349077, -5.175637805936897e-06, -2.426154056088249e-06, 0.0014234620071252079, 6.604274220401916e-06, 5.214265688563678e-07, -1.5631797276119703e-07, 0.0006286854683667769, -8.26528250827733e-06, 6.643389421456765e-06, -5.79637491754114e-06], [0.001519375783369721]]}}