{"version": 1, "model": {"layer_sizes": [5, 16, 1], "lr": 0.03, "momentum": 0.9, "grad_clip": 3.0, "total_samples": 965, "W": [[[1.0904105227194114, 0.9167098936040888, 0.041954449334932704, -0.48353986153823236, -0.6907509918316201], [-0.02197844852885801, -0.6464348041825333, -0.9087307311439718, 0.12605596212771603, 0.08435350654913912], [0.5660003835134312, -0.5780459794834379, 0.003165619319023322, -0.04094628450130507, -0.9523698821441012], [0.2920308392774054, 0.20283551001133254, 1.5110071283958506, 0.12836897902201092, -0.09151777529694573], [0.5146817641827309, 0.12572662463981144, 0.5749217012808462, -0.23119049338194606, 0.137983970293719], [0.7781432492275216, 0.4403452810123505, 0.08125298436065588, -0.6845116975202081, 0.2815829729115831], [0.010950105668551932, 0.45566371728464317, 0.13675771771954995, 0.6882288831510016, -0.032609575100486295], [0.07135086435196647, 0.4217064472385048, -0.6874061856520259, -0.25403225348189823, -0.3162458346088078], [1.5725460086130636, -0.05873110184204383, 0.41250028865134114, 0.3917271844754705, -0.17763995472297467], [-0.9770303376384509, 0.6102209068034645, -0.25753384959998116, 0.45407565931871485, -0.8255219594097656], [-0.2766967022989451, 0.7948836121736637, 0.9050463886060675, -0.8237471601839077, -0.84294146328566], [-0.028083385246671057, 0.46058025358844906, 0.10151207239074857, 0.19198485424004202, -0.6253950672515969], [0.5791621594763636, 0.7063594416167539, -0.2755434956086589, -0.9066174559682012, -0.4799204277611376], [0.28620935907919287, -1.0964863798482016, -0.05810798271313834, -0.6267686722314738, -0.08293670326895732], [-0.15085341555209578, 0.010028710300835318, 0.9494469225219566, 0.2660806474441458, 0.8435140039500585], [-0.09274033089135893, -0.3033172032094295, 0.23958084834702262, -1.7935115707259193, -0.02522790151826406]], [[0.751327068007714, -0.43513946543650256, 0.44900071015159665, 0.10801497126699375, -0.7010618495919244, 0.4854539811115281, -0.34070440631127175, -0.15973109386972298, 1.0242076936371318, 0.4337826009040186, 0.03406729241306772, -0.010313765213561456, 0.4461054812215287, -0.5441307576322972, 0.43710678241390494, -0.38158043739797887]]], "b": [[-0.27772176247499886, -0.0756738161394657, -0.13545587593076883, -0.0881224684451758, -0.5171538750824392, -0.2056668052933286, -0.0691230415626643, -0.10984938915500776, -0.40926728936097473, -0.00034431765914763477, -2.1330230395815684e-05, 9.652103796330417e-06, -0.1405723356258812, -0.3810761431959842, -0.00037076523680002745, 0.0003300759742909614], [-0.08582714070787603]], "vW": [[[0.0008008678257111408, 0.0, 0.0, 0.0, 0.0], [-4.793095470922451e-06, 0.0, 0.0, 0.0, 0.0], [0.00047992129890822105, 0.0, 0.0, 0.0, 0.0], [0.00011306094850347111, 0.0, 0.0, 0.0, 0.0], [-7.721282406206748e-06, 0.0, 0.0, 0.0, 0.0], [0.0005163340023807665, 0.0, 0.0, 0.0, 0.0], [-3.7529304355777524e-06, 0.0, 0.0, 0.0, 0.0], [-1.759083298932688e-06, 0.0, 0.0, 0.0, 0.0], [0.0010904199717217053, 0.0, 0.0, 0.0, 0.0], [4.7836037175503945e-06, 0.0, 0.0, 0.0, 0.0], [3.766361027710069e-07, 0.0, 0.0, 0.0, 0.0], [-1.1349184838449975e-07, 0.0, 0.0, 0.0, 0.0], [0.0004765686428113336, 0.0, 0.0, 0.0, 0.0], [-5.992535379218427e-06, 0.0, 0.0, 0.0, 0.0], [4.816285009894649e-06, 0.0, 0.0, 0.0, 0.0], [-4.203394390905234e-06, 0.0, 0.0, 0.0, 0.0]], [[0.0005891306544489943, -1.4229528485815536e-06, 0.00030567077151550146, 0.00015798444090527497, -2.452532715617381e-06, 0.00042052940474076033, -9.59288229323452e-07, -9.390429315370543e-07, 0.0008497509436475367, -1.0779387431523867e-05, -3.0494707514563374e-06, -3.0899928934379505e-07, 0.0003128081799851783, -2.8316290090581173e-06, -1.6779721213530182e-06, -1.007612073528124e-06]]], "vb": [[0.0011328796982906695, -6.846722988692711e-06, 0.000679145884732278, 0.00015951200870079345, -1.1028555292329056e-05, 0.0007301595198479873, -5.360902704425276e-06, -2.512495034394307e-06, 0.0015422026860912072, 6.835861817048345e-06, 5.386750071457968e-07, -1.6206533825639396e-07, 0.0006743494123046094, -8.559185835146163e-06, 6.880668079392907e-06, -6.004566023440019e-06], [0.001573823863727402]]}}