{"version": 1, "model": {"layer_sizes": [5, 16, 1], "lr": 0.03, "momentum": 0.9, "grad_clip": 3.0, "total_samples": 1043, "W": [[[1.1158662414234515, 0.9167098936040888, 0.041954449334932704, -0.48353986153823236, -0.6907509918316201], [-0.02213438013981399, -0.6464348041825333, -0.9087307311439718, 0.12605596212771603, 0.08435350654913912], [0.5812539875292513, -0.5780459794834379, 0.003165619319023322, -0.04094628450130507, -0.9523698821441012], [0.2956257251208635, 0.20283551001133254, 1.5110071283958506, 0.12836897902201092, -0.09151777529694573], [0.514430655008362, 0.12572662463981144, 0.5749217012808462, -0.23119049338194606, 0.137983970293719], [0.7945556787120872, 0.4403452810123505, 0.08125298436065588, -0.6845116975202081, 0.2815829729115831], [0.010828013251703435, 0.45566371728464317, 0.13675771771954995, 0.6882288831510016, -0.032609575100486295], [0.0712936594102454, 0.4217064472385048, -0.6874061856520259, -0.25403225348189823, -0.3162458346088078], [1.607205970492257, -0.05873110184204383, 0.41250028865134114, 0.3917271844754705, -0.17763995472297467], [-0.976874536436284, 0.6102209068034645, -0.25753384959998116, 0.45407565931871485, -0.8255219594097656], [-0.2766844059718047, 0.7948836121736637, 0.9050463886060675, -0.8237471601839077, -0.84294146328566], [-0.02808707412631059, 0.46058025358844906, 0.10151207239074857, 0.19198485424004202, -0.6253950672515969], [0.5943093559443179, 0.7063594416167539, -0.2755434956086589, -0.9066174559682012, -0.4799204277611376], [0.28601447987066103, -1.0964863798482016, -0.05810798271313834, -0.6267686722314738, -0.08293670326895732], [-0.1506966722868701, 0.010028710300835318, 0.9494469225219566, 0.2660806474441458, 0.8435140039500585], [-0.09287709501076209, -0.3033172032094295, 0.23958084834702262, -1.7935115707259193, -0.02522790151826406]], [[0.7830475419742301, -0.4351317754096528, 0.46431365378550893, 0.11833019884297939, -0.7007747528535911, 0.5090806862281008, -0.3406863546886577, -0.15968370611854696, 1.071112104730892, 0.43343168805498106, 0.03396804713302402, -0.010323817369466377, 0.46203492295753357, -0.54395251351406, 0.437052043454492, -0.3816131088837788]]], "b": [[-0.296499515889611, -0.07558836458440112, -0.14647293614516643, -0.09114541011027395, -0.5170160609472342, -0.21797558084906488, -0.06905614191062481, -0.10981796680108566, -0.4350709055612686, -0.0004286694738235692, -2.7808878195471003e-05, 1.1695135918485157e-05, -0.15155854262076102, -0.3809691236718994, -0.0004563719578172213, 0.0004049717558600076], [-0.10543731200573263]], "vW": [[[0.0008487966951269086, 0.0, 0.0, 0.0, 0.0], [-4.86135588194643e-06, 0.0, 0.0, 0.0, 0.0], [0.0005044570478173509, 0.0, 0.0, 0.0, 0.0], [0.00012643847281520697, 0.0, 0.0, 0.0, 0.0], [-7.828176535947282e-06, 0.0, 0.0, 0.0, 0.0], [0.0005508317389803062, 0.0, 0.0, 0.0, 0.0], [-3.806241874245358e-06, 0.0, 0.0, 0.0, 0.0], [-1.7836403646243667e-06, 0.0, 0.0, 0.0, 0.0], [0.0011598856262854083, 0.0, 0.0, 0.0, 0.0], [4.847802968112355e-06, 0.0, 0.0, 0.0, 0.0], [3.8087424868819505e-07, 0.0, 0.0, 0.0, 0.0], [-1.152245290379662e-07, 0.0, 0.0, 0.0, 0.0], [0.000501752405740733, 0.0, 0.0, 0.0, 0.0], [-6.076001497962615e-06, 0.0, 0.0, 0.0, 0.0], [4.88432718135576e-06, 0.0, 0.0, 0.0, 0.0], [-4.2636951687757515e-06, 0.0, 0.0, 0.0, 0.0]], [[0.0005805596030144356, -1.47115039696981e-06, 0.0003022273613655299, 0.0001541006749113744, -2.6756100352298885e-06, 0.00041354872178835783, -9.983938854681955e-07, -9.92399629487305e-07, 0.0008363791412505661, -1.09326670308665e-05, -3.092908856034753e-06, -3.1341255488801346e-07, 0.00030905743154138846, -3.0106435768561776e-06, -1.7015173546688668e-06, -1.0222998165559021e-06]]], "vb": [[0.0012297580273682236, -7.10182944559107e-06, 0.0007310738317680907, 0.00018286541201850817, -1.1435088922981884e-05, 0.0007978837895947272, -5.560449361110253e-06, -2.6054139672702586e-06, 0.0016802666528608601, 7.084579658923448e-06, 5.570401507209461e-07, -1.6827866656443645e-07, 0.0007271139661531353, -8.875444184849205e-06, 7.136161405775488e-06, -6.228914557886618e-06], [0.0016324788720183188]]}}