{"version": 1, "model": {"layer_sizes": [5, 16, 1], "lr": 0.03, "momentum": 0.9, "grad_clip": 3.0, "total_samples": 404, "W": [[[0.9173681990952348, 0.9167098936040888, 0.041954449334932704, -0.48353986153823236, -0.6907509918316201], [-0.020634745953224107, -0.6464348041825333, -0.9087307311439718, 0.12605596212771603, 0.08435350654913912], [0.45638999159840393, -0.5780459794834379, 0.003165619319023322, -0.04094628450130507, -0.9523698821441012], [0.27694381611244223, 0.20283551001133254, 1.5110071283958506, 0.12836897902201092, -0.09151777529694573], [0.5168500096369316, 0.12572662463981144, 0.5749217012808462, -0.23119049338194606, 0.137983970293719], [0.6716625625656152, 0.4403452810123505, 0.08125298436065588, -0.6845116975202081, 0.2815829729115831], [0.012002387466991482, 0.45566371728464317, 0.13675771771954995, 0.6882288831510016, -0.032609575100486295], [0.07184455078364066, 0.4217064472385048, -0.6874061856520259, -0.25403225348189823, -0.3162458346088078], [1.3428868808510708, -0.05873110184204383, 0.41250028865134114, 0.3917271844754705, -0.17763995472297467], [-0.97837751420918, 0.6102209068034645, -0.25753384959998116, 0.45407565931871485, -0.8255219594097656], [-0.27680400830745244, 0.7948836121736637, 0.9050463886060675, -0.8237471601839077, -0.84294146328566], [-0.02805174049961332, 0.46058025358844906, 0.10151207239074857, 0.19198485424004202, -0.6253950672515969], [0.4714753470876205, 0.7063594416167539, -0.2755434956086589, -0.9066174559682012, -0.4799204277611376], [0.2878914344134061, -1.0964863798482016, -0.05810798271313834, -0.6267686722314738, -0.08293670326895732], [-0.15220464165762967, 0.010028710300835318, 0.9494469225219566, 0.2660806474441458, 0.8435140039500585], [-0.0915624421888565, -0.3033172032094295, 0.23958084834702262, -1.7935115707259193, -0.02522790151826406]], [[0.48284314413557355, -0.43524036836444846, 0.32447557725516785, 0.012675378052457656, -0.7037596131398265, 0.2811066392746692, -0.34089126962277166, -0.16018705759282634, 0.6220942133223244, 0.43680829001992444, 0.034922559597328574, -0.010227209951905574, 0.3153313809116491, -0.5458318260951136, 0.4375806744014205, -0.38130091915761555]]], "b": [[-0.11951589306022085, -0.07659534561705324, -0.03820057466595236, -0.06965810127147407, -0.5186426732938564, -0.10577426546619383, -0.06984465938045306, -0.11018856851061072, -0.19632576305264743, 0.0005719028967131714, 5.032711053720239e-05, -1.2208849403419985e-05, -0.044476107452891246, -0.3822315932712474, 0.0005537206324669941, -0.00047730595898974327], [0.12572421497547037]], "vW": [[[0.00044988723157249506, 0.0, 0.0, 0.0, 0.0], [-4.402559184621789e-06, 0.0, 0.0, 0.0, 0.0], [0.0003071644610254089, 0.0, 0.0, 0.0, 0.0], [4.172472242536722e-06, 0.0, 0.0, 0.0, 0.0], [-7.117969733533031e-06, 0.0, 0.0, 0.0, 0.0], [0.00025776438735135, 0.0, 0.0, 0.0, 0.0], [-3.448257225396365e-06, 0.0, 0.0, 0.0, 0.0], [-1.6199872573506286e-06, 0.0, 0.0, 0.0, 0.0], [0.0005747722881941862, 0.0, 0.0, 0.0, 0.0], [4.424653862257384e-06, 0.0, 0.0, 0.0, 0.0], [3.548432367885659e-07, 0.0, 0.0, 0.0, 0.0], [-1.0331567734928443e-07, 0.0, 0.0, 0.0, 0.0], [0.0002976639663518242, 0.0, 0.0, 0.0, 0.0], [-5.520223326374542e-06, 0.0, 0.0, 0.0, 0.0], [4.427913355969955e-06, 0.0, 0.0, 0.0, 0.0], [-3.85717806657602e-06, 0.0, 0.0, 0.0, 0.0]], [[0.0006786692664753031, -1.0463514803708755e-06, 0.00034045406727094475, 0.00020043430992801444, -4.973572747436919e-07, 0.0004944756081629716, -6.437072693993183e-07, -4.894848395142933e-07, 0.0009906363587872493, -9.902781110164718e-06, -2.8007721919490097e-06, -2.836890013621131e-07, 0.00035104314437256115, -1.3069682615339267e-06, -1.5444673621412762e-06, -9.222987953971236e-07]]], "vb": [[0.00046929351641287944, -4.818376269485833e-06, 0.00032263885493302334, 8.387569038525433e-07, -7.788792386123324e-06, 0.00026697151171590724, -3.7739553172037963e-06, -1.7725682044441613e-06, 0.0005973290613052041, 4.846694272201865e-06, 3.893808170483262e-07, -1.1299293196060207e-07, 0.0003122775103394672, -6.040246201917265e-06, 4.847382711781851e-06, -4.2217987555565995e-06], [0.0011074402909666838]]}}