{"version": 1, "model": {"layer_sizes": [5, 16, 1], "lr": 0.03, "momentum": 0.9, "grad_clip": 3.0, "total_samples": 44, "W": [[[0.8414312474710656, 0.9167098936040888, 0.041954449334932704, -0.48353986153823236, -0.6907509918316201], [-0.019057025578176696, -0.6464348041825333, -0.9087307311439718, 0.12605596212771603, 0.08435350654913912], [0.39675906853099663, -0.5780459794834379, 0.003165619319023322, -0.04094628450130507, -0.9523698821441012], [0.2885347426727342, 0.20283551001133254, 1.5110071283958506, 0.12836897902201092, -0.09151777529694573], [0.5244518820693684, 0.12572662463981144, 0.5749217012808462, -0.23119049338194606, 0.137983970293719], [0.6348439401195826, 0.4403452810123505, 0.08125298436065588, -0.6845116975202081, 0.2815829729115831], [0.013282955293570067, 0.45566371728464317, 0.13675771771954995, 0.6882288831510016, -0.032609575100486295], [0.07342984140776261, 0.4217064472385048, -0.6874061856520259, -0.25403225348189823, -0.3162458346088078], [1.25369658799951, -0.05873110184204383, 0.41250028865134114, 0.3917271844754705, -0.17763995472297467], [-0.9795775992246485, 0.6102209068034645, -0.25753384959998116, 0.45407565931871485, -0.8255219594097656], [-0.2769013242924934, 0.7948836121736637, 0.9050463886060675, -0.8237471601839077, -0.84294146328566], [-0.028023993848159377, 0.46058025358844906, 0.10151207239074857, 0.19198485424004202, -0.6253950672515969], [0.41502630251567296, 0.7063594416167539, -0.2755434956086589, -0.9066174559682012, -0.4799204277611376], [0.2933576538524578, -1.0964863798482016, -0.05810798271313834, -0.6267686722314738, -0.08293670326895732], [-0.1534011374963492, 0.010028710300835318, 0.9494469225219566, 0.2660806474441458, 0.8435140039500585], [-0.09052138109359376, -0.3033172032094295, 0.23958084834702262, -1.7935115707259193, -0.02522790151826406]], [[0.29174029956920816, -0.4355554002813926, 0.2730563178092809, -0.11396789552179905, -0.7101851892570084, 0.10367252205488488, -0.34130000695760393, -0.1612236319457453, 0.2984599444937916, 0.43949742008594084, 0.03568010325784973, -0.010150946899829252, 0.25191862257488606, -0.5497823279729277, 0.4380126466416338, -0.381064820432843]]], "b": [[0.053423348112915325, -0.07774942818399667, 0.10228433780208397, -0.10344909837989306, -0.5104244258637617, -0.02594620197799082, -0.0706595578622808, -0.10860689132289818, 0.002090438708347743, 0.0025154627511130953, 0.00020689648008349445, -5.741082904258774e-05, 0.08781327392522237, -0.3767143309137598, 0.0024957854882004067, -0.002168255264953116], [0.5693217747186556]], "vW": [[[-0.0003635684167560158, 0.0, 0.0, 0.0, 0.0], [-4.0373036435657674e-05, 0.0, 0.0, 0.0, 0.0], [-0.00027046981248317315, 0.0, 0.0, 0.0, 0.0], [3.1756321455808016e-05, 0.0, 0.0, 0.0, 0.0], [-0.0006263029506623383, 0.0, 0.0, 0.0, 0.0], [-0.0001891947870347945, 0.0, 0.0, 0.0, 0.0], [-3.658953839419904e-05, 0.0, 0.0, 0.0, 0.0], [-0.00012647060859884864, 0.0, 0.0, 0.0, 0.0], [-0.00044213224702662076, 0.0, 0.0, 0.0, 0.0], [-2.8768022898023717e-06, 0.0, 0.0, 0.0, 0.0], [-2.2966604024741118e-07, 0.0, 0.0, 0.0, 0.0], [6.744134569285671e-08, 0.0, 0.0, 0.0, 0.0], [-0.00025828290290091374, 0.0, 0.0, 0.0, 0.0], [-0.00043807389310571593, 0.0, 0.0, 0.0, 0.0], [-2.883275680328574e-06, 0.0, 0.0, 0.0, 0.0], [2.51281654643051e-06, 0.0, 0.0, 0.0, 0.0]], [[-0.0007857219864884954, 3.265493147990666e-06, -0.000605639916687227, 0.00010198382723519352, 0.00030336719342907487, -0.00039072868432136186, 7.10231894230963e-06, 3.967324778853371e-05, -0.0009342788822776127, 6.378336169371029e-06, 1.8183482866149502e-06, 1.8641382744968518e-07, -0.0005750208058872671, 0.00016507617855501615, 9.34818146919117e-07, 6.625405894947189e-07]]], "vb": [[-0.0007271368335120316, -8.074607287131535e-05, -0.0005409396249663463, 6.351264291161603e-05, -0.0012526059013246765, -0.000378389574069589, -7.317907678839808e-05, -0.0002529412171976973, -0.0008842644940532415, -5.7536045796047435e-06, -4.5933208049482235e-07, 1.3488269138571341e-07, -0.0005165658058018275, -0.0008761477862114319, -5.766551360657148e-06, 5.02563309286102e-06], [-0.0013178902679651821]]}}