{"version": 1, "model": {"layer_sizes": [5, 16, 1], "lr": 0.03, "momentum": 0.9, "grad_clip": 3.0, "total_samples": 153, "W": [[[0.8559737485046656, 0.9167098936040888, 0.041954449334932704, -0.48353986153823236, -0.6907509918316201], [-0.019882674850329442, -0.6464348041825333, -0.9087307311439718, 0.12605596212771603, 0.08435350654913912], [0.4109538063118187, -0.5780459794834379, 0.003165619319023322, -0.04094628450130507, -0.9523698821441012], [0.28193197233492606, 0.20283551001133254, 1.5110071283958506, 0.12836897902201092, -0.09151777529694573], [0.5180672483765448, 0.12572662463981144, 0.5749217012808462, -0.23119049338194606, 0.137983970293719], [0.6395102239970721, 0.4403452810123505, 0.08125298436065588, -0.6845116975202081, 0.2815829729115831], [0.012591498068718876, 0.45566371728464317, 0.13675771771954995, 0.6882288831510016, -0.032609575100486295], [0.07212149141369789, 0.4217064472385048, -0.6874061856520259, -0.25403225348189823, -0.3162458346088078], [1.2679873242234485, -0.05873110184204383, 0.41250028865134114, 0.3917271844754705, -0.17763995472297467], [-0.9791352002718583, 0.6102209068034645, -0.25753384959998116, 0.45407565931871485, -0.8255219594097656], [-0.2768651467678747, 0.7948836121736637, 0.9050463886060675, -0.8237471601839077, -0.84294146328566], [-0.028034144613411943, 0.46058025358844906, 0.10151207239074857, 0.19198485424004202, -0.6253950672515969], [0.42804905793891734, 0.7063594416167539, -0.2755434956086589, -0.9066174559682012, -0.4799204277611376], [0.2888352152215851, -1.0964863798482016, -0.05810798271313834, -0.6267686722314738, -0.08293670326895732], [-0.15296132484104616, 0.010028710300835318, 0.9494469225219566, 0.2660806474441458, 0.8435140039500585], [-0.09090371473777382, -0.3033172032094295, 0.23958084834702262, -1.7935115707259193, -0.02522790151826406]], [[0.34248669914226293, -0.435338919804377, 0.26651607338750805, -0.04844166867365127, -0.705541131701459, 0.16814398431696567, -0.341033885265351, -0.16050003648389055, 0.40470231169408993, 0.43850415389959957, 0.03540135433150241, -0.0101788436785726, 0.2526576325050966, -0.5469842599926127, 0.4378486728696927, -0.3811469793224757]]], "b": [[-0.03541162087487758, -0.07733582704635057, 0.020255799890809563, -0.07051038806801899, -0.5198421048090482, -0.058474567864999626, -0.07042467023641918, -0.11046155509346421, -0.08991382350026694, 0.0013140667692839152, 0.0001095612851680443, -2.961151696096654e-05, 0.011994662586475087, -0.3831618050780356, 0.0012976194901419319, -0.0011256421795138817], [0.29574283203122004]], "vW": [[[0.00013294401502922598, 0.0, 0.0, 0.0, 0.0], [-2.276770022389769e-06, 0.0, 0.0, 0.0, 0.0], [0.00011365163533954073, 0.0, 0.0, 0.0, 0.0], [-3.491031679070885e-05, 0.0, 0.0, 0.0, 0.0], [-3.6949113780053418e-06, 0.0, 0.0, 0.0, 0.0], [5.650547632325481e-05, 0.0, 0.0, 0.0, 0.0], [-1.7836825930512093e-06, 0.0, 0.0, 0.0, 0.0], [-8.401833701813634e-07, 0.0, 0.0, 0.0, 0.0], [0.00014684226259376347, 0.0, 0.0, 0.0, 0.0], [2.299482280034923e-06, 0.0, 0.0, 0.0, 0.0], [1.8679730763720418e-07, 0.0, 0.0, 0.0, 0.0], [-5.3080611382637276e-08, 0.0, 0.0, 0.0, 0.0], [0.00010620463677839254, 0.0, 0.0, 0.0, 0.0], [-2.863602481437921e-06, 0.0, 0.0, 0.0, 0.0], [2.2912284463881573e-06, 0.0, 0.0, 0.0, 0.0], [-1.9932042898459517e-06, 0.0, 0.0, 0.0, 0.0]], [[0.00035655555322205773, -1.0698891158526345e-07, 0.00014425885237524176, 0.00015996445794103933, 2.6333449355325515e-06, 0.00028952564677837424, 6.170799266457693e-08, 3.610062617243476e-07, 0.0005552481785906216, -5.1332677100038875e-06, -1.449184911044706e-06, -1.4637711516643587e-07, 0.00015683871814635908, 1.4545117717283652e-06, -8.116099191895834e-07, -4.655130514143059e-07]]], "vb": [[-7.385142403014563e-05, -8.16229390217989e-08, -4.1685774084717405e-05, -1.4484807358993888e-05, -1.4109736499221903e-07, -4.982180370974667e-05, -6.412091348142631e-08, -3.147173026321314e-08, -0.00010313587738924185, 9.298536439070375e-08, 9.498793618489947e-09, -1.6472923582994252e-09, -4.18976440121194e-05, -1.076931399210878e-07, 8.454208311621639e-08, -7.133772735065789e-08], [1.896326634695869e-05]]}}