{"version": 1, "model": {"layer_sizes": [5, 16, 1], "lr": 0.03, "momentum": 0.9, "grad_clip": 3.0, "total_samples": 1498, "W": [[[1.2645351824373736, 0.9167098936040888, 0.041954449334932704, -0.48353986153823236, -0.6907509918316201], [-0.022937746067258544, -0.6464348041825333, -0.9087307311439718, 0.12605596212771603, 0.08435350654913912], [0.6683336808667204, -0.5780459794834379, 0.003165619319023322, -0.04094628450130507, -0.9523698821441012], [0.3197891761991352, 0.20283551001133254, 1.5110071283958506, 0.12836897902201092, -0.09151777529694573], [0.5131385404745583, 0.12572662463981144, 0.5749217012808462, -0.23119049338194606, 0.137983970293719], [0.8921329477505497, 0.4403452810123505, 0.08125298436065588, -0.6845116975202081, 0.2815829729115831], [0.010199054511349474, 0.45566371728464317, 0.13675771771954995, 0.6882288831510016, -0.032609575100486295], [0.07099920860544995, 0.4217064472385048, -0.6874061856520259, -0.25403225348189823, -0.3162458346088078], [1.8116470753288265, -0.05873110184204383, 0.41250028865134114, 0.3917271844754705, -0.17763995472297467], [-0.9760735315982988, 0.6102209068034645, -0.25753384959998116, 0.45407565931871485, -0.8255219594097656], [-0.27662154921641363, 0.7948836121736637, 0.9050463886060675, -0.8237471601839077, -0.84294146328566], [-0.028106132049398765, 0.46058025358844906, 0.10151207239074857, 0.19198485424004202, -0.6253950672515969], [0.6811742919485622, 0.7063594416167539, -0.2755434956086589, -0.9066174559682012, -0.4799204277611376], [0.2850114674815982, -1.0964863798482016, -0.05810798271313834, -0.6267686722314738, -0.08293670326895732], [-0.14988931868285177, 0.010028710300835318, 0.9494469225219566, 0.2660806474441458, 0.8435140039500585], [-0.09358194590905966, -0.3033172032094295, 0.23958084834702262, -1.7935115707259193, -0.02522790151826406]], [[0.945170514766786, -0.43509971767098765, 0.5436666428114104, 0.16933159960324412, -0.699344170539459, 0.6289008782788864, -0.3406001784148834, -0.159449896503112, 1.309745438886938, 0.43162413905458635, 0.033456725314995425, -0.010375624228475305, 0.544318088377754, -0.543070021955284, 0.4367705432056613, -0.3817819244220329]]], "b": [[-0.3960723998352989, -0.07518819430264798, -0.2039146430509227, -0.10872072377161715, -0.5163712223548138, -0.28408630210633096, -0.06874288999784624, -0.10967086623398477, -0.5728836372136697, -0.0008218007872672311, -5.76391413669197e-05, 2.131038464961758e-05, -0.20903503881611404, -0.38046819276680344, -0.0008568703496347953, 0.0007557664748038546], [-0.1972435465470006]], "vW": [[[0.0010806075453420234, 0.0, 0.0, 0.0, 0.0], [-5.08139741288915e-06, 0.0, 0.0, 0.0, 0.0], [0.0006221630562375367, 0.0, 0.0, 0.0, 0.0], [0.0001926601042268635, 0.0, 0.0, 0.0, 0.0], [-8.166393909346062e-06, 0.0, 0.0, 0.0, 0.0], [0.0007185093638376891, 0.0, 0.0, 0.0, 0.0], [-3.977808107243773e-06, 0.0, 0.0, 0.0, 0.0], [-1.8617881419652042e-06, 0.0, 0.0, 0.0, 0.0], [0.0014968282150518285, 0.0, 0.0, 0.0, 0.0], [5.046209066408273e-06, 0.0, 0.0, 0.0, 0.0], [3.9209727742318665e-07, 0.0, 0.0, 0.0, 0.0], [-1.2106044321973757e-07, 0.0, 0.0, 0.0, 0.0], [0.0006227877439621369, 0.0, 0.0, 0.0, 0.0], [-6.341199826387773e-06, 0.0, 0.0, 0.0, 0.0], [5.102426060594878e-06, 0.0, 0.0, 0.0, 0.0], [-4.45898078775946e-06, 0.0, 0.0, 0.0, 0.0]], [[0.0005236105483528077, -1.6503312351201093e-06, 0.000276465094416648, 0.0001328493174506258, -3.5535372722584497e-06, 0.00036964427703331255, -1.1461047223850814e-06, -1.198159000598188e-06, 0.0007504307684530378, -1.1426326394149955e-05, -3.2329327937423658e-06, -3.2765824213405327e-07, 0.0002818376446329905, -3.7048032852740893e-06, -1.776826381689986e-06, -1.0701998748500273e-06]]], "vb": [[0.001706139882389704, -8.056740211385944e-06, 0.000982357335148309, 0.00030411887393833937, -1.2947454626700354e-05, 0.0011343973546655813, -6.30696721751342e-06, -2.9517368153000693e-06, 0.0023632562404403688, 8.002944828458995e-06, 6.2217997311628e-07, -1.919063089716961e-07, 0.0009833350909730061, -1.0053580706189715e-05, 8.09068233938739e-06, -7.070020115105999e-06], [0.0018520691376626617]]}}