{"version": 1, "model": {"layer_sizes": [5, 16, 1], "lr": 0.03, "momentum": 0.9, "grad_clip": 3.0, "total_samples": 1552, "W": [[[1.2693560756450013, 0.9167098936040888, 0.041954449334932704, -0.48353986153823236, -0.6907509918316201], [-0.022965527980222143, -0.6464348041825333, -0.9087307311439718, 0.12605596212771603, 0.08435350654913912], [0.6711374387468644, -0.5780459794834379, 0.003165619319023322, -0.04094628450130507, -0.9523698821441012], [0.3206042811432343, 0.20283551001133254, 1.5110071283958506, 0.12836897902201092, -0.09151777529694573], [0.5130939470934123, 0.12572662463981144, 0.5749217012808462, -0.23119049338194606, 0.137983970293719], [0.8953142586722731, 0.4403452810123505, 0.08125298436065588, -0.6845116975202081, 0.2815829729115831], [0.010177304304259144, 0.45566371728464317, 0.13675771771954995, 0.6882288831510016, -0.032609575100486295], [0.07098904925150533, 0.4217064472385048, -0.6874061856520259, -0.25403225348189823, -0.3162458346088078], [1.818296580456143, -0.05873110184204383, 0.41250028865134114, 0.3917271844754705, -0.17763995472297467], [-0.9760456698477418, 0.6102209068034645, -0.25753384959998116, 0.45407565931871485, -0.8255219594097656], [-0.27661933672939376, 0.7948836121736637, 0.9050463886060675, -0.8237471601839077, -0.84294146328566], [-0.028106788250696787, 0.46058025358844906, 0.10151207239074857, 0.19198485424004202, -0.6253950672515969], [0.6839751365642973, 0.7063594416167539, -0.2755434956086589, -0.9066174559682012, -0.4799204277611376], [0.2849768580154059, -1.0964863798482016, -0.05810798271313834, -0.6267686722314738, -0.08293670326895732], [-0.149861344950298, 0.010028710300835318, 0.9494469225219566, 0.2660806474441458, 0.8435140039500585], [-0.09360633876275304, -0.3033172032094295, 0.23958084834702262, -1.7935115707259193, -0.02522790151826406]], [[0.9581168241433153, -0.43506830094933197, 0.549713173737548, 0.17386266430037686, -0.699088457924028, 0.6387184908569664, -0.3405695347932253, -0.15939800162782103, 1.329093225133634, 0.43156151235983603, 0.03343901562227353, -0.010377417598054503, 0.55065744504576, -0.5428875269320457, 0.4367607640154796, -0.38178774376674757]]], "b": [[-0.43950528760323376, -0.07500104849893383, -0.22880792296217667, -0.11664332970198436, -0.516070326403565, -0.31306276751098405, -0.0685963963286791, -0.10960224439951839, -0.6331596389225725, -0.001006808979267103, -7.186599420863022e-05, 2.578691612950252e-05, -0.23397640594093058, -0.3802344911893357, -0.0010445588602858663, 0.0009199525185617182], [-0.24023509107823202]], "vW": [[[0.002274301400147008, 0.0, 0.0, 0.0, 0.0], [-1.0424223744004732e-05, 0.0, 0.0, 0.0, 0.0], [0.0013053301501758515, 0.0, 0.0, 0.0, 0.0], [0.00041196719084703203, 0.0, 0.0, 0.0, 0.0], [-1.674863633319506e-05, 0.0, 0.0, 0.0, 0.0], [0.0015157396317842476, 0.0, 0.0, 0.0, 0.0], [-8.16007747136758e-06, 0.0, 0.0, 0.0, 0.0], [-3.818668877924996e-06, 0.0, 0.0, 0.0, 0.0], [0.0031544283283451865, 0.0, 0.0, 0.0, 0.0], [1.0346534979410712e-05, 0.0, 0.0, 0.0, 0.0], [8.027898247112594e-07, 0.0, 0.0, 0.0, 0.0], [-2.4851233713031454e-07, 0.0, 0.0, 0.0, 0.0], [0.001307477346286589, 0.0, 0.0, 0.0, 0.0], [-1.3006014959732054e-05, 0.0, 0.0, 0.0, 0.0], [1.0466594148801394e-05, 0.0, 0.0, 0.0, 0.0], [-9.147982637512099e-06, 0.0, 0.0, 0.0, 0.0]], [[0.0009645825022698303, -3.5778649768889057e-06, 0.0005111049849356427, 0.0002418763991166432, -8.607891376755364e-06, 0.0006793960442517258, -2.526917560438005e-06, -2.7379060853568224e-06, 0.0013806076559210317, -2.3442330351185677e-05, -6.632358471654955e-06, -6.721364031512702e-07, 0.0005206356362724802, -8.571373430521924e-06, -3.6468036140641527e-06, -2.1939683971552325e-06]]], "vb": [[0.0038425340083212316, -1.7637859009861087e-05, 0.0022052447814043703, 0.0006963038320612288, -2.8337626601110242e-05, 0.002561055125791235, -1.3806909158741394e-05, -6.460894114701732e-06, 0.005329717685122598, 1.7509003442710897e-05, 1.358958361326978e-06, -4.204362886699958e-07, 0.002208906816379088, -2.20052284976101e-05, 1.7710377210384593e-05, -1.54786911977056e-05], [0.004054540835774585]]}}