{"version": 1, "model": {"layer_sizes": [5, 16, 1], "lr": 0.03, "momentum": 0.9, "grad_clip": 3.0, "total_samples": 848, "W": [[[1.0525559777649112, 0.9167098936040888, 0.041954449334932704, -0.48353986153823236, -0.6907509918316201], [-0.021732642412598882, -0.6464348041825333, -0.9087307311439718, 0.12605596212771603, 0.08435350654913912], [0.5430441486578212, -0.5780459794834379, 0.003165619319023322, -0.04094628450130507, -0.9523698821441012], [0.2871161648703468, 0.20283551001133254, 1.5110071283958506, 0.12836897902201092, -0.09151777529694573], [0.5150778158205813, 0.12572662463981144, 0.5749217012808462, -0.23119049338194606, 0.137983970293719], [0.7539713526067474, 0.4403452810123505, 0.08125298436065588, -0.6845116975202081, 0.2815829729115831], [0.011142577311199449, 0.45566371728464317, 0.13675771771954995, 0.6882288831510016, -0.032609575100486295], [0.07144107603348325, 0.4217064472385048, -0.6874061856520259, -0.25403225348189823, -0.3162458346088078], [1.5212785299608877, -0.05873110184204383, 0.41250028865134114, 0.3917271844754705, -0.17763995472297467], [-0.9772761588061558, 0.6102209068034645, -0.25753384959998116, 0.45407565931871485, -0.8255219594097656], [-0.27671615045261616, 0.7948836121736637, 0.9050463886060675, -0.8237471601839077, -0.84294146328566], [-0.02807757708190314, 0.46058025358844906, 0.10151207239074857, 0.19198485424004202, -0.6253950672515969], [0.5564195102002955, 0.7063594416167539, -0.2755434956086589, -0.9066174559682012, -0.4799204277611376], [0.28651669343557246, -1.0964863798482016, -0.05810798271313834, -0.6267686722314738, -0.08293670326895732], [-0.15110052646564887, 0.010028710300835318, 0.9494469225219566, 0.2660806474441458, 0.8435140039500585], [-0.09252477077801068, -0.3033172032094295, 0.23958084834702262, -1.7935115707259193, -0.02522790151826406]], [[0.7013735908965386, -0.4351528060063404, 0.4250685064402322, 0.09148202385333694, -0.7015222545065762, 0.44808961856092705, -0.34073396253048405, -0.15980746171683852, 0.9501588788186253, 0.43433583265641157, 0.03422374015352871, -0.010297921958118607, 0.42116538105176293, -0.5444175170412857, 0.437193153819738, -0.38152901217549356]]], "b": [[-0.2484177967573563, -0.07581499117905427, -0.1181064821978108, -0.08365218199608229, -0.5173816480832798, -0.18659263131673437, -0.06923357282272935, -0.10990131185509439, -0.3691563459559841, -0.00020469324503956168, -1.055459244850235e-05, 6.283634693886415e-06, -0.12330282500619563, -0.38125299380856315, -0.0002292794702364916, 0.0002063503152778146], [-0.053425562566165395]], "vW": [[[0.0007247035373031069, 0.0, 0.0, 0.0, 0.0], [-4.6694307643941955e-06, 0.0, 0.0, 0.0, 0.0], [0.0004408160590090183, 0.0, 0.0, 0.0, 0.0], [9.198455803506761e-05, 0.0, 0.0, 0.0, 0.0], [-7.526774437280522e-06, 0.0, 0.0, 0.0, 0.0], [0.00046161228658311707, 0.0, 0.0, 0.0, 0.0], [-3.6563097298012094e-06, 0.0, 0.0, 0.0, 0.0], [-1.7144587746107747e-06, 0.0, 0.0, 0.0, 0.0], [0.0009801471768130898, 0.0, 0.0, 0.0, 0.0], [4.666143707343654e-06, 0.0, 0.0, 0.0, 0.0], [3.686291883980496e-07, 0.0, 0.0, 0.0, 0.0], [-1.1038656156749714e-07, 0.0, 0.0, 0.0, 0.0], [0.00043645699661360403, 0.0, 0.0, 0.0, 0.0], [-5.840806827001335e-06, 0.0, 0.0, 0.0, 0.0], [4.692847581525038e-06, 0.0, 0.0, 0.0, 0.0], [-4.094270550915667e-06, 0.0, 0.0, 0.0, 0.0]], [[0.0006001316662179323, -1.3390580139505303e-06, 0.00030958316406000565, 0.00016377048195144117, -2.071425948053883e-06, 0.0004299250899691074, -8.915592805395851e-07, -8.472737647733276e-07, 0.000867423734804882, -1.0501667781014198e-05, -2.9707774485867447e-06, -3.0100568756992156e-07, 0.0003172178896781807, -2.524294372514244e-06, -1.6352698764529568e-06, -9.810478429828635e-07]]], "vb": [[0.0009810625320502853, -6.403831367212509e-06, 0.0005971544446680718, 0.00012388745738352742, -1.032144304395027e-05, 0.000624558471761833, -5.014409085839952e-06, -2.3509663951148164e-06, 0.0013264627999167253, 6.402286113489177e-06, 5.062842269479305e-07, -1.513304477906321e-07, 0.0005911717504910932, -8.009322455655216e-06, 6.436848065917426e-06, -5.615261753399095e-06], [0.0014719978076083592]]}}