{"version": 1, "model": {"layer_sizes": [5, 16, 1], "lr": 0.03, "momentum": 0.9, "grad_clip": 3.0, "total_samples": 1238, "W": [[[1.1797272665392156, 0.9167098936040888, 0.041954449334932704, -0.48353986153823236, -0.6907509918316201], [-0.022498990401789584, -0.6464348041825333, -0.9087307311439718, 0.12605596212771603, 0.08435350654913912], [0.6190162614413213, -0.5780459794834379, 0.003165619319023322, -0.04094628450130507, -0.9523698821441012], [0.305441262220818, 0.20283551001133254, 1.5110071283958506, 0.12836897902201092, -0.09151777529694573], [0.513843892996494, 0.12572662463981144, 0.5749217012808462, -0.23119049338194606, 0.137983970293719], [0.8361633562057924, 0.4403452810123505, 0.08125298436065588, -0.6845116975202081, 0.2815829729115831], [0.010542544604588424, 0.45566371728464317, 0.13675771771954995, 0.6882288831510016, -0.032609575100486295], [0.07115996607125512, 0.4217064472385048, -0.6874061856520259, -0.25403225348189823, -0.3162458346088078], [1.6946650884221803, -0.05873110184204383, 0.41250028865134114, 0.3917271844754705, -0.17763995472297467], [-0.9765106495007241, 0.6102209068034645, -0.25753384959998116, 0.45407565931871485, -0.8255219594097656], [-0.2766557763065308, 0.7948836121736637, 0.9050463886060675, -0.8237471601839077, -0.84294146328566], [-0.028095712772092996, 0.46058025358844906, 0.10151207239074857, 0.19198485424004202, -0.6253950672515969], [0.631906992689056, 0.7063594416167539, -0.2755434956086589, -0.9066174559682012, -0.4799204277611376], [0.2855590507772981, -1.0964863798482016, -0.05810798271313834, -0.6267686722314738, -0.08293670326895732], [-0.15033021215879866, 0.010028710300835318, 0.9494469225219566, 0.2660806474441458, 0.8435140039500585], [-0.09319694516923253, -0.3033172032094295, 0.23958084834702262, -1.7935115707259193, -0.02522790151826406]], [[0.857029311324412, -0.43511581933506643, 0.5003212895168532, 0.1419253254593425, -0.7001164625208613, 0.5639333550136548, -0.34064597392659146, -0.15957567167946468, 1.180212641137155, 0.43261125823928415, 0.03373598390999912, -0.01034732662750075, 0.4994209714849493, -0.5435453379703383, 0.4369241854011338, -0.381689632544533]]], "b": [[-0.34105141744332595, -0.07539930846394022, -0.1723525881283994, -0.09872718660882611, -0.5167113013809219, -0.24740210004006088, -0.06890814096150917, -0.10974846102385644, -0.496552999503215, -0.000614812106532187, -4.20127215377965e-05, 1.622740736195146e-05, -0.17741756809099302, -0.38073241607963093, -0.0006456709662685518, 0.0005706895322998819], [-0.14881662273811183]], "vW": [[[0.0009580287539868316, 0.0, 0.0, 0.0, 0.0], [-4.988883633263897e-06, 0.0, 0.0, 0.0, 0.0], [0.0005601405367613881, 0.0, 0.0, 0.0, 0.0], [0.00015729698910112286, 0.0, 0.0, 0.0, 0.0], [-8.026278999323845e-06, 0.0, 0.0, 0.0, 0.0], [0.0006296552434552518, 0.0, 0.0, 0.0, 0.0], [-3.9057689171441885e-06, 0.0, 0.0, 0.0, 0.0], [-1.8292640915655398e-06, 0.0, 0.0, 0.0, 0.0], [0.0013184368438280024, 0.0, 0.0, 0.0, 0.0], [4.96558419134752e-06, 0.0, 0.0, 0.0, 0.0], [3.8817599699491183e-07, 0.0, 0.0, 0.0, 0.0], [-1.1852488108475589e-07, 0.0, 0.0, 0.0, 0.0], [0.0005589603116905475, 0.0, 0.0, 0.0, 0.0], [-6.230965492292331e-06, 0.0, 0.0, 0.0, 0.0], [5.011133324549838e-06, 0.0, 0.0, 0.0, 0.0], [-4.376579545435708e-06, 0.0, 0.0, 0.0, 0.0]], [[0.0005567698748608407, -1.5673075660116242e-06, 0.0002918675915950472, 0.00014458811184813144, -3.1332589837202305e-06, 0.00039486266645451386, -1.0770132882650063e-06, -1.1007733947236507e-06, 0.0008000710805474666, -1.1218937736591338e-05, -3.174062966359116e-06, -3.216619870993792e-07, 0.0002980072788090676, -3.3752287848018367e-06, -1.745376731942684e-06, -1.0498620649497663e-06]]], "vb": [[0.001453294314964174, -7.612585167080525e-06, 0.0008498190231909489, 0.00023844556634158566, -1.2246604435557379e-05, 0.0009550723010826924, -5.959858362477313e-06, -2.791064871808307e-06, 0.0019999130624183507, 7.579290282143403e-06, 5.928808108874833e-07, -1.80813902069128e-07, 0.0008480070780924037, -9.50716833945575e-06, 7.647218777611688e-06, -6.678431635584577e-06], [0.0017499225579022124]]}}