{"version": 1, "model": {"layer_sizes": [5, 16, 1], "lr": 0.03, "momentum": 0.9, "grad_clip": 3.0, "total_samples": 757, "W": [[[1.0236231640746425, 0.9167098936040888, 0.041954449334932704, -0.48353986153823236, -0.6907509918316201], [-0.021531251381383502, -0.6464348041825333, -0.9087307311439718, 0.12605596212771603, 0.08435350654913912], [0.5252261300170266, -0.5780459794834379, 0.003165619319023322, -0.04094628450130507, -0.9523698821441012], [0.2837897610565865, 0.20283551001133254, 1.5110071283958506, 0.12836897902201092, -0.09151777529694573], [0.515402498235351, 0.12572662463981144, 0.5749217012808462, -0.23119049338194606, 0.137983970293719], [0.7357303345627569, 0.4403452810123505, 0.08125298436065588, -0.6845116975202081, 0.2815829729115831], [0.011300278949055895, 0.45566371728464317, 0.13675771771954995, 0.6882288831510016, -0.032609575100486295], [0.07151501990412415, 0.4217064472385048, -0.6874061856520259, -0.25403225348189823, -0.3162458346088078], [1.4823676804966401, -0.05873110184204383, 0.41250028865134114, 0.3917271844754705, -0.17763995472297467], [-0.977477766074947, 0.6102209068034645, -0.25753384959998116, 0.45407565931871485, -0.8255219594097656], [-0.2767321441570201, 0.7948836121736637, 0.9050463886060675, -0.8237471601839077, -0.84294146328566], [-0.028072824757309482, 0.46058025358844906, 0.10151207239074857, 0.19198485424004202, -0.6253950672515969], [0.5388199300611323, 0.7063594416167539, -0.2755434956086589, -0.9066174559682012, -0.4799204277611376], [0.28676861709219925, -1.0964863798482016, -0.05810798271313834, -0.6267686722314738, -0.08293670326895732], [-0.15130301000246882, 0.010028710300835318, 0.9494469225219566, 0.2660806474441458, 0.8435140039500585], [-0.09234818905540032, -0.3033172032094295, 0.23958084834702262, -1.7935115707259193, -0.02522790151826406]], [[0.660589792550894, -0.43516505878922035, 0.4057241234240742, 0.07767637780427021, -0.7019079994646971, 0.41741668193158155, -0.3407593734211373, -0.15987184585885134, 0.8895070210393022, 0.43478916774108717, 0.03435192020389595, -0.010284944135343333, 0.40095863552552646, -0.5446587559292482, 0.43726400437721197, -0.38148695863306314]]], "b": [[-0.224582272831963, -0.0759377122643492, -0.10383009800163694, -0.08027604863536078, -0.5175797369426595, -0.17121934327697305, -0.06932966149136983, -0.10994645762640308, -0.3366960075008167, -8.307176353967692e-05, -1.1199359704330931e-06, 3.3619130483961343e-06, -0.1091247852805106, -0.3814067715922263, -0.0001062384627715924, 9.880815295029946e-05], [-0.025256409626099877]], "vW": [[[0.0006607317311633608, 0.0, 0.0, 0.0, 0.0], [-4.5435713694288865e-06, 0.0, 0.0, 0.0, 0.0], [0.000407713422955232, 0.0, 0.0, 0.0, 0.0], [7.46886895698878e-05, 0.0, 0.0, 0.0, 0.0], [-7.327712812726951e-06, 0.0, 0.0, 0.0, 0.0], [0.00041587171615906966, 0.0, 0.0, 0.0, 0.0], [-3.5579251366601025e-06, 0.0, 0.0, 0.0, 0.0], [-1.6688657490747187e-06, 0.0, 0.0, 0.0, 0.0], [0.0008877857994421196, 0.0, 0.0, 0.0, 0.0], [4.5451533612893e-06, 0.0, 0.0, 0.0, 0.0], [3.600666101500631e-07, 0.0, 0.0, 0.0, 0.0], [-1.0726877914005588e-07, 0.0, 0.0, 0.0, 0.0], [0.0004025612526156895, 0.0, 0.0, 0.0, 0.0], [-5.685714580845468e-06, 0.0, 0.0, 0.0, 0.0], [4.567013457105369e-06, 0.0, 0.0, 0.0, 0.0], [-3.983366941015995e-06, 0.0, 0.0, 0.0, 0.0]], [[0.0006051924550021416, -1.259477220188261e-06, 0.00031048248861706754, 0.00016785454463135818, -1.7227211319521194e-06, 0.00043502124918864125, -8.279160484903742e-07, -7.621989595390351e-07, 0.0008764590693445796, -1.0218997874401051e-05, -2.8906938337100344e-06, -2.928727765975551e-07, 0.0003185285707427435, -2.240374909081682e-06, -1.5917549131213849e-06, -9.540690115902763e-07]]], "vb": [[0.0008559102492585716, -5.985892768338504e-06, 0.0005287192168116884, 9.585398790387973e-05, -9.652687900928367e-06, 0.0005382308400231945, -4.687371225723478e-06, -2.198300800995479e-06, 0.00114946421519711, 5.9911967205764e-06, 4.7516281795101283e-07, -1.4125763352546258e-07, 0.0005219298929244683, -7.489535931028823e-06, 6.017757030503575e-06, -5.2481024598617615e-06], [0.001375915749511878]]}}