{"version": 1, "model": {"layer_sizes": [5, 16, 1], "lr": 0.03, "momentum": 0.9, "grad_clip": 3.0, "total_samples": 939, "W": [[[1.0819560077597106, 0.9167098936040888, 0.041954449334932704, -0.48353986153823236, -0.6907509918316201], [-0.021925086812846484, -0.6464348041825333, -0.9087307311439718, 0.12605596212771603, 0.08435350654913912], [0.5609036949425651, -0.5780459794834379, 0.003165619319023322, -0.04094628450130507, -0.9523698821441012], [0.29088515955433436, 0.20283551001133254, 1.5110071283958506, 0.12836897902201092, -0.09151777529694573], [0.5147677205396805, 0.12572662463981144, 0.5749217012808462, -0.23119049338194606, 0.137983970293719], [0.7727185157665276, 0.4403452810123505, 0.08125298436065588, -0.6845116975202081, 0.2815829729115831], [0.010991888172052102, 0.45566371728464317, 0.13675771771954995, 0.6882288831510016, -0.032609575100486295], [0.071370444582962, 0.4217064472385048, -0.6874061856520259, -0.25403225348189823, -0.3162458346088078], [1.5610652509730147, -0.05873110184204383, 0.41250028865134114, 0.3917271844754705, -0.17763995472297467], [-0.9770836795896256, 0.6102209068034645, -0.25753384959998116, 0.45407565931871485, -0.8255219594097656], [-0.2767009175308005, 0.7948836121736637, 0.9050463886060675, -0.8237471601839077, -0.84294146328566], [-0.028082123641934978, 0.46058025358844906, 0.10151207239074857, 0.19198485424004202, -0.6253950672515969], [0.5741070087047636, 0.7063594416167539, -0.2755434956086589, -0.9066174559682012, -0.4799204277611376], [0.28627606406144684, -1.0964863798482016, -0.05810798271313834, -0.6267686722314738, -0.08293670326895732], [-0.15090705788002537, 0.010028710300835318, 0.9494469225219566, 0.2660806474441458, 0.8435140039500585], [-0.09269353201178367, -0.3033172032094295, 0.23958084834702262, -1.7935115707259193, -0.02522790151826406]], [[0.7404731889783919, -0.4351422299164509, 0.44378074937422174, 0.10445425083287124, -0.7011609520169761, 0.4773526301272001, -0.3407107037798489, -0.15974749237001873, 1.0081384705605596, 0.43390269434796536, 0.034101255380362176, -0.010310325535713401, 0.44067057543029703, -0.5441923854111299, 0.43712552372296815, -0.38156926522070583]]], "b": [[-0.2713303068772457, -0.07570376451833685, -0.13168894711881876, -0.08712040529061064, -0.5172021847482801, -0.20149183848752675, -0.06914648867080767, -0.10986040282691635, -0.4005015154382027, -0.000314725106785702, -1.9051625617186848e-05, 8.936835855021467e-06, -0.13681935724250394, -0.3811136551306986, -0.0003407563917202813, 0.00030382817877106904], [-0.07895392501314936]], "vW": [[[0.0007843735849407025, 0.0, 0.0, 0.0, 0.0], [-4.767906110099135e-06, 0.0, 0.0, 0.0, 0.0], [0.00047146442854375766, 0.0, 0.0, 0.0, 0.0], [0.00010847795854733777, 0.0, 0.0, 0.0, 0.0], [-7.681740828890332e-06, 0.0, 0.0, 0.0, 0.0], [0.0005044732420765941, 0.0, 0.0, 0.0, 0.0], [-3.7332532062896948e-06, 0.0, 0.0, 0.0, 0.0], [-1.7500060762864759e-06, 0.0, 0.0, 0.0, 0.0], [0.0010665272703978695, 0.0, 0.0, 0.0, 0.0], [4.759783669424491e-06, 0.0, 0.0, 0.0, 0.0], [3.7503525325133875e-07, 0.0, 0.0, 0.0, 0.0], [-1.128562432483634e-07, 0.0, 0.0, 0.0, 0.0], [0.0004678914286398885, 0.0, 0.0, 0.0, 0.0], [-5.961676866304669e-06, 0.0, 0.0, 0.0, 0.0], [4.79115733257009e-06, 0.0, 0.0, 0.0, 0.0], [-4.181155835551126e-06, 0.0, 0.0, 0.0, 0.0]], [[0.0005917966399620408, -1.4055447286591864e-06, 0.00030668721605885433, 0.00015927872726955106, -2.372750555491844e-06, 0.0004227476463463934, -9.452013717386784e-07, -9.198926080575611e-07, 0.000853965085960482, -1.0722820494785748e-05, -3.0334414375793565e-06, -3.0737092388094914e-07, 0.00031393129336017446, -2.767439866140446e-06, -1.6692776225823601e-06, -1.0021976657956716e-06]]], "vb": [[0.0010997626663850047, -6.754706387636581e-06, 0.0006613268643515077, 0.00015163608404694868, -1.0881770859968373e-05, 0.0007070669017836533, -5.288919790351267e-06, -2.4789556639291554e-06, 0.00149507495338777, 6.745950842613788e-06, 5.319939831025508e-07, -1.598300272059693e-07, 0.0006562581705929738, -8.44502187065574e-06, 6.788483146002598e-06, -5.923664799556649e-06], [0.001552667639090173]]}}