{"version": 1, "model": {"layer_sizes": [5, 16, 1], "lr": 0.03, "momentum": 0.9, "grad_clip": 3.0, "total_samples": 783, "W": [[[1.0318078464889366, 0.9167098936040888, 0.041954449334932704, -0.48353986153823236, -0.6907509918316201], [-0.0215895785684723, -0.6464348041825333, -0.9087307311439718, 0.12605596212771603, 0.08435350654913912], [0.5302942734518991, -0.5780459794834379, 0.003165619319023322, -0.04094628450130507, -0.9523698821441012], [0.28468703517064764, 0.20283551001133254, 1.5110071283958506, 0.12836897902201092, -0.09151777529694573], [0.5153084451315557, 0.12572662463981144, 0.5749217012808462, -0.23119049338194606, 0.137983970293719], [0.7408666729767169, 0.4403452810123505, 0.08125298436065588, -0.6845116975202081, 0.2815829729115831], [0.011254604403435575, 0.45566371728464317, 0.13675771771954995, 0.6882288831510016, -0.032609575100486295], [0.071493601130511, 0.4217064472385048, -0.6874061856520259, -0.25403225348189823, -0.3162458346088078], [1.4933471800502092, -0.05873110184204383, 0.41250028865134114, 0.3917271844754705, -0.17763995472297467], [-0.9774193569067456, 0.6102209068034645, -0.25753384959998116, 0.45407565931871485, -0.8255219594097656], [-0.2767275063834814, 0.7948836121736637, 0.9050463886060675, -0.8237471601839077, -0.84294146328566], [-0.028074200532940366, 0.46058025358844906, 0.10151207239074857, 0.19198485424004202, -0.6253950672515969], [0.5438206684199548, 0.7063594416167539, -0.2755434956086589, -0.9066174559682012, -0.4799204277611376], [0.28669564322468305, -1.0964863798482016, -0.05810798271313834, -0.6267686722314738, -0.08293670326895732], [-0.15124436412526554, 0.010028710300835318, 0.9494469225219566, 0.2660806474441458, 0.8435140039500585], [-0.09239932828195077, -0.3033172032094295, 0.23958084834702262, -1.7935115707259193, -0.02522790151826406]], [[0.6723915305313147, -0.43516131473591374, 0.41130052523038474, 0.08170507439980106, -0.7017949990559599, 0.42631095033963085, -0.34075183680838, -0.15985292653391475, 0.9070795016434309, 0.4346578646024233, 0.03431479627528902, -0.01028870251917047, 0.40678890947371815, -0.54458794366297, 0.4372434754102041, -0.3814991298723359]]], "b": [[-0.2315300416202734, -0.07590110556635644, -0.10800878080255974, -0.08123284418575054, -0.5175206403851534, -0.17568561464358015, -0.06930099847572556, -0.1099329901241183, -0.346140424784492, -0.00011937519460393514, -3.9409252654205615e-06, 4.23280397288859e-06, -0.11327129660536762, -0.381360896968062, -0.00014294564824563348, 0.00013088616829311304], [-0.033659363218600816]], "vW": [[[0.0006802531285176168, 0.0, 0.0, 0.0, 0.0], [-4.587883380068398e-06, 0.0, 0.0, 0.0, 0.0], [0.00041791874596940325, 0.0, 0.0, 0.0, 0.0], [7.980260834996547e-05, 0.0, 0.0, 0.0, 0.0], [-7.398052928595821e-06, 0.0, 0.0, 0.0, 0.0], [0.00042974049388213914, 0.0, 0.0, 0.0, 0.0], [-3.5925751360924542e-06, 0.0, 0.0, 0.0, 0.0], [-1.6849593466754167e-06, 0.0, 0.0, 0.0, 0.0], [0.0009158660478442164, 0.0, 0.0, 0.0, 0.0], [4.588070901482029e-06, 0.0, 0.0, 0.0, 0.0], [3.631731708217331e-07, 0.0, 0.0, 0.0, 0.0], [-1.0835694349346558e-07, 0.0, 0.0, 0.0, 0.0], [0.00041298754248841305, 0.0, 0.0, 0.0, 0.0], [-5.7404754814225405e-06, 0.0, 0.0, 0.0, 0.0], [4.611360453434118e-06, 0.0, 0.0, 0.0, 0.0], [-4.022376754295455e-06, 0.0, 0.0, 0.0, 0.0]], [[0.0006047580545258095, -1.2857901051935793e-06, 0.0003108020153186878, 0.00016687736638871752, -1.834010651853519e-06, 0.0004342428763374885, -8.487699278062721e-07, -7.89711706483445e-07, 0.0008752846537568418, -1.0318528920540572e-05, -2.9188873415886945e-06, -2.957352347547989e-07, 0.0003187323520954765, -2.3318727011161846e-06, -1.6070968961191847e-06, -9.6354580456604e-07]]], "vb": [[0.0008939272835845483, -6.123424437416693e-06, 0.0005497033351673758, 0.00010406033132021682, -9.873021134369427e-06, 0.0005642859823983626, -4.795001754383533e-06, -2.2485814546578827e-06, 0.0012030335428591895, 6.126812832101257e-06, 4.855010129463405e-07, -1.4456227318996086e-07, 0.0005431193375959671, -7.660744958464417e-06, 6.155715108335052e-06, -5.368886213050733e-06], [0.0014075321007355557]]}}