{"version": 1, "model": {"layer_sizes": [5, 16, 1], "lr": 0.03, "momentum": 0.9, "grad_clip": 3.0, "total_samples": 744, "W": [[[1.0195356410032523, 0.9167098936040888, 0.041954449334932704, -0.48353986153823236, -0.6907509918316201], [-0.02150169920757216, -0.6464348041825333, -0.9087307311439718, 0.12605596212771603, 0.08435350654913912], [0.5226861787515705, -0.5780459794834379, 0.003165619319023322, -0.04094628450130507, -0.9523698821441012], [0.28335565127275947, 0.20283551001133254, 1.5110071283958506, 0.12836897902201092, -0.09151777529694573], [0.51545015712545, 0.12572662463981144, 0.5749217012808462, -0.23119049338194606, 0.137983970293719], [0.7331728057655332, 0.4403452810123505, 0.08125298436065588, -0.6845116975202081, 0.2815829729115831], [0.011323420742536571, 0.45566371728464317, 0.13675771771954995, 0.6882288831510016, -0.032609575100486295], [0.07152587296176051, 0.4217064472385048, -0.6874061856520259, -0.25403225348189823, -0.3162458346088078], [1.4768933047876402, -0.05873110184204383, 0.41250028865134114, 0.3917271844754705, -0.17763995472297467], [-0.9775073655528538, 0.6102209068034645, -0.25753384959998116, 0.45407565931871485, -0.8255219594097656], [-0.276734495637803, 0.7948836121736637, 0.9050463886060675, -0.8237471601839077, -0.84294146328566], [-0.028072127886033034, 0.46058025358844906, 0.10151207239074857, 0.19198485424004202, -0.6253950672515969], [0.5363154386511777, 0.7063594416167539, -0.2755434956086589, -0.9066174559682012, -0.4799204277611376], [0.2868055938215847, -1.0964863798482016, -0.05810798271313834, -0.6267686722314738, -0.08293670326895732], [-0.15133272427033112, 0.010028710300835318, 0.9494469225219566, 0.2660806474441458, 0.8435140039500585], [-0.09232227959830551, -0.3033172032094295, 0.23958084834702262, -1.7935115707259193, -0.02522790151826406]], [[0.6546245864975541, -0.43516695021909063, 0.40291092018103025, 0.07563154204293493, -0.7019652013449609, 0.41291642229933184, -0.3407631865345876, -0.1598814207883427, 0.8806195581526941, 0.4348556958453955, 0.034370729487365304, -0.010283039983977404, 0.3980160179061619, -0.5446945963560108, 0.43727440802097844, -0.3814807941790959]]], "b": [[-0.22111008597278967, -0.07595621327626113, -0.10173677664792535, -0.07980578352395547, -0.5176096073458696, -0.16899159654362683, -0.06934414792330705, -0.10995326453530538, -0.33198113419783865, -6.471857714425747e-05, 3.073096168882129e-07, 2.9219155699330157e-06, -0.1070485557495673, -0.3814299583389737, -8.76857255590933e-05, 8.259634035665713e-05], [-0.021009536058340484]], "vW": [[[0.0006560867172932754, 0.0, 0.0, 0.0, 0.0], [-4.555431764557971e-06, 0.0, 0.0, 0.0, 0.0], [0.0004057658155992535, 0.0, 0.0, 0.0, 0.0], [7.271260709821277e-05, 0.0, 0.0, 0.0, 0.0], [-7.347414962540567e-06, 0.0, 0.0, 0.0, 0.0], [0.0004121586111640465, 0.0, 0.0, 0.0, 0.0], [-3.5672371920677365e-06, 0.0, 0.0, 0.0, 0.0], [-1.6733166483844693e-06, 0.0, 0.0, 0.0, 0.0], [0.0008806209726383465, 0.0, 0.0, 0.0, 0.0], [4.5576906008828694e-06, 0.0, 0.0, 0.0, 0.0], [3.612010843151469e-07, 0.0, 0.0, 0.0, 0.0], [-1.0752841370015203e-07, 0.0, 0.0, 0.0, 0.0], [0.00040046360555150997, 0.0, 0.0, 0.0, 0.0], [-5.700912247598757e-06, 0.0, 0.0, 0.0, 0.0], [4.579022012077435e-06, 0.0, 0.0, 0.0, 0.0], [-3.993681839135678e-06, 0.0, 0.0, 0.0, 0.0]], [[0.00061000413843289, -1.2594496390328585e-06, 0.00031284448210952635, 0.0001693573932991552, -1.704818126243168e-06, 0.0004385715248555478, -8.270559900533844e-07, -7.594277717517696e-07, 0.0008835346251361336, -1.024565713190934e-05, -2.8982295005960337e-06, -2.9363539525175264e-07, 0.0003209761389843306, -2.2297102513971416e-06, -1.5959306409080803e-06, -9.565315193527712e-07]]], "vb": [[0.0008469575856550945, -5.982737474099862e-06, 0.0005244009875587201, 9.293691410646043e-05, -9.648345443912898e-06, 0.0005315594051302599, -4.684932605589881e-06, -2.197264112583945e-06, 0.00113622243989941, 5.988935030579494e-06, 4.7517094133237113e-07, -1.4115619400675264e-07, 0.0005174369283115225, -7.4860484884550885e-06, 6.014703624585931e-06, -5.245228460963534e-06], [0.001375184670891671]]}}