{"version": 1, "model": {"layer_sizes": [5, 16, 1], "lr": 0.03, "momentum": 0.9, "grad_clip": 3.0, "total_samples": 913, "W": [[[1.0735224665368357, 0.9167098936040888, 0.041954449334932704, -0.48353986153823236, -0.6907509918316201], [-0.021871012890875535, -0.6464348041825333, -0.9087307311439718, 0.12605596212771603, 0.08435350654913912], [0.5558030492273889, -0.5780459794834379, 0.003165619319023322, -0.04094628450130507, -0.9523698821441012], [0.2897685428659308, 0.20283551001133254, 1.5110071283958506, 0.12836897902201092, -0.09151777529694573], [0.5148548365244332, 0.12572662463981144, 0.5749217012808462, -0.23119049338194606, 0.137983970293719], [0.7673215063712467, 0.4403452810123505, 0.08125298436065588, -0.6845116975202081, 0.2815829729115831], [0.011034228846687418, 0.45566371728464317, 0.13675771771954995, 0.6882288831510016, -0.032609575100486295], [0.07139028823470633, 0.4217064472385048, -0.6874061856520259, -0.25403225348189823, -0.3162458346088078], [1.5496296645959275, -0.05873110184204383, 0.41250028865134114, 0.3917271844754705, -0.17763995472297467], [-0.9771377464789942, 0.6102209068034645, -0.25753384959998116, 0.45407565931871485, -0.8255219594097656], [-0.27670519282621897, 0.7948836121736637, 0.9050463886060675, -0.8237471601839077, -0.84294146328566], [-0.028080845604078645, 0.46058025358844906, 0.10151207239074857, 0.19198485424004202, -0.6253950672515969], [0.5690511635969334, 0.7063594416167539, -0.2755434956086589, -0.9066174559682012, -0.4799204277611376], [0.2863436671351335, -1.0964863798482016, -0.05810798271313834, -0.6267686722314738, -0.08293670326895732], [-0.15096141765138, 0.010028710300835318, 0.9494469225219566, 0.2660806474441458, 0.8435140039500585], [-0.09264611033995009, -0.3033172032094295, 0.23958084834702262, -1.7935115707259193, -0.02522790151826406]], [[0.729478201836251, -0.43514510387495287, 0.4385038443553463, 0.10082999218213835, -0.701261843887192, 0.4691365722740715, -0.34071715084671805, -0.15976420906737349, 0.9918493585719748, 0.434024394407412, 0.03413567166715085, -0.010306840108220966, 0.43517371712658753, -0.5442551801273594, 0.4371445200841255, -0.38155794852719477]]], "b": [[-0.26487077884972604, -0.07573449820697441, -0.12787252666363608, -0.08612247231025792, -0.5172517664072629, -0.19728046005078417, -0.06917055095557492, -0.1098717058667859, -0.39165180352666573, -0.00028434120304655984, -1.6709099586601937e-05, 8.203207225753861e-06, -0.13301893594928302, -0.38115215322491386, -0.0003099575191224982, 0.00027689270311063774], [-0.07190027936611625]], "vW": [[[0.0007676279215660524, 0.0, 0.0, 0.0, 0.0], [-4.741438741677237e-06, 0.0, 0.0, 0.0, 0.0], [0.000462871931114544, 0.0, 0.0, 0.0, 0.0], [0.00010383572166094468, 0.0, 0.0, 0.0, 0.0], [-7.640146406471932e-06, 0.0, 0.0, 0.0, 0.0], [0.0004924374613627331, 0.0, 0.0, 0.0, 0.0], [-3.7125755260351965e-06, 0.0, 0.0, 0.0, 0.0], [-1.7404608944775027e-06, 0.0, 0.0, 0.0, 0.0], [0.0010422771259796623, 0.0, 0.0, 0.0, 0.0], [4.734691929353088e-06, 0.0, 0.0, 0.0, 0.0], [3.7333516740978805e-07, 0.0, 0.0, 0.0, 0.0], [-1.1219023858530696e-07, 0.0, 0.0, 0.0, 0.0], [0.0004590765908843582, 0.0, 0.0, 0.0, 0.0], [-5.929224444913511e-06, 0.0, 0.0, 0.0, 0.0], [4.764745564332216e-06, 0.0, 0.0, 0.0, 0.0], [-4.157795594924285e-06, 0.0, 0.0, 0.0, 0.0]], [[0.0005943474379238236, -1.387442130636008e-06, 0.000307626319807739, 0.0001605698848589239, -2.2901915574361325e-06, 0.0004248987697783309, -9.305717170514151e-07, -9.000407773931269e-07, 0.0008580307540594403, -1.0663382125555305e-05, -3.016598968640138e-06, -3.0566003323795857e-07, 0.0003149792339208769, -2.70093090838222e-06, -1.6601396095455864e-06, -9.965108886862674e-07]]], "vb": [[0.001066269786948884, -6.659085014406176e-06, 0.0006432689494966198, 0.000143728687099413, -1.0729161484883464e-05, 0.0006837437134268225, -5.214113575247934e-06, -2.444090479368548e-06, 0.0014474492269516094, 6.6524178222551e-06, 5.250227395008628e-07, -1.5751007541001481e-07, 0.0006379323788672881, -8.326340197142637e-06, 6.6926724267464825e-06, -5.839604844473453e-06], [0.0015306829089680144]]}}