{"version": 1, "model": {"layer_sizes": [5, 16, 1], "lr": 0.03, "momentum": 0.9, "grad_clip": 3.0, "total_samples": 55, "W": [[[0.83849680291212, 0.9167098936040888, 0.041954449334932704, -0.48353986153823236, -0.6907509918316201], [-0.01929874412252416, -0.6464348041825333, -0.9087307311439718, 0.12605596212771603, 0.08435350654913912], [0.39450574913591935, -0.5780459794834379, 0.003165619319023322, -0.04094628450130507, -0.9523698821441012], [0.2889020855291236, 0.20283551001133254, 1.5110071283958506, 0.12836897902201092, -0.09151777529694573], [0.5205962217449437, 0.12572662463981144, 0.5749217012808462, -0.23119049338194606, 0.137983970293719], [0.6333773158952544, 0.4403452810123505, 0.08125298436065588, -0.6845116975202081, 0.2815829729115831], [0.013062951419947443, 0.45566371728464317, 0.13675771771954995, 0.6882288831510016, -0.032609575100486295], [0.07265158835455574, 0.4217064472385048, -0.6874061856520259, -0.25403225348189823, -0.3162458346088078], [1.250198709624327, -0.05873110184204383, 0.41250028865134114, 0.3917271844754705, -0.17763995472297467], [-0.9796030260919136, 0.6102209068034645, -0.25753384959998116, 0.45407565931871485, -0.8255219594097656], [-0.2769033605710358, 0.7948836121736637, 0.9050463886060675, -0.8237471601839077, -0.84294146328566], [-0.028023399392801473, 0.46058025358844906, 0.10151207239074857, 0.19198485424004202, -0.6253950672515969], [0.4128855989331165, 0.7063594416167539, -0.2755434956086589, -0.9066174559682012, -0.4799204277611376], [0.2906617375150295, -1.0964863798482016, -0.05810798271313834, -0.6267686722314738, -0.08293670326895732], [-0.15342659508383333, 0.010028710300835318, 0.9494469225219566, 0.2660806474441458, 0.8435140039500585], [-0.0904992016084599, -0.3033172032094295, 0.23958084834702262, -1.7935115707259193, -0.02522790151826406]], [[0.2849998024127203, -0.43553198137740395, 0.26802333066150985, -0.11334988275665184, -0.7083006343309632, 0.10018080047434473, -0.341253731484908, -0.16097562739437898, 0.29028150914564316, 0.4395537967407738, 0.035696160890551665, -0.010149302908406372, 0.2471153341267261, -0.5487531591892301, 0.4380209690361921, -0.381059032634065]]], "b": [[0.04755445899502433, -0.0782328652726916, 0.09777769901192947, -0.10271441266711445, -0.5181357465126115, -0.02887945042664727, -0.07109956560952607, -0.11016339742931194, -0.004905318042018412, 0.0024646090165828353, 0.00020282392299875304, -5.622191832677773e-05, 0.08353186676010911, -0.38210616358861643, 0.002444870313232153, -0.0021238962946853986], [0.5576878337346199]], "vW": [[[-0.00047888309497538546, 0.0, 0.0, 0.0, 0.0], [-7.758500740120149e-06, 0.0, 0.0, 0.0, 0.0], [-0.0004148535673163276, 0.0, 0.0, 0.0, 0.0], [0.0001343827470650824, 0.0, 0.0, 0.0, 0.0], [-0.0001885511752472186, 0.0, 0.0, 0.0, 0.0], [-0.00019884472374959256, 0.0, 0.0, 0.0, 0.0], [-7.634278693504562e-06, 0.0, 0.0, 0.0, 0.0], [-3.787210374798612e-05, 0.0, 0.0, 0.0, 0.0], [-0.0005234528271801334, 0.0, 0.0, 0.0, 0.0], [-5.853866253468548e-06, 0.0, 0.0, 0.0, 0.0], [-4.732541107457538e-07, 0.0, 0.0, 0.0, 0.0], [1.3571457028995354e-07, 0.0, 0.0, 0.0, 0.0], [-0.0003869205232418202, 0.0, 0.0, 0.0, 0.0], [-0.00013128257783774823, 0.0, 0.0, 0.0, 0.0], [-5.842367230829199e-06, 0.0, 0.0, 0.0, 0.0], [5.08503006351637e-06, 0.0, 0.0, 0.0, 0.0]], [[-0.0013673316866050892, 3.0150120809654203e-06, -0.000918377609880892, -3.665808953458614e-05, 0.00010101234088356924, -0.0007964627954569806, 3.691343132766911e-06, 1.4114931405028161e-05, -0.0017621536112956654, 1.2980063555072246e-05, 3.6870360179587855e-06, 3.759319215572859e-07, -0.0008925807725656878, 5.71418051298032e-05, 1.958014208226936e-06, 1.284737819160521e-06]]], "vb": [[-0.0009577661899507709, -1.5517001480240298e-05, -0.0008297071346326552, 0.0002687654941301648, -0.0003771023504944372, -0.0003976894474991851, -1.5268557387009124e-05, -7.574420749597224e-05, -0.0010469056543602668, -1.1707732506937097e-05, -9.465082214915076e-07, 2.7142914057990707e-07, -0.0007738410464836404, -0.00026256515567549645, -1.1684734461658398e-05, 1.017006012703274e-05], [-0.0026683629619268473]]}}