{"version": 1, "model": {"layer_sizes": [5, 16, 1], "lr": 0.03, "momentum": 0.9, "grad_clip": 3.0, "total_samples": 796, "W": [[[1.0359370005665662, 0.9167098936040888, 0.041954449334932704, -0.48353986153823236, -0.6907509918316201], [-0.021618576371010653, -0.6464348041825333, -0.9087307311439718, 0.12605596212771603, 0.08435350654913912], [0.5328424199241445, -0.5780459794834379, 0.003165619319023322, -0.04094628450130507, -0.9523698821441012], [0.2851534820714079, 0.20283551001133254, 1.5110071283958506, 0.12836897902201092, -0.09151777529694573], [0.5152616914027598, 0.12572662463981144, 0.5749217012808462, -0.23119049338194606, 0.137983970293719], [0.7434654386491117, 0.4403452810123505, 0.08125298436065588, -0.6845116975202081, 0.2815829729115831], [0.011231897187028817, 0.45566371728464317, 0.13675771771954995, 0.6882288831510016, -0.032609575100486295], [0.071482953540015, 0.4217064472385048, -0.6874061856520259, -0.25403225348189823, -0.3162458346088078], [1.4988950806532981, -0.05873110184204383, 0.41250028865134114, 0.3917271844754705, -0.17763995472297467], [-0.9773903243948234, 0.6102209068034645, -0.25753384959998116, 0.45407565931871485, -0.8255219594097656], [-0.27672520243973436, 0.7948836121736637, 0.9050463886060675, -0.8237471601839077, -0.84294146328566], [-0.028074884696275313, 0.46058025358844906, 0.10151207239074857, 0.19198485424004202, -0.6253950672515969], [0.5463365773010539, 0.7063594416167539, -0.2755434956086589, -0.9066174559682012, -0.4799204277611376], [0.286659367142067, -1.0964863798482016, -0.05810798271313834, -0.6267686722314738, -0.08293670326895732], [-0.15121520861880633, 0.010028710300835318, 0.9494469225219566, 0.2660806474441458, 0.8435140039500585], [-0.09242475333637727, -0.3033172032094295, 0.23958084834702262, -1.7935115707259193, -0.02522790151826406]], [[0.6782577456563369, -0.43515954490857495, 0.4140797277745263, 0.08369594306681155, -0.7017394266771132, 0.4307256293137767, -0.34074817307161526, -0.1598436496128079, 0.9158067277686212, 0.4345925889015357, 0.03429633994069624, -0.010290571116890147, 0.4096928071737728, -0.5445531860937458, 0.43723327236641685, -0.38150518370417]]], "b": [[-0.23494155647275872, -0.07588341207788704, -0.11005503404966736, -0.08171146084160147, -0.5174920789488044, -0.1778834493080696, -0.06928714466052913, -0.1099264809406442, -0.3507834581183129, -0.000136913755556564, -5.302176086907152e-06, 4.6539504346368496e-06, -0.11530288355253206, -0.3813387249127415, -0.0001606859297528854, 0.00014639099737970103], [-0.03772071955485744]], "vW": [[[0.0006896807897651484, 0.0, 0.0, 0.0, 0.0], [-4.6077184810079456e-06, 0.0, 0.0, 0.0, 0.0], [0.0004228206544187048, 0.0, 0.0, 0.0, 0.0], [8.231441540022305e-05, 0.0, 0.0, 0.0, 0.0], [-7.429480941282653e-06, 0.0, 0.0, 0.0, 0.0], [0.0004364611814268757, 0.0, 0.0, 0.0, 0.0], [-3.608082738328983e-06, 0.0, 0.0, 0.0, 0.0], [-1.69215387817106e-06, 0.0, 0.0, 0.0, 0.0], [0.0009294539118033245, 0.0, 0.0, 0.0, 0.0], [4.607207967713115e-06, 0.0, 0.0, 0.0, 0.0], [3.6454256325956603e-07, 0.0, 0.0, 0.0, 0.0], [-1.088462222840446e-07, 0.0, 0.0, 0.0, 0.0], [0.0004180015677723592, 0.0, 0.0, 0.0, 0.0], [-5.764952337748461e-06, 0.0, 0.0, 0.0, 0.0], [4.631200926076294e-06, 0.0, 0.0, 0.0, 0.0], [-4.03984674504474e-06, 0.0, 0.0, 0.0, 0.0]], [[0.0006043111856399055, -1.2978977918078314e-06, 0.00031083028672672136, 0.00016634666037527486, -1.8860273141076562e-06, 0.00043370034402645486, -8.584042179185488e-07, -8.024948865597243e-07, 0.000874378570737036, -1.036307638765664e-05, -2.931507582746982e-06, -2.9701679874944223e-07, 0.0003187024679276785, -2.3744518699724274e-06, -1.613957009666468e-06, -9.677948512140684e-07]]], "vb": [[0.000912302306427434, -6.186825665997796e-06, 0.0005597897673384363, 0.00010811514454123086, -9.97452408535117e-06, 0.0005769274762120651, -4.844615640508522e-06, -2.271749453879766e-06, 0.0012289818180939685, 6.189238907422055e-06, 4.902405431705126e-07, -1.4608839757652981e-07, 0.0005533163573717879, -7.739629138068819e-06, 6.219299653351963e-06, -5.4245766009709805e-06], [0.001422107337611262]]}}