{"version": 1, "model": {"layer_sizes": [5, 16, 1], "lr": 0.03, "momentum": 0.9, "grad_clip": 3.0, "total_samples": 127, "W": [[[0.8502797933143975, 0.9167098936040888, 0.041954449334932704, -0.48353986153823236, -0.6907509918316201], [-0.01978542268527306, -0.6464348041825333, -0.9087307311439718, 0.12605596212771603, 0.08435350654913912], [0.4060029763824984, -0.5780459794834379, 0.003165619319023322, -0.04094628450130507, -0.9523698821441012], [0.28355852477277804, 0.20283551001133254, 1.5110071283958506, 0.12836897902201092, -0.09151777529694573], [0.518225638327653, 0.12572662463981144, 0.5749217012808462, -0.23119049338194606, 0.137983970293719], [0.6371615782735781, 0.4403452810123505, 0.08125298436065588, -0.6845116975202081, 0.2815829729115831], [0.012667693956924166, 0.45566371728464317, 0.13675771771954995, 0.6882288831510016, -0.032609575100486295], [0.07215749194107225, 0.4217064472385048, -0.6874061856520259, -0.25403225348189823, -0.3162458346088078], [1.2617817199436132, -0.05873110184204383, 0.41250028865134114, 0.3917271844754705, -0.17763995472297467], [-0.9792333771091326, 0.6102209068034645, -0.25753384959998116, 0.45407565931871485, -0.8255219594097656], [-0.276873122974481, 0.7948836121736637, 0.9050463886060675, -0.8237471601839077, -0.84294146328566], [-0.028031878547132752, 0.46058025358844906, 0.10151207239074857, 0.19198485424004202, -0.6253950672515969], [0.4234340421151377, 0.7063594416167539, -0.2755434956086589, -0.9066174559682012, -0.4799204277611376], [0.28895792351164057, -1.0964863798482016, -0.05810798271313834, -0.6267686722314738, -0.08293670326895732], [-0.15305914569515694, 0.010028710300835318, 0.9494469225219566, 0.2660806474441458, 0.8435140039500585], [-0.0908186185918136, -0.3033172032094295, 0.23958084834702262, -1.7935115707259193, -0.02522790151826406]], [[0.3255491987494896, -0.43534244043776954, 0.25961180341640167, -0.05595909649737561, -0.7057088612920598, 0.1544348930036277, -0.34104390612536184, -0.16052717471095188, 0.3783780938211221, 0.4387233156343238, 0.035463225597331824, -0.010172594402256565, 0.24516622641308125, -0.547087059120442, 0.4378833273966374, -0.3811271083373083]]], "b": [[-0.029360659062987134, -0.0773785079761356, 0.024352102585273813, -0.07039891593681179, -0.5199098144977897, -0.054977532316973034, -0.07045808819333513, -0.11047701205051995, -0.08214793060891866, 0.001356785859112697, 0.00011294194366134994, -3.0620626531255176e-05, 0.01597028944159252, -0.38321445265459925, 0.0013405588128768307, -0.0011630980127282603], [0.30556161027870393]], "vW": [[[0.0005164478492520818, 0.0, 0.0, 0.0, 0.0], [-8.372297558577444e-06, 0.0, 0.0, 0.0, 0.0], [0.00044240212754013573, 0.0, 0.0, 0.0, 0.0], [-0.00013703679058986427, 0.0, 0.0, 0.0, 0.0], [-1.3661304667316507e-05, 0.0, 0.0, 0.0, 0.0], [0.00021873397625539812, 0.0, 0.0, 0.0, 0.0], [-6.559794557622752e-06, 0.0, 0.0, 0.0, 0.0], [-3.1044728338653857e-06, 0.0, 0.0, 0.0, 0.0], [0.0005695341420531633, 0.0, 0.0, 0.0, 0.0], [8.446323370955943e-06, 0.0, 0.0, 0.0, 0.0], [6.855934072034001e-07, 0.0, 0.0, 0.0, 0.0], [-1.9511102967194783e-07, 0.0, 0.0, 0.0, 0.0], [0.00041329040034153924, 0.0, 0.0, 0.0, 0.0], [-1.0581860545849976e-05, 0.0, 0.0, 0.0, 0.0], [8.418255079546201e-06, 0.0, 0.0, 0.0, 0.0], [-7.323890024966346e-06, 0.0, 0.0, 0.0, 0.0]], [[0.0014332664607684452, -2.295185136246256e-06, 0.0007322933043363875, 0.000402291937125515, -2.9635736987987732e-06, 0.0010328456446262262, -1.5020498092004244e-06, -1.3628511568759028e-06, 0.0020787353613757557, -1.8807143589811846e-05, -5.320290223016866e-06, -5.390646936424861e-07, 0.0007519603611621554, -3.980286735750543e-06, -2.9285264592493385e-06, -1.7569685380921344e-06]]], "vb": [[0.0006620269406013622, -1.0899567922784648e-05, 0.000567735398462263, -0.00017665513930053916, -1.7845605257239072e-05, 0.00027985340606015473, -8.540463741965218e-06, -4.053583318989862e-06, 0.0007294475296549636, 1.0992685923032788e-05, 8.925094616969503e-07, -2.538742491093001e-07, 0.0005302904602549066, -1.3817754708732883e-05, 1.0955212695962015e-05, -9.530788924373616e-06], [0.0025011663614227003]]}}