{"version": 1, "model": {"layer_sizes": [5, 16, 1], "lr": 0.03, "momentum": 0.9, "grad_clip": 3.0, "total_samples": 205, "W": [[[0.8643620981288371, 0.9167098936040888, 0.041954449334932704, -0.48353986153823236, -0.6907509918316201], [-0.020011434322918208, -0.6464348041825333, -0.9087307311439718, 0.12605596212771603, 0.08435350654913912], [0.41780921125072956, -0.5780459794834379, 0.003165619319023322, -0.04094628450130507, -0.9523698821441012], [0.28022781576864475, 0.20283551001133254, 1.5110071283958506, 0.12836897902201092, -0.09151777529694573], [0.5178585960577924, 0.12572662463981144, 0.5749217012808462, -0.23119049338194606, 0.137983970293719], [0.6433468119390235, 0.4403452810123505, 0.08125298436065588, -0.6845116975202081, 0.2815829729115831], [0.012490629259186868, 0.45566371728464317, 0.13675771771954995, 0.6882288831510016, -0.032609575100486295], [0.07207403389223158, 0.4217064472385048, -0.6874061856520259, -0.25403225348189823, -0.3162458346088078], [1.2775699623847712, -0.05873110184204383, 0.41250028865134114, 0.3917271844754705, -0.17763995472297467], [-0.9790052469665514, 0.6102209068034645, -0.25753384959998116, 0.45407565931871485, -0.8255219594097656], [-0.27685461120996063, 0.7948836121736637, 0.9050463886060675, -0.8237471601839077, -0.84294146328566], [-0.028037149842904344, 0.46058025358844906, 0.10151207239074857, 0.19198485424004202, -0.6253950672515969], [0.43449858045865436, 0.7063594416167539, -0.2755434956086589, -0.9066174559682012, -0.4799204277611376], [0.28867347306985147, -1.0964863798482016, -0.05810798271313834, -0.6267686722314738, -0.08293670326895732], [-0.15283174988276776, 0.010028710300835318, 0.9494469225219566, 0.2660806474441458, 0.8435140039500585], [-0.09101645963926357, -0.3033172032094295, 0.23958084834702262, -1.7935115707259193, -0.02522790151826406]], [[0.36557051783715766, -0.435310955774938, 0.2748944231936542, -0.03656728455743763, -0.7051627291797755, 0.18771419375216294, -0.3409993979083099, -0.160430852004237, 0.4416160217701511, 0.43821342488152343, 0.035319355583181125, -0.01018711400401069, 0.26204528904167396, -0.5467328460662273, 0.4378023826189122, -0.3811729744990671]]], "b": [[-0.05428953011741461, -0.07714789031978482, 0.006489367111694158, -0.06929966971149645, -0.519537573139487, -0.06853672709957435, -0.0702774523968787, -0.11039225848495751, -0.1131499974600008, 0.0011253458000075381, 9.442922642293865e-05, -2.5204172193814642e-05, -0.0011952268418549362, -0.38292566027188096, 0.0011087479660008936, -0.0009611120991702376], [0.25258848159007546]], "vW": [[[0.0002497823717061724, 0.0, 0.0, 0.0, 0.0], [-3.4381834199367097e-06, 0.0, 0.0, 0.0, 0.0], [0.00019529045826625988, 0.0, 0.0, 0.0, 0.0], [-3.677466831538988e-05, 0.0, 0.0, 0.0, 0.0], [-5.568758875344446e-06, 0.0, 0.0, 0.0, 0.0], [0.0001218444400163805, 0.0, 0.0, 0.0, 0.0], [-2.693342924069585e-06, 0.0, 0.0, 0.0, 0.0], [-1.2667814787192523e-06, 0.0, 0.0, 0.0, 0.0], [0.00029423756206152355, 0.0, 0.0, 0.0, 0.0], [3.466853521442741e-06, 0.0, 0.0, 0.0, 0.0], [2.804243157202302e-07, 0.0, 0.0, 0.0, 0.0], [-8.033680039078043e-08, 0.0, 0.0, 0.0, 0.0], [0.00018499770818791305, 0.0, 0.0, 0.0, 0.0], [-4.317225949504867e-06, 0.0, 0.0, 0.0, 0.0], [3.4594282623109556e-06, 0.0, 0.0, 0.0, 0.0], [-3.010820640869157e-06, 0.0, 0.0, 0.0, 0.0]], [[0.0005617406187541008, -5.924484484564906e-07, 0.00026614947999819747, 0.00019061612464052181, 1.1115365846026936e-06, 0.0004227290065573049, -2.9835778729877674e-07, -6.345837576152772e-08, 0.0008356900689592806, -7.738436293529522e-06, -2.187488108037312e-06, -2.2139120958359537e-07, 0.0002780866882440702, 8.509552788220833e-08, -1.211701154282854e-06, -7.152490961352847e-07]]], "vb": [[0.00014099676998687895, -2.509330586089891e-06, 0.0001179298214037817, -3.290881065045828e-05, -4.0622589549049124e-06, 6.216769469259242e-05, -1.9657407180968804e-06, -9.239354455903111e-07, 0.0001583568572797421, 2.5366132054696246e-06, 2.0624388574045258e-07, -5.8507422286565677e-08, 0.00011056010609526896, -3.1489436131787555e-06, 2.5267437518757887e-06, -2.19787757804197e-06], [0.0005768310952450981]]}}