{"version": 1, "model": {"layer_sizes": [5, 16, 1], "lr": 0.03, "momentum": 0.9, "grad_clip": 3.0, "total_samples": 179, "W": [[[0.8593333051479038, 0.9167098936040888, 0.041954449334932704, -0.48353986153823236, -0.6907509918316201], [-0.019938018933264655, -0.6464348041825333, -0.9087307311439718, 0.12605596212771603, 0.08435350654913912], [0.413780075998229, -0.5780459794834379, 0.003165619319023322, -0.04094628450130507, -0.9523698821441012], [0.2811220492198049, 0.20283551001133254, 1.5110071283958506, 0.12836897902201092, -0.09151777529694573], [0.5179775276374974, 0.12572662463981144, 0.5749217012808462, -0.23119049338194606, 0.137983970293719], [0.6409774685673019, 0.4403452810123505, 0.08125298436065588, -0.6845116975202081, 0.2815829729115831], [0.012548141166761891, 0.45566371728464317, 0.13675771771954995, 0.6882288831510016, -0.032609575100486295], [0.07210108664693629, 0.4217064472385048, -0.6874061856520259, -0.25403225348189823, -0.3162458346088078], [1.2717441015703388, -0.05873110184204383, 0.41250028865134114, 0.3917271844754705, -0.17763995472297467], [-0.979079313263489, 0.6102209068034645, -0.25753384959998116, 0.45407565931871485, -0.8255219594097656], [-0.27686060986178523, 0.7948836121736637, 0.9050463886060675, -0.8237471601839077, -0.84294146328566], [-0.028035435475629214, 0.46058025358844906, 0.10151207239074857, 0.19198485424004202, -0.6253950672515969], [0.4306964163685681, 0.7063594416167539, -0.2755434956086589, -0.9066174559682012, -0.4799204277611376], [0.2887656712631688, -1.0964863798482016, -0.05810798271313834, -0.6267686722314738, -0.08293670326895732], [-0.15290562573033425, 0.010028710300835318, 0.9494469225219566, 0.2660806474441458, 0.8435140039500585], [-0.09095217242506917, -0.3033172032094295, 0.23958084834702262, -1.7935115707259193, -0.02522790151826406]], [[0.3523150362300318, -0.43532125524302695, 0.2696859898156662, -0.04275839469495948, -0.7053407727636172, 0.17681778457079364, -0.34101392720733753, -0.16046228580031832, 0.4208184126323214, 0.4383790479346178, 0.03536609744129665, -0.010182395195694378, 0.25633783439400987, -0.5468483992056499, 0.4378286338629462, -0.3811580290585943]]], "b": [[-0.04624530440034229, -0.07722353963012393, 0.012258533705327033, -0.06966242482251674, -0.5196601830265217, -0.06416572537937251, -0.07033671059617833, -0.11042015973904859, -0.10315114887172713, 0.0012012438028117759, 0.00010050311763938965, -2.6979698053333256e-05, 0.004347923715751385, -0.38302073880724347, 0.0011847556126777753, -0.0010273373159768984], [0.2699571697875214]], "vW": [[[0.0002041130624281936, 0.0, 0.0, 0.0, 0.0], [-3.005246412210971e-06, 0.0, 0.0, 0.0, 0.0], [0.0001641190428071144, 0.0, 0.0, 0.0, 0.0], [-3.721355938564887e-05, 0.0, 0.0, 0.0, 0.0], [-4.868848721241546e-06, 0.0, 0.0, 0.0, 0.0], [9.566971532713243e-05, 0.0, 0.0, 0.0, 0.0], [-2.354248690876981e-06, 0.0, 0.0, 0.0, 0.0], [-1.1074759552698546e-06, 0.0, 0.0, 0.0, 0.0], [0.0002358810629470205, 0.0, 0.0, 0.0, 0.0], [3.032027400583407e-06, 0.0, 0.0, 0.0, 0.0], [2.455981066352721e-07, 0.0, 0.0, 0.0, 0.0], [-7.017194142413928e-08, 0.0, 0.0, 0.0, 0.0], [0.00015478874640615959, 0.0, 0.0, 0.0, 0.0], [-3.7743880090838705e-06, 0.0, 0.0, 0.0, 0.0], [3.0240922544708923e-06, 0.0, 0.0, 0.0, 0.0], [-2.63154582246893e-06, 0.0, 0.0, 0.0, 0.0]], [[0.000487433759822888, -4.1574736222992303e-07, 0.00022235442760689566, 0.00017896752582636616, 1.6502262174943145e-06, 0.0003741917131228679, -1.6800508661792996e-07, 8.876086013289969e-08, 0.0007337803236857239, -6.767288965039115e-06, -1.9123126038479486e-06, -1.9343974516422645e-07, 0.0002344539970848598, 5.746546139495284e-07, -1.0623600878382352e-06, -6.223772937016762e-07]]], "vb": [[6.0147862378141966e-05, -1.6271437804302936e-06, 5.887016373313852e-05, -2.7562841357336385e-05, -2.6343223565302178e-06, 1.9161713342549487e-05, -1.2747094974587461e-06, -5.990143463543434e-07, 5.894504623830282e-05, 1.649181980563994e-06, 1.348568438650737e-07, -3.784180844348064e-08, 5.399026594933511e-05, -2.041683474327525e-06, 1.639567080103313e-06, -1.4252996367524089e-06], [0.0003741635122591707]]}}