{"version": 1, "model": {"layer_sizes": [5, 16, 1], "lr": 0.03, "momentum": 0.9, "grad_clip": 3.0, "total_samples": 285, "W": [[[0.8831363064379361, 0.9167098936040888, 0.041954449334932704, -0.48353986153823236, -0.6907509918316201], [-0.020256988462587274, -0.6464348041825333, -0.9087307311439718, 0.12605596212771603, 0.08435350654913912], [0.43209142567581715, -0.5780459794834379, 0.003165619319023322, -0.04094628450130507, -0.9523698821441012], [0.2780896333406306, 0.20283551001133254, 1.5110071283958506, 0.12836897902201092, -0.09151777529694573], [0.5174610468735517, 0.12572662463981144, 0.5749217012808462, -0.23119049338194606, 0.137983970293719], [0.6528454539871772, 0.4403452810123505, 0.08125298436065588, -0.6845116975202081, 0.2815829729115831], [0.012298277051395105, 0.45566371728464317, 0.13675771771954995, 0.6882288831510016, -0.032609575100486295], [0.07198359262592657, 0.4217064472385048, -0.6874061856520259, -0.25403225348189823, -0.3162458346088078], [1.3000839116319136, -0.05873110184204383, 0.41250028865134114, 0.3917271844754705, -0.17763995472297467], [-0.9787577199286088, 0.6102209068034645, -0.25753384959998116, 0.45407565931871485, -0.8255219594097656], [-0.2768346086504688, 0.7948836121736637, 0.9050463886060675, -0.8237471601839077, -0.84294146328566], [-0.028042890678216168, 0.46058025358844906, 0.10151207239074857, 0.19198485424004202, -0.6253950672515969], [0.4480875105140659, 0.7063594416167539, -0.2755434956086589, -0.9066174559682012, -0.4799204277611376], [0.2883652529200041, -1.0964863798482016, -0.05810798271313834, -0.6267686722314738, -0.08293670326895732], [-0.15258467283751107, 0.010028710300835318, 0.9494469225219566, 0.2660806474441458, 0.8435140039500585], [-0.09123151831264756, -0.3033172032094295, 0.23958084834702262, -1.7935115707259193, -0.02522790151826406]], [[0.4114080343256842, -0.43527259742582547, 0.29336475019348196, -0.01588423514753875, -0.704539878103888, 0.22499910514221647, -0.3409472141007482, -0.16031991024934114, 0.5130722396327069, 0.4376595581856161, 0.03516301659453968, -0.010202901459602653, 0.2821480613424927, -0.5463262132064435, 0.4377147101208176, -0.3812230858851285]]], "b": [[-0.08387520310757259, -0.07687171446078532, -0.01444056498656827, -0.06842095110824511, -0.5190901118495188, -0.0848605401343827, -0.07006112127545713, -0.11029042874483377, -0.1502144360980531, 0.0008482934281295719, 7.226905143779629e-05, -1.8719974439194707e-05, -0.02135236382737338, -0.3825786618473592, 0.000831247407864002, -0.000719313771156734], [0.18917393972003305]], "vW": [[[0.0005058605578263985, 0.0, 0.0, 0.0, 0.0], [-5.810839424363693e-06, 0.0, 0.0, 0.0, 0.0], [0.0003680632739950934, 0.0, 0.0, 0.0, 0.0], [-3.113516593820833e-05, 0.0, 0.0, 0.0, 0.0], [-9.404939213424742e-06, 0.0, 0.0, 0.0, 0.0], [0.00027034147888699013, 0.0, 0.0, 0.0, 0.0], [-4.551677561772323e-06, 0.0, 0.0, 0.0, 0.0], [-2.139923075330558e-06, 0.0, 0.0, 0.0, 0.0], [0.0006234789067437474, 0.0, 0.0, 0.0, 0.0], [5.849397514946579e-06, 0.0, 0.0, 0.0, 0.0], [4.711391213679339e-07, 0.0, 0.0, 0.0, 0.0], [-1.3606099366686593e-07, 0.0, 0.0, 0.0, 0.0], [0.00035278184254258435, 0.0, 0.0, 0.0, 0.0], [-7.29246027602032e-06, 0.0, 0.0, 0.0, 0.0], [5.845218590289684e-06, 0.0, 0.0, 0.0, 0.0], [-5.0894990720500446e-06, 0.0, 0.0, 0.0, 0.0]], [[0.0009405619285241079, -1.5108445071213508e-06, 0.00048013410108019744, 0.00026466773290460073, -1.5232530210164875e-06, 0.0006781551436332558, -9.676860421998221e-07, -8.302223443010036e-07, 0.0013645681077992457, -1.306551766742748e-05, -3.695977607900162e-06, -3.7447248800586773e-07, 0.000493126224783653, -2.363876715659592e-06, -2.0348244679171896e-06, -1.2201881885143948e-06]]], "vb": [[0.0005992300235784828, -7.084013415904301e-06, 0.0004378953609513118, -3.987764723585182e-05, -1.1464066220066215e-05, 0.00031860996396548304, -5.548963511465183e-06, -2.6083820665100987e-06, 0.0007366510199932948, 7.1341136818611996e-06, 5.751174086173474e-07, -1.6581582033856316e-07, 0.0004194088081004257, -8.888940674528353e-06, 7.12692842362745e-06, -6.204931608811746e-06], [0.0016278757644716435]]}}