{"version": 1, "model": {"layer_sizes": [5, 16, 1], "lr": 0.03, "momentum": 0.9, "grad_clip": 3.0, "total_samples": 1565, "W": [[[1.2915999665597264, 0.9167098936040888, 0.041954449334932704, -0.48353986153823236, -0.6907509918316201], [-0.023067638710677657, -0.6464348041825333, -0.9087307311439718, 0.12605596212771603, 0.08435350654913912], [0.6839047338123502, -0.5780459794834379, 0.003165619319023322, -0.04094628450130507, -0.9523698821441012], [0.3246328087542759, 0.20283551001133254, 1.5110071283958506, 0.12836897902201092, -0.09151777529694573], [0.5129298887424077, 0.12572662463981144, 0.5749217012808462, -0.23119049338194606, 0.137983970293719], [0.9101386086364055, 0.4403452810123505, 0.08125298436065588, -0.6845116975202081, 0.2815829729115831], [0.010097372013899384, 0.45566371728464317, 0.13675771771954995, 0.6882288831510016, -0.032609575100486295], [0.07095164441854016, 0.4217064472385048, -0.6874061856520259, -0.25403225348189823, -0.3162458346088078], [1.8491481194740162, -0.05873110184204383, 0.41250028865134114, 0.3917271844754705, -0.17763995472297467], [-0.9759443086794533, 0.6102209068034645, -0.25753384959998116, 0.45407565931871485, -0.8255219594097656], [-0.2766114701280302, 0.7948836121736637, 0.9050463886060675, -0.8237471601839077, -0.84294146328566], [-0.028109222329196003, 0.46058025358844906, 0.10151207239074857, 0.19198485424004202, -0.6253950672515969], [0.696763338259162, 0.7063594416167539, -0.2755434956086589, -0.9066174559682012, -0.4799204277611376], [0.28484946052033155, -1.0964863798482016, -0.05810798271313834, -0.6267686722314738, -0.08293670326895732], [-0.14975881580734715, 0.010028710300835318, 0.9494469225219566, 0.2660806474441458, 0.8435140039500585], [-0.09369594879152995, -0.3033172032094295, 0.23958084834702262, -1.7935115707259193, -0.02522790151826406]], [[0.9700278590440895, -0.43509831478896577, 0.5559770143115224, 0.17692444080519013, -0.699138252958659, 0.6471487374288182, -0.3405896865232103, -0.15941748837579395, 1.3461892334047412, 0.4313319244875301, 0.03337405017838899, -0.010384002864213636, 0.557048600389705, -0.5429460503644327, 0.43672508952033384, -0.38180927809469983]]], "b": [[-0.40834779746789485, -0.07514474285177902, -0.210923284733194, -0.11100240787325269, -0.5163011803011073, -0.29229903177346017, -0.06870888050129967, -0.10965487727269199, -0.5899464569739755, -0.0008641197636636076, -6.078344247966036e-05, 2.23625697099679e-05, -0.21606273010971885, -0.380413755163477, -0.0009002608732400191, 0.00079384619979485], [-0.2072014461248627]], "vW": [[[0.0020851313156618383, 0.0, 0.0, 0.0, 0.0], [-9.497059223160764e-06, 0.0, 0.0, 0.0, 0.0], [0.0011960969572151498, 0.0, 0.0, 0.0, 0.0], [0.0003787424953687161, 0.0, 0.0, 0.0, 0.0], [-1.525908456102449e-05, 0.0, 0.0, 0.0, 0.0], [0.001390231333207939, 0.0, 0.0, 0.0, 0.0], [-7.434253988776412e-06, 0.0, 0.0, 0.0, 0.0], [-3.4791533617860747e-06, 0.0, 0.0, 0.0, 0.0], [0.002892714721202296, 0.0, 0.0, 0.0, 0.0], [9.4229859009631e-06, 0.0, 0.0, 0.0, 0.0], [7.305362736508366e-07, 0.0, 0.0, 0.0, 0.0], [-2.2648244047762543e-07, 0.0, 0.0, 0.0, 0.0], [0.001198199260129528, 0.0, 0.0, 0.0, 0.0], [-1.1849560947435537e-05, 0.0, 0.0, 0.0, 0.0], [9.534809735995309e-06, 0.0, 0.0, 0.0, 0.0], [-8.334252495420893e-06, 0.0, 0.0, 0.0, 0.0]], [[0.0009553913751200108, -3.347772612931927e-06, 0.0005123087914797499, 0.00022997796963878322, -8.418715653634018e-06, 0.000667702511065031, -2.382037167034603e-06, -2.6169216606452215e-06, 0.0013613458167948457, -2.1351739000604332e-05, -6.041832403060947e-06, -6.124386503970674e-07, 0.0005205171309651864, -8.234005612653874e-06, -3.317625049739018e-06, -2.002828284265954e-06]]], "vb": [[0.0036314317695551592, -1.6547707099945846e-05, 0.00208297752764556, 0.000659811032579938, -2.658697006680727e-05, 0.0024213132542206593, -1.295346600836603e-05, -6.061957886005199e-06, 0.005038032995690671, 1.6419521591417345e-05, 1.273099584996141e-06, -3.946083170857616e-07, 0.0020866644207162837, -2.0646284796188336e-05, 1.6613779921508593e-05, -1.4521728421963361e-05], [0.0038037155973608514]]}}