{"version": 1, "model": {"layer_sizes": [5, 16, 1], "lr": 0.03, "momentum": 0.9, "grad_clip": 3.0, "total_samples": 1303, "W": [[[1.2009909334147195, 0.9167098936040888, 0.041954449334932704, -0.48353986153823236, -0.6907509918316201], [-0.022613302840769685, -0.6464348041825333, -0.9087307311439718, 0.12605596212771603, 0.08435350654913912], [0.6314586590658722, -0.5780459794834379, 0.003165619319023322, -0.04094628450130507, -0.9523698821441012], [0.30891678803141137, 0.20283551001133254, 1.5110071283958506, 0.12836897902201092, -0.09151777529694573], [0.5136600456527095, 0.12572662463981144, 0.5749217012808462, -0.23119049338194606, 0.137983970293719], [0.8501301467113881, 0.4403452810123505, 0.08125298436065588, -0.6845116975202081, 0.2815829729115831], [0.01045304930173476, 0.45566371728464317, 0.13675771771954995, 0.6882288831510016, -0.032609575100486295], [0.07111806981471053, 0.4217064472385048, -0.6874061856520259, -0.25403225348189823, -0.3162458346088078], [1.723918091082235, -0.05873110184204383, 0.41250028865134114, 0.3917271844754705, -0.17763995472297467], [-0.9763966834011574, 0.6102209068034645, -0.25753384959998116, 0.45407565931871485, -0.8255219594097656], [-0.27664683534368073, 0.7948836121736637, 0.9050463886060675, -0.8237471601839077, -0.84294146328566], [-0.028098424884486044, 0.46058025358844906, 0.10151207239074857, 0.19198485424004202, -0.6253950672515969], [0.6443211774581902, 0.7063594416167539, -0.2755434956086589, -0.9066174559682012, -0.4799204277611376], [0.28541633660563825, -1.0964863798482016, -0.05810798271313834, -0.6267686722314738, -0.08293670326895732], [-0.15021533347450583, 0.010028710300835318, 0.9494469225219566, 0.2660806474441458, 0.8435140039500585], [-0.09329724120045163, -0.3033172032094295, 0.23958084834702262, -1.7935115707259193, -0.02522790151826406]], [[0.8801090709881653, -0.4351113311926179, 0.5116280350584222, 0.14916993207789445, -0.6999133781005169, 0.5809822398816563, -0.3406337781377932, -0.15954250370426476, 1.2141742434391527, 0.43235406204183807, 0.03366322700355137, -0.010354698460621268, 0.5111428106387058, -0.5434201176227148, 0.4368841345199358, -0.38171365764903475]]], "b": [[-0.3552258929144005, -0.0753427616082502, -0.18052095282966507, -0.10124269815634178, -0.5166201865448778, -0.2568205529896501, -0.06886387663094602, -0.10972767527169885, -0.5161796905876948, -0.0006703485881694234, -4.6223679509138574e-05, 1.758651350112071e-05, -0.18559263310068763, -0.38066163364065775, -0.0007022609879733716, 0.0006202598872158773], [-0.16178928238399032]], "vW": [[[0.0009910709799215143, 0.0, 0.0, 0.0, 0.0], [-5.0194140238556146e-06, 0.0, 0.0, 0.0, 0.0], [0.0005769123486898155, 0.0, 0.0, 0.0, 0.0], [0.00016674560055173087, 0.0, 0.0, 0.0, 0.0], [-8.073136580591043e-06, 0.0, 0.0, 0.0, 0.0], [0.0006535610631142544, 0.0, 0.0, 0.0, 0.0], [-3.929570296310195e-06, 0.0, 0.0, 0.0, 0.0], [-1.8400959331835441e-06, 0.0, 0.0, 0.0, 0.0], [0.0013664704932295486, 0.0, 0.0, 0.0, 0.0], [4.9930180598984325e-06, 0.0, 0.0, 0.0, 0.0], [3.897061912778284e-07, 0.0, 0.0, 0.0, 0.0], [-1.1933737064254987e-07, 0.0, 0.0, 0.0, 0.0], [0.0005762078924381228, 0.0, 0.0, 0.0, 0.0], [-6.2677192448006664e-06, 0.0, 0.0, 0.0, 0.0], [5.041380309485688e-06, 0.0, 0.0, 0.0, 0.0], [-4.4036849315090375e-06, 0.0, 0.0, 0.0, 0.0]], [[0.0005484843663007984, -1.5924396643329493e-06, 0.0002880953622638068, 0.0001415342915614516, -3.2568951149928445e-06, 0.00038849571118394186, -1.0977548098348179e-06, -1.1297100406336966e-06, 0.0007875906767826404, -1.128742992473266e-05, -3.1934911774748794e-06, -3.236386818352624e-07, 0.0002940278776752955, -3.4728876835842424e-06, -1.7558222490291116e-06, -1.0565114947940292e-06]]], "vb": [[0.0015213904713493637, -7.746604975249414e-06, 0.0008857022389641876, 0.0002558355314031726, -1.2458763445830109e-05, 0.0010032063166676517, -6.064626207706738e-06, -2.8396549110841253e-06, 0.002097579223000221, 7.708048452594242e-06, 6.01985229070954e-07, -1.8413387834343574e-07, 0.0008846034744525526, -9.672457713312096e-06, 7.781164620842091e-06, -6.796493074797364e-06], [0.001780741977150151]]}}