{"version": 1, "model": {"layer_sizes": [5, 16, 1], "lr": 0.03, "momentum": 0.9, "grad_clip": 3.0, "total_samples": 978, "W": [[[1.0946445366575408, 0.9167098936040888, 0.041954449334932704, -0.48353986153823236, -0.6907509918316201], [-0.022004865915650634, -0.6464348041825333, -0.9087307311439718, 0.12605596212771603, 0.08435350654913912], [0.5685468191574357, -0.5780459794834379, 0.003165619319023322, -0.04094628450130507, -0.9523698821441012], [0.29261404269787866, 0.20283551001133254, 1.5110071283958506, 0.12836897902201092, -0.09151777529694573], [0.5146392148939559, 0.12572662463981144, 0.5749217012808462, -0.23119049338194606, 0.137983970293719], [0.7808650917163384, 0.4403452810123505, 0.08125298436065588, -0.6845116975202081, 0.2815829729115831], [0.01092942090076308, 0.45566371728464317, 0.13675771771954995, 0.6882288831510016, -0.032609575100486295], [0.0713411716687814, 0.4217064472385048, -0.6874061856520259, -0.25403225348189823, -0.3162458346088078], [1.5783015761559802, -0.05873110184204383, 0.41250028865134114, 0.3917271844754705, -0.17763995472297467], [-0.977003934739417, 0.6102209068034645, -0.25753384959998116, 0.45407565931871485, -0.8255219594097656], [-0.2766946168720914, 0.7948836121736637, 0.9050463886060675, -0.8237471601839077, -0.84294146328566], [-0.028084009966560602, 0.46058025358844906, 0.10151207239074857, 0.19198485424004202, -0.6253950672515969], [0.5816890058208307, 0.7063594416167539, -0.2755434956086589, -0.9066174559682012, -0.4799204277611376], [0.2861763387626998, -1.0964863798482016, -0.05810798271313834, -0.6267686722314738, -0.08293670326895732], [-0.15082685978476368, 0.010028710300835318, 0.9494469225219566, 0.2660806474441458, 0.8435140039500585], [-0.09276349992276363, -0.3033172032094295, 0.23958084834702262, -1.7935115707259193, -0.02522790151826406]], [[0.7567012055351171, -0.43513812252645373, 0.4515891322246428, 0.10977195073555024, -0.701012952839539, 0.48946194872613147, -0.34070131186202546, -0.15972301073207001, 1.0321602751806378, 0.43372314845485377, 0.034050478625404564, -0.010315468125702946, 0.44879955242832625, -0.5441003698868739, 0.43709750602947056, -0.3815859699497815]]], "b": [[-0.2808923169194184, -0.07565912624858055, -0.13732119425249723, -0.08862478089390118, -0.5171301806844251, -0.20774068947818292, -0.0691115407132468, -0.1098439870672212, -0.41361897895685656, -0.00035882750171049784, -2.2446407333564937e-05, 1.0003089157713348e-05, -0.14243140472086585, -0.3810577442052191, -0.000385483658340898, 0.0003429509095812596], [-0.08919842838801298]], "vW": [[[0.0008090193852172766, 0.0, 0.0, 0.0, 0.0], [-4.8052240150967334e-06, 0.0, 0.0, 0.0, 0.0], [0.0004840983132927305, 0.0, 0.0, 0.0, 0.0], [0.00011532972201052658, 0.0, 0.0, 0.0, 0.0], [-7.740304706196314e-06, 0.0, 0.0, 0.0, 0.0], [0.0005221977502809658, 0.0, 0.0, 0.0, 0.0], [-3.762404160811818e-06, 0.0, 0.0, 0.0, 0.0], [-1.7634512694921967e-06, 0.0, 0.0, 0.0, 0.0], [0.0011022303360404306, 0.0, 0.0, 0.0, 0.0], [4.795050262926706e-06, 0.0, 0.0, 0.0, 0.0], [3.7740043330202835e-07, 0.0, 0.0, 0.0, 0.0], [-1.1379855278996545e-07, 0.0, 0.0, 0.0, 0.0], [0.0004808550442211142, 0.0, 0.0, 0.0, 0.0], [-6.007383435607815e-06, 0.0, 0.0, 0.0, 0.0], [4.828380545487074e-06, 0.0, 0.0, 0.0, 0.0], [-4.2141045121642374e-06, 0.0, 0.0, 0.0, 0.0]], [[0.0005877585271153187, -1.4314014794603035e-06, 0.00030513594295163084, 0.000157336755997023, -2.4913961302971287e-06, 0.0004193977643828647, -9.661317291340406e-07, -9.483590746503668e-07, 0.0008475937606791897, -1.0806623505961315e-05, -3.0571888136245073e-06, -3.0978337363399523e-07, 0.0003122208204817169, -2.8628665190490715e-06, -1.6821575321823087e-06, -1.0102199963181149e-06]]], "vb": [[0.0011492906318008372, -6.8914039365570585e-06, 0.00068796296259153, 0.0001634354437634481, -1.1099803368135708e-05, 0.000741614111602056, -5.395854594641223e-06, -2.5287766447776955e-06, 0.0015655696266511422, 6.879484498570727e-06, 5.419089150266933e-07, -1.6315180023211667e-07, 0.0006833040283028577, -8.6146047475972e-06, 6.925425580145981e-06, -6.043853420256587e-06], [0.0015840968983160562]]}}