{"version": 1, "model": {"layer_sizes": [5, 16, 1], "lr": 0.03, "momentum": 0.9, "grad_clip": 3.0, "total_samples": 599, "W": [[[0.9711584094146439, 0.9167098936040888, 0.041954449334932704, -0.48353986153823236, -0.6907509918316201], [-0.021128780389750662, -0.6464348041825333, -0.9087307311439718, 0.12605596212771603, 0.08435350654913912], [0.49212736263493767, -0.5780459794834379, 0.003165619319023322, -0.04094628450130507, -0.9523698821441012], [0.2790038064985545, 0.20283551001133254, 1.5110071283958506, 0.12836897902201092, -0.09151777529694573], [0.5160518669233427, 0.12572662463981144, 0.5749217012808462, -0.23119049338194606, 0.137983970293719], [0.7033312304143275, 0.4403452810123505, 0.08125298436065588, -0.6845116975202081, 0.2815829729115831], [0.011615459674277993, 0.45566371728464317, 0.13675771771954995, 0.6882288831510016, -0.032609575100486295], [0.07166287805792082, 0.4217064472385048, -0.6874061856520259, -0.25403225348189823, -0.3162458346088078], [1.4126024986936951, -0.05873110184204383, 0.41250028865134114, 0.3917271844754705, -0.17763995472297467], [-0.977881216806225, 0.6102209068034645, -0.25753384959998116, 0.45407565931871485, -0.8255219594097656], [-0.27676426656294595, 0.7948836121736637, 0.9050463886060675, -0.8237471601839077, -0.84294146328566], [-0.02806334437420743, 0.46058025358844906, 0.10151207239074857, 0.19198485424004202, -0.6253950672515969], [0.5062771963855331, 0.7063594416167539, -0.2755434956086589, -0.9066174559682012, -0.4799204277611376], [0.2872723919517761, -1.0964863798482016, -0.05810798271313834, -0.6267686722314738, -0.08293670326895732], [-0.15170772960467444, 0.010028710300835318, 0.9494469225219566, 0.2660806474441458, 0.8435140039500585], [-0.09199537233963151, -0.3033172032094295, 0.23958084834702262, -1.7935115707259193, -0.02522790151826406]], [[0.5796986072254213, -0.43519414488124647, 0.3680035256167155, 0.04927159787766093, -0.7027087116107168, 0.35602321809625115, -0.3408143161714576, -0.1600068578838899, 0.7685584191782975, 0.4356953689328464, 0.034608090409744593, -0.010259016617251922, 0.3613963668399248, -0.545162857151543, 0.43740587104954803, -0.3814031678651641]]], "b": [[-0.1779975502602919, -0.07620766024352206, -0.07527961358581407, -0.07470175195561937, -0.5180158147878905, -0.14173062179068904, -0.0695410466106197, -0.11004580788714838, -0.27390659945862594, 0.00018527382097953483, 1.9857239637829115e-05, -3.04337225610653e-06, -0.08089796673711885, -0.3817452162529798, 0.0001645698079196575, -0.0001377083046739136], [0.03671482743860442]], "vW": [[[0.0005400748834614972, 0.0, 0.0, 0.0, 0.0], [-4.289318999120509e-06, 0.0, 0.0, 0.0, 0.0], [0.0003455071310677971, 0.0, 0.0, 0.0, 0.0], [4.170630601483826e-05, 0.0, 0.0, 0.0, 0.0], [-6.925077850414624e-06, 0.0, 0.0, 0.0, 0.0], [0.00032940441553532636, 0.0, 0.0, 0.0, 0.0], [-3.35914960281725e-06, 0.0, 0.0, 0.0, 0.0], [-1.5766890886581447e-06, 0.0, 0.0, 0.0, 0.0], [0.000713353925139937, 0.0, 0.0, 0.0, 0.0], [4.29981978895875e-06, 0.0, 0.0, 0.0, 0.0], [3.425134399007417e-07, 0.0, 0.0, 0.0, 0.0], [-1.009957575860341e-07, 0.0, 0.0, 0.0, 0.0], [0.0003388127769433779, 0.0, 0.0, 0.0, 0.0], [-5.3721204012096716e-06, 0.0, 0.0, 0.0, 0.0], [4.312653250667351e-06, 0.0, 0.0, 0.0, 0.0], [-3.7593945710672204e-06, 0.0, 0.0, 0.0, 0.0]], [[0.0006103447948524536, -1.097727415304929e-06, 0.0003092599254612429, 0.0001753896795923574, -1.0120208376942798e-06, 0.0004420470976466222, -6.984600771309082e-07, -5.890005474744276e-07, 0.0008878075048356513, -9.647992006939258e-06, -2.7289053793308866e-06, -2.764398350362081e-07, 0.00031815832036278694, -1.662189188287805e-06, -1.5039193048160528e-06, -8.994945340696798e-07]]], "vb": [[0.0006278074419436013, -5.136396157221456e-06, 0.0004027366728920174, 4.6738210758609294e-05, -8.291318571839399e-06, 0.00038196617750516516, -4.0225444511858835e-06, -1.887667556656987e-06, 0.0008281253202822897, 5.152783733300179e-06, 4.1109737662629805e-07, -1.2086655241843346e-07, 0.00039473110148782395, -6.431775900226332e-06, 5.165499586656521e-06, -4.50211118537896e-06], [0.0011806267613179563]]}}