{"version": 1, "model": {"layer_sizes": [5, 16, 1], "lr": 0.03, "momentum": 0.9, "grad_clip": 3.0, "total_samples": 1160, "W": [[[1.1541789350747043, 0.9167098936040888, 0.041954449334932704, -0.48353986153823236, -0.6907509918316201], [-0.022357229457140408, -0.6464348041825333, -0.9087307311439718, 0.12605596212771603, 0.08435350654913912], [0.6039857619255256, -0.5780459794834379, 0.003165619319023322, -0.04094628450130507, -0.9523698821441012], [0.3013932524268438, 0.20283551001133254, 1.5110071283958506, 0.12836897902201092, -0.09151777529694573], [0.5140719607914354, 0.12572662463981144, 0.5749217012808462, -0.23119049338194606, 0.137983970293719], [0.8194517906909614, 0.4403452810123505, 0.08125298436065588, -0.6845116975202081, 0.2815829729115831], [0.010653532467717608, 0.45566371728464317, 0.13675771771954995, 0.6882288831510016, -0.032609575100486295], [0.07121193508329131, 0.4217064472385048, -0.6874061856520259, -0.25403225348189823, -0.3162458346088078], [1.6595989295041746, -0.05873110184204383, 0.41250028865134114, 0.3917271844754705, -0.17763995472297467], [-0.9766520599897862, 0.6102209068034645, -0.25753384959998116, 0.45407565931871485, -0.8255219594097656], [-0.2766668872940852, 0.7948836121736637, 0.9050463886060675, -0.8237471601839077, -0.84294146328566], [-0.028092351896508043, 0.46058025358844906, 0.10151207239074857, 0.19198485424004202, -0.6253950672515969], [0.6169268012500772, 0.7063594416167539, -0.2755434956086589, -0.9066174559682012, -0.4799204277611376], [0.28573608064107403, -1.0964863798482016, -0.05810798271313834, -0.6267686722314738, -0.08293670326895732], [-0.15047268439218173, 0.010028710300835318, 0.9494469225219566, 0.2660806474441458, 0.8435140039500585], [-0.09307257730289485, -0.3033172032094295, 0.23958084834702262, -1.7935115707259193, -0.02522790151826406]], [[0.8283185299026007, -0.43512171051961857, 0.48630264521459016, 0.13283936056280252, -0.7003703985057542, 0.5426847063999224, -0.34066139181762284, -0.15961724819191328, 1.1379180717660393, 0.4329302274086064, 0.03382621065609688, -0.010338185470484327, 0.48487648368947966, -0.5437021664286444, 0.43697387564176743, -0.3816598599755306]]], "b": [[-0.3236154846252625, -0.07547115564514355, -0.1622637931687751, -0.09569753764887313, -0.516827095827587, -0.2358517046415221, -0.06896438418819868, -0.10977487318803177, -0.4724514918196792, -0.000544153987029893, -3.663688799826793e-05, 1.450293666925034e-05, -0.16732883199672413, -0.3808223618188054, -0.0005737487535931398, 0.0005077091714276472], [-0.13233237055846692]], "vW": [[[0.0009161675360246229, 0.0, 0.0, 0.0, 0.0], [-4.944723913312987e-06, 0.0, 0.0, 0.0, 0.0], [0.0005388420925609973, 0.0, 0.0, 0.0, 0.0], [0.00014540586598376387, 0.0, 0.0, 0.0, 0.0], [-7.958012268602686e-06, 0.0, 0.0, 0.0, 0.0], [0.0005994121068461145, 0.0, 0.0, 0.0, 0.0], [-3.871320071108046e-06, 0.0, 0.0, 0.0, 0.0], [-1.8135184694313747e-06, 0.0, 0.0, 0.0, 0.0], [0.001257633476022046, 0.0, 0.0, 0.0, 0.0], [4.925244809290756e-06, 0.0, 0.0, 0.0, 0.0], [3.8577469525641395e-07, 0.0, 0.0, 0.0, 0.0], [-1.1736899565527615e-07, 0.0, 0.0, 0.0, 0.0], [0.0005370692987634966, 0.0, 0.0, 0.0, 0.0], [-6.177506209837138e-06, 0.0, 0.0, 0.0, 0.0], [4.967288121363335e-06, 0.0, 0.0, 0.0, 0.0], [-4.337443485027266e-06, 0.0, 0.0, 0.0, 0.0]], [[0.0005665552772606537, -1.5327691401889521e-06, 0.00029623059741989646, 0.00014834021748200523, -2.9665006477374157e-06, 0.0004024613528316925, -1.048660339925129e-06, -1.0614849711281389e-06, 0.000814903354670409, -1.1119831713966177e-05, -3.1459613330321752e-06, -3.18804434030323e-07, 0.00030263363250772904, -3.2428731655446886e-06, -1.730219160541838e-06, -1.0402899383974714e-06]]], "vb": [[0.0013672737928188366, -7.428806260139035e-06, 0.0008042972370977005, 0.00021678356820775186, -1.1955065887227091e-05, 0.0008944345357455453, -5.816164667349414e-06, -2.7243374301672042e-06, 0.001876733457260082, 7.401904009892971e-06, 5.801614213800746e-07, -1.762853637869273e-07, 0.0008016235870043807, -9.280141111007191e-06, 7.463421463344044e-06, -6.516622411879726e-06], [0.00170766260254466]]}}