{"version": 1, "model": {"layer_sizes": [5, 16, 1], "lr": 0.03, "momentum": 0.9, "grad_clip": 3.0, "total_samples": 350, "W": [[[0.8996709707107668, 0.9167098936040888, 0.041954449334932704, -0.48353986153823236, -0.6907509918316201], [-0.020450201228461133, -0.6464348041825333, -0.9087307311439718, 0.12605596212771603, 0.08435350654913912], [0.44409464156714484, -0.5780459794834379, 0.003165619319023322, -0.04094628450130507, -0.9523698821441012], [0.2771151851250778, 0.20283551001133254, 1.5110071283958506, 0.12836897902201092, -0.09151777529694573], [0.5171484100135576, 0.12572662463981144, 0.5749217012808462, -0.23119049338194606, 0.137983970293719], [0.6617054200211485, 0.4403452810123505, 0.08125298436065588, -0.6845116975202081, 0.2815829729115831], [0.012146933265252425, 0.45566371728464317, 0.13675771771954995, 0.6882288831510016, -0.032609575100486295], [0.07191245783999198, 0.4217064472385048, -0.6874061856520259, -0.25403225348189823, -0.3162458346088078], [1.3204905985409585, -0.05873110184204383, 0.41250028865134114, 0.3917271844754705, -0.17763995472297467], [-0.9785631566554768, 0.6102209068034645, -0.25753384959998116, 0.45407565931871485, -0.8255219594097656], [-0.27681892813814907, 0.7948836121736637, 0.9050463886060675, -0.8237471601839077, -0.84294146328566], [-0.028047413932493326, 0.46058025358844906, 0.10151207239074857, 0.19198485424004202, -0.6253950672515969], [0.4595967851576047, 0.7063594416167539, -0.2755434956086589, -0.9066174559682012, -0.4799204277611376], [0.28812283856479753, -1.0964863798482016, -0.05810798271313834, -0.6267686722314738, -0.08293670326895732], [-0.15239028789286413, 0.010028710300835318, 0.9494469225219566, 0.2660806474441458, 0.8435140039500585], [-0.09140076084380062, -0.3033172032094295, 0.23958084834702262, -1.7935115707259193, -0.02522790151826406]], [[0.4474053584731445, -0.435257512234453, 0.3089202738965611, -0.0013003023105195859, -0.7041505696135353, 0.2533772274589241, -0.34091988358933356, -0.16025403465012789, 0.5681325882414779, 0.4372241277535454, 0.03504003031841572, -0.010215333037282313, 0.2987726295138319, -0.5460805472208574, 0.4376461106421851, -0.3812628535143636]]], "b": [[-0.10147352128180334, -0.07673863064543139, -0.02614304953657596, -0.06907842237214248, -0.5188746366253498, -0.09521247524346689, -0.0699568856100982, -0.11024137410818141, -0.17301250883849914, 0.0007152516110232257, 6.171617162662088e-05, -1.5583513121832574e-05, -0.032746661257738174, -0.3824115191659595, 0.0006976212521757193, -0.0006027795092847261], [0.15862204926492668]], "vW": [[[0.0003481439372488681, 0.0, 0.0, 0.0, 0.0], [-3.73379550513257e-06, 0.0, 0.0, 0.0, 0.0], [0.000245215824711358, 0.0, 0.0, 0.0, 0.0], [-8.64492417943428e-06, 0.0, 0.0, 0.0, 0.0], [-6.039617162859381e-06, 0.0, 0.0, 0.0, 0.0], [0.00019300981355419738, 0.0, 0.0, 0.0, 0.0], [-2.924584126858346e-06, 0.0, 0.0, 0.0, 0.0], [-1.3743692709226891e-06, 0.0, 0.0, 0.0, 0.0], [0.0004372279800462798, 0.0, 0.0, 0.0, 0.0], [3.7563194758569716e-06, 0.0, 0.0, 0.0, 0.0], [3.020244380301495e-07, 0.0, 0.0, 0.0, 0.0], [-8.751003744333209e-08, 0.0, 0.0, 0.0, 0.0], [0.00023633971070787397, 0.0, 0.0, 0.0, 0.0], [-4.683444100249666e-06, 0.0, 0.0, 0.0, 0.0], [3.7558368427937877e-06, 0.0, 0.0, 0.0, 0.0], [-3.2708478338919616e-06, 0.0, 0.0, 0.0, 0.0]], [[0.0005832257950428539, -7.752412201482433e-07, 0.0002855385875042721, 0.00018336034556196411, 3.2782162804810275e-07, 0.00043098278941784067, -4.438939839729609e-07, -2.5581594409007134e-07, 0.0008583940724595368, -8.40111077933468e-06, -2.3755127398724085e-06, -2.4052972634117376e-07, 0.0002960651122230105, -5.558396551474254e-07, -1.312541967872155e-06, -7.798365200631637e-07]]], "vb": [[0.0002916836234320955, -3.459762255430283e-06, 0.0002090340704248416, -1.2907243282220717e-05, -5.594554625263804e-06, 0.00015862650796301056, -2.709960384073707e-06, -1.272971986173669e-06, 0.00036271499598351407, 3.4858993105093685e-06, 2.8116261971996994e-07, -8.098401466229456e-08, 0.00020087033988894264, -4.338031153624664e-06, 3.4817779089851046e-06, -3.031181316828827e-06], [0.0007952575952511003]]}}