{"version": 1, "model": {"layer_sizes": [5, 16, 1], "lr": 0.03, "momentum": 0.9, "grad_clip": 3.0, "total_samples": 1485, "W": [[[1.260311707087892, 0.9167098936040888, 0.041954449334932704, -0.48353986153823236, -0.6907509918316201], [-0.022916902370300953, -0.6464348041825333, -0.9087307311439718, 0.12605596212771603, 0.08435350654913912], [0.6658954808031442, -0.5780459794834379, 0.003165619319023322, -0.04094628450130507, -0.9523698821441012], [0.31904647874642456, 0.20283551001133254, 1.5110071283958506, 0.12836897902201092, -0.09151777529694573], [0.5131720313695014, 0.12572662463981144, 0.5749217012808462, -0.23119049338194606, 0.137983970293719], [0.8893303109636963, 0.4403452810123505, 0.08125298436065588, -0.6845116975202081, 0.2815829729115831], [0.010215371748301848, 0.45566371728464317, 0.13675771771954995, 0.6882288831510016, -0.032609575100486295], [0.07100684260616245, 0.4217064472385048, -0.6874061856520259, -0.25403225348189823, -0.3162458346088078], [1.8058033884474343, -0.05873110184204383, 0.41250028865134114, 0.3917271844754705, -0.17763995472297467], [-0.9760942786441739, 0.6102209068034645, -0.25753384959998116, 0.45407565931871485, -0.8255219594097656], [-0.27662316970929685, 0.7948836121736637, 0.9050463886060675, -0.8237471601839077, -0.84294146328566], [-0.028105636480512022, 0.46058025358844906, 0.10151207239074857, 0.19198485424004202, -0.6253950672515969], [0.6787349725594624, 0.7063594416167539, -0.2755434956086589, -0.9066174559682012, -0.4799204277611376], [0.28503746995894963, -1.0964863798482016, -0.05810798271313834, -0.6267686722314738, -0.08293670326895732], [-0.1499102617594152, 0.010028710300835318, 0.9494469225219566, 0.2660806474441458, 0.8435140039500585], [-0.09356365329182392, -0.3033172032094295, 0.23958084834702262, -1.7935115707259193, -0.02522790151826406]], [[0.9410123581023421, -0.4351004184130181, 0.5416120772249584, 0.1680540025624909, -0.6993804502456343, 0.6258443024883872, -0.3406022961275317, -0.1594557845229175, 1.3036443427439968, 0.4316710302687456, 0.03346999200721486, -0.01037427973667849, 0.5421922836859535, -0.5430923005287441, 0.43677783732726866, -0.3817775352949763]]], "b": [[-0.39341878800137026, -0.07519788679683231, -0.20240076643112664, -0.10822558347190005, -0.5163868302024147, -0.2823098956357351, -0.06875047642441662, -0.10967442825824109, -0.5691939028155732, -0.0008123193208952071, -5.692752083469211e-05, 2.1076479172567567e-05, -0.2075168001102261, -0.38048032127107206, -0.0008471786031501974, 0.0007472688367216255], [-0.19502056290087996]], "vW": [[[0.0010750657295337967, 0.0, 0.0, 0.0, 0.0], [-5.078503413158872e-06, 0.0, 0.0, 0.0, 0.0], [0.0006193713581840912, 0.0, 0.0, 0.0, 0.0], [0.00019104181567877168, 0.0, 0.0, 0.0, 0.0], [-8.162153745423999e-06, 0.0, 0.0, 0.0, 0.0], [0.000714481630981534, 0.0, 0.0, 0.0, 0.0], [-3.975561008066027e-06, 0.0, 0.0, 0.0, 0.0], [-1.8607935227895504e-06, 0.0, 0.0, 0.0, 0.0], [0.0014887506785081378, 0.0, 0.0, 0.0, 0.0], [5.043877804615728e-06, 0.0, 0.0, 0.0, 0.0], [3.9202911251751157e-07, 0.0, 0.0, 0.0, 0.0], [-1.2097552398086699e-07, 0.0, 0.0, 0.0, 0.0], [0.0006199119404746809, 0.0, 0.0, 0.0, 0.0], [-6.337838259234923e-06, 0.0, 0.0, 0.0, 0.0], [5.0995978200422335e-06, 0.0, 0.0, 0.0, 0.0], [-4.456382840801805e-06, 0.0, 0.0, 0.0, 0.0]], [[0.0005252522889777538, -1.6472105139308731e-06, 0.0002772441340356213, 0.00013340452800545853, -3.5369135063265046e-06, 0.00037087871826549726, -1.1434677486184112e-06, -1.1943734806477552e-06, 0.0007528719537728313, -1.141985129041506e-05, -3.2310914004195346e-06, -3.27470165612751e-07, 0.0002826513301353107, -3.6919301245664547e-06, -1.7758584468175615e-06, -1.0695489090505132e-06]]], "vb": [[0.0016947169816033053, -8.03994819048398e-06, 0.0009764118125669225, 0.0003010852535340456, -1.29211137904296e-05, 0.0011262596424318394, -6.2938512275916595e-06, -2.9456871466559586e-06, 0.002346798908638071, 7.987138651718951e-06, 6.211324045768732e-07, -1.9148077049243923e-07, 0.0009772549785847615, -1.0033017196101899e-05, 8.073947175278887e-06, -7.055193360473264e-06], [0.001848206769376999]]}}