{"version": 1, "model": {"layer_sizes": [5, 16, 1], "lr": 0.03, "momentum": 0.9, "grad_clip": 3.0, "total_samples": 365, "W": [[[0.8975960917239444, 0.9167098936040888, 0.041954449334932704, -0.48353986153823236, -0.6907509918316201], [-0.02043469287190808, -0.6464348041825333, -0.9087307311439718, 0.12605596212771603, 0.08435350654913912], [0.44272850028694233, -0.5780459794834379, 0.003165619319023322, -0.04094628450130507, -0.9523698821441012], [0.2770161766858653, 0.20283551001133254, 1.5110071283958506, 0.12836897902201092, -0.09151777529694573], [0.5171735106224181, 0.12572662463981144, 0.5749217012808462, -0.23119049338194606, 0.137983970293719], [0.6604732117897144, 0.4403452810123505, 0.08125298436065588, -0.6845116975202081, 0.2815829729115831], [0.01215907964363246, 0.45566371728464317, 0.13675771771954995, 0.6882288831510016, -0.032609575100486295], [0.07191817251403419, 0.4217064472385048, -0.6874061856520259, -0.25403225348189823, -0.3162458346088078], [1.3177889779087029, -0.05873110184204383, 0.41250028865134114, 0.3917271844754705, -0.17763995472297467], [-0.9785786572351147, 0.6102209068034645, -0.25753384959998116, 0.45407565931871485, -0.8255219594097656], [-0.27682015681637484, 0.7948836121736637, 0.9050463886060675, -0.8237471601839077, -0.84294146328566], [-0.028047048293775124, 0.46058025358844906, 0.10151207239074857, 0.19198485424004202, -0.6253950672515969], [0.45826422106506864, 0.7063594416167539, -0.2755434956086589, -0.9066174559682012, -0.4799204277611376], [0.28814230974339694, -1.0964863798482016, -0.05810798271313834, -0.6267686722314738, -0.08293670326895732], [-0.15240586000558265, 0.010028710300835318, 0.9494469225219566, 0.2660806474441458, 0.8435140039500585], [-0.09138717960105003, -0.3033172032094295, 0.23958084834702262, -1.7935115707259193, -0.02522790151826406]], [[0.4477422747562471, -0.4352191143918583, 0.3076346913889716, 0.001096716473916717, -0.7039149903220614, 0.25487276053626545, -0.3408859932468108, -0.16020262785167946, 0.5700867911950338, 0.43725848030316977, 0.035049845130883696, -0.01021432352379405, 0.2977872255650407, -0.5459036043506226, 0.4376510556758137, -0.38125918270955933]]], "b": [[-0.12429953277416184, -0.07652573583199132, -0.04177635612675759, -0.06921328512905177, -0.5185301946267887, -0.10824890837038699, -0.06979013488380144, -0.11016298014031711, -0.2021259283758427, 0.0005015479830889907, 4.4616127646020525e-05, -1.058370194499433e-05, -0.047888076310807874, -0.38214438850186133, 0.0004836004770825134, -0.0004163016173629746], [0.10971471647003549]], "vW": [[[0.0004055395913952277, 0.0, 0.0, 0.0, 0.0], [-4.2462730223187276e-06, 0.0, 0.0, 0.0, 0.0], [0.0002824950099618092, 0.0, 0.0, 0.0, 0.0], [-5.0986290662111085e-06, 0.0, 0.0, 0.0, 0.0], [-6.86654217957586e-06, 0.0, 0.0, 0.0, 0.0], [0.00022753472354651556, 0.0, 0.0, 0.0, 0.0], [-3.325934422791452e-06, 0.0, 0.0, 0.0, 0.0], [-1.562605920839811e-06, 0.0, 0.0, 0.0, 0.0], [0.0005124746620789207, 0.0, 0.0, 0.0, 0.0], [4.271583877006831e-06, 0.0, 0.0, 0.0, 0.0], [3.4332867458231567e-07, 0.0, 0.0, 0.0, 0.0], [-9.954616802886054e-08, 0.0, 0.0, 0.0, 0.0], [0.0002727937341223683, 0.0, 0.0, 0.0, 0.0], [-5.324842904311396e-06, 0.0, 0.0, 0.0, 0.0], [4.271557272741881e-06, 0.0, 0.0, 0.0, 0.0], [-3.7201152729828027e-06, 0.0, 0.0, 0.0, 0.0]], [[0.0006687758737854979, -5.89650579307088e-07, 0.00031267559484798705, 0.00023354916669042616, 2.332653033897847e-06, 0.0005068745689614898, -2.3898145860600764e-07, 1.255079161878391e-07, 0.000999133313381601, -9.560522949444887e-06, -2.702227761272813e-06, -2.73436495926937e-07, 0.0003277361788995425, 8.123867077691747e-07, -1.498361239080674e-06, -8.821148532527406e-07]]], "vb": [[0.00017421590019470212, -2.294331585289271e-06, 0.00012518156317775533, -8.230957798086984e-06, -3.705729363495692e-06, 9.446006993016126e-05, -1.797053156387371e-06, -8.431392757318042e-07, 0.0002163091904785479, 2.3168951701299974e-06, 1.8766129752868982e-07, -5.362384060248938e-08, 0.00012023857937145332, -2.87330912336508e-06, 2.310874050589179e-06, -2.0109194283094722e-06], [0.000527680809393115]]}}