{"version": 1, "model": {"layer_sizes": [5, 16, 1], "lr": 0.03, "momentum": 0.9, "grad_clip": 3.0, "total_samples": 378, "W": [[[0.9047303121540216, 0.9167098936040888, 0.041954449334932704, -0.48353986153823236, -0.6907509918316201], [-0.020507832412614956, -0.6464348041825333, -0.9087307311439718, 0.12605596212771603, 0.08435350654913912], [0.4476802976643058, -0.5780459794834379, 0.003165619319023322, -0.04094628450130507, -0.9523698821441012], [0.2769546482119787, 0.20283551001133254, 1.5110071283958506, 0.12836897902201092, -0.09151777529694573], [0.5170552313478324, 0.12572662463981144, 0.5749217012808462, -0.23119049338194606, 0.137983970293719], [0.6644913096313166, 0.4403452810123505, 0.08125298436065588, -0.6845116975202081, 0.2815829729115831], [0.012101792521488006, 0.45566371728464317, 0.13675771771954995, 0.6882288831510016, -0.032609575100486295], [0.07189125532078566, 0.4217064472385048, -0.6874061856520259, -0.25403225348189823, -0.3162458346088078], [1.3268223200010405, -0.05873110184204383, 0.41250028865134114, 0.3917271844754705, -0.17763995472297467], [-0.9785051067838992, 0.6102209068034645, -0.25753384959998116, 0.45407565931871485, -0.8255219594097656], [-0.27681424943854743, 0.7948836121736637, 0.9050463886060675, -0.8237471601839077, -0.84294146328566], [-0.028048763422252574, 0.46058025358844906, 0.10151207239074857, 0.19198485424004202, -0.6253950672515969], [0.463048969933681, 0.7063594416167539, -0.2755434956086589, -0.9066174559682012, -0.4799204277611376], [0.2880505854716229, -1.0964863798482016, -0.05810798271313834, -0.6267686722314738, -0.08293670326895732], [-0.15233229232834922, 0.010028710300835318, 0.9494469225219566, 0.2660806474441458, 0.8435140039500585], [-0.09145125476472385, -0.3033172032094295, 0.23958084834702262, -1.7935115707259193, -0.02522790151826406]], [[0.46053312235890836, -0.4352267909286289, 0.313750216772933, 0.005349712201536223, -0.7038575922045677, 0.2644507904862524, -0.340887837730631, -0.16019680936463263, 0.5890598820299718, 0.43709388070457184, 0.03500330857394694, -0.010219034609106847, 0.30416335027605285, -0.5458769253023913, 0.43762531491639256, -0.3812744335790442]]], "b": [[-0.12251991473776172, -0.07655069980913988, -0.0404661460054038, -0.0693470844800308, -0.5185705240831692, -0.10731104952950023, -0.06980968856161754, -0.11017215528748511, -0.19994797451716176, 0.0005267739434854515, 4.666258794969198e-05, -1.1166718792316887e-05, -0.04663474117469089, -0.3821756569072941, 0.000508747389412322, -0.00043818075665428673], [0.11545635851997008]], "vW": [[[0.0007516477725950036, 0.0, 0.0, 0.0, 0.0], [-7.467531008628763e-06, 0.0, 0.0, 0.0, 0.0], [0.0005174725833459756, 0.0, 0.0, 0.0, 0.0], [2.133728292102022e-07, 0.0, 0.0, 0.0, 0.0], [-1.2075936582672974e-05, 0.0, 0.0, 0.0, 0.0], [0.00042698225193850534, 0.0, 0.0, 0.0, 0.0], [-5.8489467971968075e-06, 0.0, 0.0, 0.0, 0.0], [-2.7482799954025532e-06, 0.0, 0.0, 0.0, 0.0], [0.0009559976570535789, 0.0, 0.0, 0.0, 0.0], [7.505952966460754e-06, 0.0, 0.0, 0.0, 0.0], [6.022129317810764e-07, 0.0, 0.0, 0.0, 0.0], [-1.751974891907876e-07, 0.0, 0.0, 0.0, 0.0], [0.0005007321948872846, 0.0, 0.0, 0.0, 0.0], [-9.365050316915345e-06, 0.0, 0.0, 0.0, 0.0], [7.510401489511939e-06, 0.0, 0.0, 0.0, 0.0], [-6.542056319468741e-06, 0.0, 0.0, 0.0, 0.0]], [[0.001146664441630812, -2.1310982796262708e-06, 0.0005919119253449459, 0.00031229033167667685, -3.238874410573962e-06, 0.0008211132567372257, -1.4163184975402933e-06, -1.3391978620761263e-06, 0.001656979043315298, -1.6790045203220524e-05, -4.7498917792825295e-06, -4.813034323169514e-07, 0.0006064194071270855, -3.982272017688739e-06, -2.6135539647074484e-06, -1.5695392081296728e-06]]], "vb": [[0.0010135717077566005, -1.0178601683235917e-05, 0.0006980041097553526, -4.358436370509227e-08, -1.6458247193536786e-05, 0.0005755909240949638, -7.972376651233678e-06, -3.745588204322727e-06, 0.0012889197592454939, 1.0233495998161901e-05, 8.214364322897701e-07, -2.387616345096847e-07, 0.000675387730865123, -1.2763516612682198e-05, 1.023793940525777e-05, -8.917482555536463e-06], [0.0023390964519632833]]}}