{"version": 1, "model": {"layer_sizes": [5, 16, 1], "lr": 0.03, "momentum": 0.9, "grad_clip": 3.0, "total_samples": 588, "W": [[[0.9674583036629166, 0.9167098936040888, 0.041954449334932704, -0.48353986153823236, -0.6907509918316201], [-0.021098212004158536, -0.6464348041825333, -0.9087307311439718, 0.12605596212771603, 0.08435350654913912], [0.4897426713650977, -0.5780459794834379, 0.003165619319023322, -0.04094628450130507, -0.9523698821441012], [0.2787458528306798, 0.20283551001133254, 1.5110071283958506, 0.12836897902201092, -0.09151777529694573], [0.516101220623261, 0.12572662463981144, 0.5749217012808462, -0.23119049338194606, 0.137983970293719], [0.7010895636146675, 0.4403452810123505, 0.08125298436065588, -0.6845116975202081, 0.2815829729115831], [0.011639399431651376, 0.45566371728464317, 0.13675771771954995, 0.6882288831510016, -0.032609575100486295], [0.07167411403751188, 0.4217064472385048, -0.6874061856520259, -0.25403225348189823, -0.3162458346088078], [1.4077329240313516, -0.05873110184204383, 0.41250028865134114, 0.3917271844754705, -0.17763995472297467], [-0.9779118837742767, 0.6102209068034645, -0.25753384959998116, 0.45407565931871485, -0.8255219594097656], [-0.27676671373670675, 0.7948836121736637, 0.9050463886060675, -0.8237471601839077, -0.84294146328566], [-0.028062625164624478, 0.46058025358844906, 0.10151207239074857, 0.19198485424004202, -0.6253950672515969], [0.5039419348220229, 0.7063594416167539, -0.2755434956086589, -0.9066174559682012, -0.4799204277611376], [0.28731067611331756, -1.0964863798482016, -0.05810798271313834, -0.6267686722314738, -0.08293670326895732], [-0.1517384701098845, 0.010028710300835318, 0.9494469225219566, 0.2660806474441458, 0.8435140039500585], [-0.09196858031760709, -0.3033172032094295, 0.23958084834702262, -1.7935115707259193, -0.02522790151826406]], [[0.574052690158947, -0.4351939240281199, 0.36535348961275554, 0.047316326814912255, -0.7027529890859013, 0.35175301629814687, -0.3408162711501266, -0.16001359931851697, 0.7601340021512999, 0.4357641873042366, 0.03462754479291066, -0.010257047535511906, 0.3586212907691928, -0.5451889578415916, 0.4374166429351983, -0.3813968027217503]]], "b": [[-0.17649579150565317, -0.07621426582762439, -0.07437577391344882, -0.07449591734656341, -0.518026503745766, -0.14076576950927416, -0.06954621879438094, -0.1100482447584653, -0.2718658122511834, 0.00019177304246103757, 2.035374801338695e-05, -3.201469634730421e-06, -0.08000120627742253, -0.3817535160312847, 0.00017117682851582926, -0.00014349163786643156], [0.03822875829387103]], "vW": [[[-0.0011440001079764369, 0.0, 0.0, 0.0, 0.0], [8.44141724273436e-06, 0.0, 0.0, 0.0, 0.0], [-0.0007255090680743988, 0.0, 0.0, 0.0, 0.0], [-9.837745095616568e-05, 0.0, 0.0, 0.0, 0.0], [1.363220562783477e-05, 0.0, 0.0, 0.0, 0.0], [-0.0007032121288388718, 0.0, 0.0, 0.0, 0.0], [6.61073737422712e-06, 0.0, 0.0, 0.0, 0.0], [3.10413785734547e-06, 0.0, 0.0, 0.0, 0.0], [-0.001517431014984548, 0.0, 0.0, 0.0, 0.0], [-8.44698675877909e-06, 0.0, 0.0, 0.0, 0.0], [-6.70275411075558e-07, 0.0, 0.0, 0.0, 0.0], [1.990709627468699e-07, 0.0, 0.0, 0.0, 0.0], [-0.0007126169536619677, 0.0, 0.0, 0.0, 0.0], [1.057609184413283e-05, 0.0, 0.0, 0.0, 0.0], [-8.483002179287993e-06, 0.0, 0.0, 0.0, 0.0], [7.39766279972882e-06, 0.0, 0.0, 0.0, 0.0]], [[-0.000889163152007539, 5.297329794940865e-06, -0.0005645438489616868, -7.543806993336438e-05, 2.315876628867472e-05, -0.0005460072883876736, 4.233319522055789e-06, 5.656392267777474e-06, -0.0011787564097591415, 1.8943601588495654e-05, 5.365750608000262e-06, 5.447358666614431e-07, -0.0005543920190915754, 1.8871464207994424e-05, 2.921182515327808e-06, 1.8023739857808725e-06]]], "vb": [[-0.0037294503473871313, 2.785200469166641e-05, -0.002369653748952961, -0.00031362285260622423, 4.497839924158059e-05, -0.0022886208979916046, 2.181186267045889e-05, 1.0241634168579159e-05, -0.004942326396869927, -2.7877846871626737e-05, -2.2134643138823624e-06, 6.566576154176335e-07, -0.002326715424913603, 3.489443763356011e-05, -2.7991148052850473e-05, 2.4408378805252852e-05], [-0.006399511837413094]]}}