{"version": 1, "model": {"layer_sizes": [5, 16, 1], "lr": 0.03, "momentum": 0.9, "grad_clip": 3.0, "total_samples": 337, "W": [[[0.8966040942911856, 0.9167098936040888, 0.041954449334932704, -0.48353986153823236, -0.6907509918316201], [-0.02041553975709886, -0.6464348041825333, -0.9087307311439718, 0.12605596212771603, 0.08435350654913912], [0.4419021178334169, -0.5780459794834379, 0.003165619319023322, -0.04094628450130507, -0.9523698821441012], [0.2772424581485902, 0.20283551001133254, 1.5110071283958506, 0.12836897902201092, -0.09151777529694573], [0.5172044808386189, 0.12572662463981144, 0.5749217012808462, -0.23119049338194606, 0.137983970293719], [0.6600329670027678, 0.4403452810123505, 0.08125298436065588, -0.6845116975202081, 0.2815829729115831], [0.012174083104141052, 0.45566371728464317, 0.13675771771954995, 0.6882288831510016, -0.032609575100486295], [0.07192521641617143, 0.4217064472385048, -0.6874061856520259, -0.25403225348189823, -0.3162458346088078], [1.3166714988404857, -0.05873110184204383, 0.41250028865134114, 0.3917271844754705, -0.17763995472297467], [-0.9785980507273321, 0.6102209068034645, -0.25753384959998116, 0.45407565931871485, -0.8255219594097656], [-0.2768217381247327, 0.7948836121736637, 0.9050463886060675, -0.8237471601839077, -0.84294146328566], [-0.028046602130608517, 0.46058025358844906, 0.10151207239074857, 0.19198485424004202, -0.6253950672515969], [0.4574890148475505, 0.7063594416167539, -0.2755434956086589, -0.9066174559682012, -0.4799204277611376], [0.288166316827883, -1.0964863798482016, -0.05810798271313834, -0.6267686722314738, -0.08293670326895732], [-0.15242515934054826, 0.010028710300835318, 0.9494469225219566, 0.2660806474441458, 0.8435140039500585], [-0.09137039724744078, -0.3033172032094295, 0.23958084834702262, -1.7935115707259193, -0.02522790151826406]], [[0.4408300276917619, -0.43526169119092734, 0.3061211670303928, -0.004031025416225347, -0.704230354833619, 0.2481572886158033, -0.3409261288694135, -0.16026796533128915, 0.5580326557353145, 0.43730226181604204, 0.0350620958118918, -0.010213103145586737, 0.2957696746831844, -0.5461319479812402, 0.43765843389155445, -0.38125573321061895]]], "b": [[-0.09736015180047146, -0.07677084395942743, -0.02340053934280054, -0.06893613905109688, -0.5189267812311525, -0.09279904818289543, -0.06998211614346574, -0.11025324477520997, -0.16769101792547933, 0.0007474792292755122, 6.427646899753973e-05, -1.6342252376129e-05, -0.03007764794938213, -0.38245196627671135, 0.0007299737342159216, -0.0006309893342312216], [0.16601833869973576]], "vW": [[[0.0003285980513224382, 0.0, 0.0, 0.0, 0.0], [-3.5989059966895607e-06, 0.0, 0.0, 0.0, 0.0], [0.00023316669107439848, 0.0, 0.0, 0.0, 0.0], [-1.0873204129164312e-05, 0.0, 0.0, 0.0, 0.0], [-5.821995383816535e-06, 0.0, 0.0, 0.0, 0.0], [0.0001806971781799206, 0.0, 0.0, 0.0, 0.0], [-2.8189550111716275e-06, 0.0, 0.0, 0.0, 0.0], [-1.324806980922858e-06, 0.0, 0.0, 0.0, 0.0], [0.0004109533566227173, 0.0, 0.0, 0.0, 0.0], [3.6214322997688418e-06, 0.0, 0.0, 0.0, 0.0], [2.9134491700468e-07, 0.0, 0.0, 0.0, 0.0], [-8.432500812192172e-08, 0.0, 0.0, 0.0, 0.0], [0.00022444057295281032, 0.0, 0.0, 0.0, 0.0], [-4.514588401015109e-06, 0.0, 0.0, 0.0, 0.0], [3.6202749565196006e-06, 0.0, 0.0, 0.0, 0.0], [-3.1526032183462803e-06, 0.0, 0.0, 0.0, 0.0]], [[0.0005637377691859017, -7.175132403294912e-07, 0.00027408640765580645, 0.00018025211836738983, 5.145313851388386e-07, 0.00041822424197770277, -4.0082329046404195e-07, -2.0437741266196505e-07, 0.0008316329250058049, -8.098341111311978e-06, -2.2897523751194484e-06, -2.3182306271865506e-07, 0.0002846486826513123, -3.893953734554082e-07, -1.2658588252127641e-06, -7.510237942872795e-07]]], "vb": [[0.0002564071820211208, -3.1688109362231804e-06, 0.00018594420781741687, -1.4806694982548832e-05, -5.124364381656664e-06, 0.0001375592898054561, -2.4820909152227507e-06, -1.1659331820240384e-06, 0.00031664531154533375, 3.194188448839316e-06, 2.579014512754356e-07, -7.413840527300098e-08, 0.00017832360100660362, -3.973314969236413e-06, 3.189297172614617e-06, -2.7762494046661396e-06], [0.0007284064121252489]]}}