{"version": 1, "model": {"layer_sizes": [5, 16, 1], "lr": 0.03, "momentum": 0.9, "grad_clip": 3.0, "total_samples": 140, "W": [[[0.8543181214599682, 0.9167098936040888, 0.041954449334932704, -0.48353986153823236, -0.6907509918316201], [-0.019852808485040212, -0.6464348041825333, -0.9087307311439718, 0.12605596212771603, 0.08435350654913912], [0.40949404335180606, -0.5780459794834379, 0.003165619319023322, -0.04094628450130507, -0.9523698821441012], [0.2824368513235165, 0.20283551001133254, 1.5110071283958506, 0.12836897902201092, -0.09151777529694573], [0.5181158054575139, 0.12572662463981144, 0.5749217012808462, -0.23119049338194606, 0.137983970293719], [0.6388446815517657, 0.4403452810123505, 0.08125298436065588, -0.6845116975202081, 0.2815829729115831], [0.012614897307343834, 0.45566371728464317, 0.13675771771954995, 0.6882288831510016, -0.032609575100486295], [0.07213252995038566, 0.4217064472385048, -0.6874061856520259, -0.25403225348189823, -0.3162458346088078], [1.2662032478942513, -0.05873110184204383, 0.41250028865134114, 0.3917271844754705, -0.17763995472297467], [-0.9791653699059831, 0.6102209068034645, -0.25753384959998116, 0.45407565931871485, -0.8255219594097656], [-0.27686759998101773, 0.7948836121736637, 0.9050463886060675, -0.8237471601839077, -0.84294146328566], [-0.028033448801251415, 0.46058025358844906, 0.10151207239074857, 0.19198485424004202, -0.6253950672515969], [0.42669103779017975, 0.7063594416167539, -0.2755434956086589, -0.9066174559682012, -0.4799204277611376], [0.28887283949916587, -1.0964863798482016, -0.05810798271313834, -0.6267686722314738, -0.08293670326895732], [-0.1529913761867579, 0.010028710300835318, 0.9494469225219566, 0.2660806474441458, 0.8435140039500585], [-0.09087757494558442, -0.3033172032094295, 0.23958084834702262, -1.7935115707259193, -0.02522790151826406]], [[0.33730982194925885, -0.43534731385336667, 0.26485495802870634, -0.05144876018929529, -0.7056415635015378, 0.16356786777702237, -0.3410436168573523, -0.16051876982381277, 0.3962048625383702, 0.4385716430255924, 0.03542037426323478, -0.010176927689430506, 0.2507259962756285, -0.5470518976324024, 0.4378594813529782, -0.381141016568313]]], "b": [[-0.030086036308746834, -0.07738989377322827, 0.0241772876704531, -0.07091177858567037, -0.5199294534987813, -0.055668523111082606, -0.07046702086480516, -0.11048143843525249, -0.08339683185340706, 0.0013683949649762283, 0.00011392054105705777, -3.087948856436862e-05, 0.015745822394992656, -0.38322955963909044, 0.0013519780915598912, -0.0011729916297523915], [0.30816241293934393]], "vW": [[[0.00021703295876463223, 0.0, 0.0, 0.0, 0.0], [-3.6223816420787956e-06, 0.0, 0.0, 0.0, 0.0], [0.00018611567411381418, 0.0, 0.0, 0.0, 0.0], [-5.7904197525763276e-05, 0.0, 0.0, 0.0, 0.0], [-5.893711271464438e-06, 0.0, 0.0, 0.0, 0.0], [9.174943088524412e-05, 0.0, 0.0, 0.0, 0.0], [-2.8380201678972135e-06, 0.0, 0.0, 0.0, 0.0], [-1.3397713640183505e-06, 0.0, 0.0, 0.0, 0.0], [0.000239141141864042, 0.0, 0.0, 0.0, 0.0], [3.656557965080845e-06, 0.0, 0.0, 0.0, 0.0], [2.969295497077511e-07, 0.0, 0.0, 0.0, 0.0], [-8.443497464992114e-08, 0.0, 0.0, 0.0, 0.0], [0.00017384119637895047, 0.0, 0.0, 0.0, 0.0], [-4.566528539162741e-06, 0.0, 0.0, 0.0, 0.0], [3.6438879742027176e-06, 0.0, 0.0, 0.0, 0.0], [-3.170044854969499e-06, 0.0, 0.0, 0.0, 0.0]], [[0.0005975707334944717, -5.797338802948651e-07, 0.000275804449295458, 0.00021433803474307903, 1.4680802507056205e-06, 0.00045598405895568256, -2.7407592332928073e-07, -4.55661121163687e-09, 0.0008963542845307382, -8.151881209779838e-06, -2.3037901853803455e-06, -2.3307335082015515e-07, 0.00028998743307072654, 3.066791951788857e-07, -1.2788149192010644e-06, -7.507496012041876e-07]]], "vb": [[8.846844939488867e-05, -2.40969182613759e-06, 9.144907706762112e-05, -4.821698517316043e-05, -3.949070506653347e-06, 2.400744775424052e-05, -1.8882396480241487e-06, -8.966465462285601e-07, 8.181323600921241e-05, 2.4381907544599837e-06, 1.9937795577478222e-07, -5.594565534174554e-08, 8.328612355137824e-05, -3.056745406411118e-06, 2.4239661896846593e-06, -2.1071866158974824e-06], [0.0005531657838598581]]}}