{"version": 1, "model": {"layer_sizes": [5, 16, 1], "lr": 0.03, "momentum": 0.9, "grad_clip": 3.0, "total_samples": 1264, "W": [[[1.1882365830668185, 0.9167098936040888, 0.041954449334932704, -0.48353986153823236, -0.6907509918316201], [-0.022545117539854696, -0.6464348041825333, -0.9087307311439718, 0.12605596212771603, 0.08435350654913912], [0.624002415348738, -0.5780459794834379, 0.003165619319023322, -0.04094628450130507, -0.9523698821441012], [0.30682113672586847, 0.20283551001133254, 1.5110071283958506, 0.12836897902201092, -0.09151777529694573], [0.5137697007556935, 0.12572662463981144, 0.5749217012808462, -0.23119049338194606, 0.137983970293719], [0.8417466350999212, 0.4403452810123505, 0.08125298436065588, -0.6845116975202081, 0.2815829729115831], [0.010506431361981315, 0.45566371728464317, 0.13675771771954995, 0.6882288831510016, -0.032609575100486295], [0.07114305907637053, 0.4217064472385048, -0.6874061856520259, -0.25403225348189823, -0.3162458346088078], [1.7063646062483355, -0.05873110184204383, 0.41250028865134114, 0.3917271844754705, -0.17763995472297467], [-0.9764646552823816, 0.6102209068034645, -0.25753384959998116, 0.45407565931871485, -0.8255219594097656], [-0.27665216646595026, 0.7948836121736637, 0.9050463886060675, -0.8237471601839077, -0.84294146328566], [-0.02809680694547736, 0.46058025358844906, 0.10151207239074857, 0.19198485424004202, -0.6253950672515969], [0.6368804488108543, 0.7063594416167539, -0.2755434956086589, -0.9066174559682012, -0.4799204277611376], [0.28550145892979856, -1.0964863798482016, -0.05810798271313834, -0.6267686722314738, -0.08293670326895732], [-0.15028385574501843, 0.010028710300835318, 0.9494469225219566, 0.2660806474441458, 0.8435140039500585], [-0.09323741547623103, -0.3033172032094295, 0.23958084834702262, -1.7935115707259193, -0.02522790151826406]], [[0.866350961264406, -0.43511398121080025, 0.504884054822237, 0.1448574979476192, -0.7000343407199291, 0.5708225549509522, -0.3406410282687261, -0.159562250855108, 1.1939332627404404, 0.4325074736294758, 0.03370662522132562, -0.010350301228715945, 0.5041521789443497, -0.5434946812010091, 0.4369080222582094, -0.3816993253029009]]], "b": [[-0.3467583656736138, -0.07537634761118057, -0.1756447739583327, -0.09973457302525661, -0.5166743020249899, -0.25119122654333476, -0.0688901672633901, -0.1097400207846877, -0.5044516816298303, -0.0006373707695544297, -4.3724752229232554e-05, 1.6779069966302774e-05, -0.1807117568237364, -0.3807036739457958, -0.0006686510730360118, 0.0005908173586819796], [-0.1540842992733783]], "vW": [[[0.0009714445369857875, 0.0, 0.0, 0.0, 0.0], [-5.001749905881399e-06, 0.0, 0.0, 0.0, 0.0], [0.0005669545908413673, 0.0, 0.0, 0.0, 0.0], [0.00016112639955309787, 0.0, 0.0, 0.0, 0.0], [-8.046068221476903e-06, 0.0, 0.0, 0.0, 0.0], [0.0006393577098381642, 0.0, 0.0, 0.0, 0.0], [-3.915801316169517e-06, 0.0, 0.0, 0.0, 0.0], [-1.8338356370428244e-06, 0.0, 0.0, 0.0, 0.0], [0.0013379350373324236, 0.0, 0.0, 0.0, 0.0], [4.9772021362835795e-06, 0.0, 0.0, 0.0, 0.0], [3.8883702600746436e-07, 0.0, 0.0, 0.0, 0.0], [-1.1886562346158872e-07, 0.0, 0.0, 0.0, 0.0], [0.0005659666502900219, 0.0, 0.0, 0.0, 0.0], [-6.246480094130407e-06, 0.0, 0.0, 0.0, 0.0], [5.023888361158875e-06, 0.0, 0.0, 0.0, 0.0], [-4.387996438408758e-06, 0.0, 0.0, 0.0, 0.0]], [[0.0005534647467648473, -1.57774342133382e-06, 0.00029037039636638267, 0.00014335798033958343, -3.1843282200986273e-06, 0.00039231635726253014, -1.0856130209723886e-06, -1.1127481859303303e-06, 0.0007950849837997393, -1.1247805418923039e-05, -3.182250535119023e-06, -3.224948769431775e-07, 0.00029642590802784585, -3.4156222288123306e-06, -1.7497830769886236e-06, -1.0526602524368199e-06]]], "vb": [[0.0014809265773856827, -7.668201990765263e-06, 0.0008643961859071357, 0.00024547627195159574, -1.2334700222203226e-05, 0.0009745902033242242, -6.003338273347823e-06, -2.811237501585946e-06, 0.0020395278779305036, 7.632793873685257e-06, 5.966791029186193e-07, -1.8218959960008054e-07, 0.0008628703195619665, -9.575793223712192e-06, 7.702815149623741e-06, -6.727418533307809e-06], [0.0017627121128243107]]}}