{"version": 1, "model": {"layer_sizes": [5, 16, 1], "lr": 0.03, "momentum": 0.9, "grad_clip": 3.0, "total_samples": 1290, "W": [[[1.1967408909818331, 0.9167098936040888, 0.041954449334932704, -0.48353986153823236, -0.6907509918316201], [-0.022590706017805485, -0.6464348041825333, -0.9087307311439718, 0.12605596212771603, 0.08435350654913912], [0.6289763174996638, -0.5780459794834379, 0.003165619319023322, -0.04094628450130507, -0.9523698821441012], [0.3082149149363664, 0.20283551001133254, 1.5110071283958506, 0.12836897902201092, -0.09151777529694573], [0.5136963835688922, 0.12572662463981144, 0.5749217012808462, -0.23119049338194606, 0.137983970293719], [0.8473346344454953, 0.4403452810123505, 0.08125298436065588, -0.6845116975202081, 0.2815829729115831], [0.010470740196509263, 0.45566371728464317, 0.13675771771954995, 0.6882288831510016, -0.032609575100486295], [0.07112635097571036, 0.4217064472385048, -0.6874061856520259, -0.25403225348189823, -0.3162458346088078], [1.7180666046659023, -0.05873110184204383, 0.41250028865134114, 0.3917271844754705, -0.17763995472297467], [-0.9764192072596231, 0.6102209068034645, -0.25753384959998116, 0.45407565931871485, -0.8255219594097656], [-0.2766486014398156, 0.7948836121736637, 0.9050463886060675, -0.8237471601839077, -0.84294146328566], [-0.028097888624703048, 0.46058025358844906, 0.10151207239074857, 0.19198485424004202, -0.6253950672515969], [0.6418435496644148, 0.7063594416167539, -0.2755434956086589, -0.9066174559682012, -0.4799204277611376], [0.2854445450714977, -1.0964863798482016, -0.05810798271313834, -0.6267686722314738, -0.08293670326895732], [-0.1502380417130778, 0.010028710300835318, 0.9494469225219566, 0.2660806474441458, 0.8435140039500585], [-0.09327741445449725, -0.3033172032094295, 0.23958084834702262, -1.7935115707259193, -0.02522790151826406]], [[0.875552509409344, -0.43511220072282364, 0.5093932338186573, 0.14774367662399093, -0.6999534097934035, 0.5776185234073402, -0.3406361730086315, -0.15954903611512317, 1.2074718762891874, 0.43240490270891985, 0.03367760932278035, -0.010353241182452826, 0.5088265753104685, -0.5434447871187469, 0.4368920503810009, -0.38170890727984647]]], "b": [[-0.35241549917380194, -0.07535384617691006, -0.17890363907770757, -0.1007404064301556, -0.5166380458632716, -0.25495121792501063, -0.06887255341562969, -0.1097317496687106, -0.5122860264133248, -0.0006594673761988262, -4.539965342555656e-05, 1.7319962551768124e-05, -0.18397353676113362, -0.38067550813109974, -0.0006911690917032926, 0.0006105427414158789], [-0.1592464073637878]], "vW": [[[0.0009845947019638784, 0.0, 0.0, 0.0, 0.0], [-5.0137391873376145e-06, 0.0, 0.0, 0.0, 0.0], [0.0005736279563244899, 0.0, 0.0, 0.0, 0.0], [0.00016488911758466785, 0.0, 0.0, 0.0, 0.0], [-8.06445472129041e-06, 0.0, 0.0, 0.0, 0.0], [0.0006488730431097171, 0.0, 0.0, 0.0, 0.0], [-3.925147464708341e-06, 0.0, 0.0, 0.0, 0.0], [-1.8380869945878104e-06, 0.0, 0.0, 0.0, 0.0], [0.001357052996390776, 0.0, 0.0, 0.0, 0.0], [4.987956020916867e-06, 0.0, 0.0, 0.0, 0.0], [3.894323965245582e-07, 0.0, 0.0, 0.0, 0.0], [-1.1918525688080483e-07, 0.0, 0.0, 0.0, 0.0], [0.0005728296647010237, 0.0, 0.0, 0.0, 0.0], [-6.260904509396744e-06, 0.0, 0.0, 0.0, 0.0], [5.035763540597607e-06, 0.0, 0.0, 0.0, 0.0], [-4.398642773719119e-06, 0.0, 0.0, 0.0, 0.0]], [[0.0005501467421944144, -1.587666082859454e-06, 0.0002888571292310033, 0.0001421392286738458, -3.233234754419552e-06, 0.00038976892709636964, -1.0938066462363626e-06, -1.1241869927782069e-06, 0.0007900897556848216, -1.1274701162983317e-05, -3.1898799813396503e-06, -3.232711718151774e-07, 0.00029483021336776225, -3.4542343419156196e-06, -1.7538835631436244e-06, -1.0552728519478535e-06]]], "vb": [[0.0015080339004901037, -7.721127358590975e-06, 0.000878674721534379, 0.0002524076875439218, -1.241846544333236e-05, 0.0009937559659782126, -6.044711028290826e-06, -2.8304232095130697e-06, 0.0020784119340595906, 7.683617234960878e-06, 6.002676126043147e-07, -1.8350138869348713e-07, 0.0008774338988906077, -9.64105633505212e-06, 7.755707789485322e-06, -6.774044360553994e-06], [0.0017748829818528232]]}}