{"version": 1, "model": {"layer_sizes": [5, 16, 1], "lr": 0.03, "momentum": 0.9, "grad_clip": 3.0, "total_samples": 1381, "W": [[[1.2264572779673075, 0.9167098936040888, 0.041954449334932704, -0.48353986153823236, -0.6907509918316201], [-0.02274623398110702, -0.6464348041825333, -0.9087307311439718, 0.12605596212771603, 0.08435350654913912], [0.6462884705764493, -0.5780459794834379, 0.003165619319023322, -0.04094628450130507, -0.9523698821441012], [0.31319260611939004, 0.20283551001133254, 1.5110071283958506, 0.12836897902201092, -0.09151777529694573], [0.5134463219068717, 0.12572662463981144, 0.5749217012808462, -0.23119049338194606, 0.137983970293719], [0.8669190996717335, 0.4403452810123505, 0.08125298436065588, -0.6845116975202081, 0.2815829729115831], [0.010348980197184391, 0.45566371728464317, 0.13675771771954995, 0.6882288831510016, -0.032609575100486295], [0.07106936111144013, 0.4217064472385048, -0.6874061856520259, -0.25403225348189823, -0.3162458346088078], [1.7590249927200485, -0.05873110184204383, 0.41250028865134114, 0.3917271844754705, -0.17763995472297467], [-0.9762642263048182, 0.6102209068034645, -0.25753384959998116, 0.45407565931871485, -0.8255219594097656], [-0.27663645897963757, 0.7948836121736637, 0.9050463886060675, -0.8237471601839077, -0.84294146328566], [-0.028101580955470235, 0.46058025358844906, 0.10151207239074857, 0.19198485424004202, -0.6253950672515969], [0.6591317525819104, 0.7063594416167539, -0.2755434956086589, -0.9066174559682012, -0.4799204277611376], [0.28525042046137866, -1.0964863798482016, -0.05810798271313834, -0.6267686722314738, -0.08293670326895732], [-0.15008175206608498, 0.010028710300835318, 0.9494469225219566, 0.2660806474441458, 0.8435140039500585], [-0.0934138829718504, -0.3033172032094295, 0.23958084834702262, -1.7935115707259193, -0.02522790151826406]], [[0.9068509720725884, -0.43510638291421494, 0.5247681502608057, 0.15750200443842713, -0.6996789502728938, 0.6007025612344618, -0.3406198403466031, -0.159504302630629, 1.2534851426211069, 0.432054987889376, 0.03357861933314518, -0.010363271670579979, 0.5247559173819069, -0.5432757817855405, 0.43683757955438984, -0.38174161428278663]]], "b": [[-0.3718465737179355, -0.07527843446197968, -0.19006442895518325, -0.10424693527688893, -0.5165165571772558, -0.26789413457712263, -0.06881352365069363, -0.10970403142119073, -0.539228276502274, -0.0007334434245804686, -5.099173613332983e-05, 1.913469600801765e-05, -0.1951509750208369, -0.38058112145478284, -0.0007666194553040818, 0.0006766528156814985], [-0.17654552692525013]], "vW": [[[0.0010285691385352597, 0.0, 0.0, 0.0, 0.0], [-5.049206562186025e-06, 0.0, 0.0, 0.0, 0.0], [0.0005959002277317988, 0.0, 0.0, 0.0, 0.0], [0.00017754060541737927, 0.0, 0.0, 0.0, 0.0], [-8.11842424821456e-06, 0.0, 0.0, 0.0, 0.0], [0.0006807299991722563, 0.0, 0.0, 0.0, 0.0], [-3.952776781587887e-06, 0.0, 0.0, 0.0, 0.0], [-1.8505962514280891e-06, 0.0, 0.0, 0.0, 0.0], [0.0014210277073802005, 0.0, 0.0, 0.0, 0.0], [5.0192033437632674e-06, 0.0, 0.0, 0.0, 0.0], [3.910322044335773e-07, 0.0, 0.0, 0.0, 0.0], [-1.2014740592326568e-07, 0.0, 0.0, 0.0, 0.0], [0.0005957449676899285, 0.0, 0.0, 0.0, 0.0], [-6.303319198745975e-06, 0.0, 0.0, 0.0, 0.0], [5.070811573241077e-06, 0.0, 0.0, 0.0, 0.0], [-4.430197325693482e-06, 0.0, 0.0, 0.0, 0.0]], [[0.0005384951245605155, -1.618569205893112e-06, 0.00028347285779280635, 0.00013797034803901976, -3.388212522229409e-06, 0.00038088364026088694, -1.1194533329656488e-06, -1.1602154900353247e-06, 0.0007726189514574603, -1.1354230935461436e-05, -3.212449449356731e-06, -3.2556907685648086e-07, 0.00028917072610586657, -3.576052969027784e-06, -1.765969105476283e-06, -1.0630432777816498e-06]]], "vb": [[0.0015987769971457177, -7.886282428497395e-06, 0.0009263147850702882, 0.0002758605583824702, -1.2679344996185244e-05, 0.0010580501126207379, -6.173792739072393e-06, -2.8902113098995644e-06, 0.002208737109277114, 7.841520648472049e-06, 6.112681605765141e-07, -1.876151307264578e-07, 0.0009260602023618086, -9.844401335830643e-06, 7.920659839327475e-06, -6.919614102891973e-06], [0.0018128643100800146]]}}