{"version": 1, "model": {"layer_sizes": [5, 16, 1], "lr": 0.03, "momentum": 0.9, "grad_clip": 3.0, "total_samples": 1186, "W": [[[1.1626973047897986, 0.9167098936040888, 0.041954449334932704, -0.48353986153823236, -0.6907509918316201], [-0.022405061149516185, -0.6464348041825333, -0.9087307311439718, 0.12605596212771603, 0.08435350654913912], [0.6090077101957706, -0.5780459794834379, 0.003165619319023322, -0.04094628450130507, -0.9523698821441012], [0.3027264372047167, 0.20283551001133254, 1.5110071283958506, 0.12836897902201092, -0.09151777529694573], [0.5139949988709418, 0.12572662463981144, 0.5749217012808462, -0.23119049338194606, 0.137983970293719], [0.825014807503422, 0.4403452810123505, 0.08125298436065588, -0.6845116975202081, 0.2815829729115831], [0.010616083564362026, 0.45566371728464317, 0.13675771771954995, 0.6882288831510016, -0.032609575100486295], [0.0711943985939174, 0.4217064472385048, -0.6874061856520259, -0.25403225348189823, -0.3162458346088078], [1.671280241219981, -0.05873110184204383, 0.41250028865134114, 0.3917271844754705, -0.17763995472297467], [-0.9766043367377552, 0.6102209068034645, -0.25753384959998116, 0.45407565931871485, -0.8255219594097656], [-0.2766631354547548, 0.7948836121736637, 0.9050463886060675, -0.8237471601839077, -0.84294146328566], [-0.028093485586845043, 0.46058025358844906, 0.10151207239074857, 0.19198485424004202, -0.6253950672515969], [0.6219298564261508, 0.7063594416167539, -0.2755434956086589, -0.9066174559682012, -0.4799204277611376], [0.28567634294365357, -1.0964863798482016, -0.05810798271313834, -0.6267686722314738, -0.08293670326895732], [-0.15042461157776024, 0.010028710300835318, 0.9494469225219566, 0.2660806474441458, 0.8435140039500585], [-0.09311453900555544, -0.3033172032094295, 0.23958084834702262, -1.7935115707259193, -0.02522790151826406]], [[0.8380155172804973, -0.4351196807225529, 0.4910313881816446, 0.13591762167223748, -0.7002844477628838, 0.5498665486355826, -0.3406561516945867, -0.15960316235959895, 1.1522089940074214, 0.4328226017242604, 0.03379576721241436, -0.010341269696937376, 0.48978404851092894, -0.543649051563834, 0.4369571067465235, -0.38166990283607666]]], "b": [[-0.3294815894579526, -0.07544669077980036, -0.16566334728391716, -0.09670844920343431, -0.5167876631112447, -0.2397331353153882, -0.0689452324234341, -0.10976587922548002, -0.4805548153908259, -0.0005682255997566377, -3.8470560798953495e-05, 1.5089847530870164e-05, -0.1707272910511191, -0.3807917327511711, -0.0005982416391580028, 0.000529154438739922], [-0.13794564393506736]], "vW": [[[0.0009303918272332594, 0.0, 0.0, 0.0, 0.0], [-4.960401124934482e-06, 0.0, 0.0, 0.0, 0.0], [0.000546085275657892, 0.0, 0.0, 0.0, 0.0], [0.00014943687344163502, 0.0, 0.0, 0.0, 0.0], [-7.982300281186546e-06, 0.0, 0.0, 0.0, 0.0], [0.0006096834179158979, 0.0, 0.0, 0.0, 0.0], [-3.883552174542942e-06, 0.0, 0.0, 0.0, 0.0], [-1.8191167157755656e-06, 0.0, 0.0, 0.0, 0.0], [0.0012782881606575778, 0.0, 0.0, 0.0, 0.0], [4.9396362837810174e-06, 0.0, 0.0, 0.0, 0.0], [3.8664731759057323e-07, 0.0, 0.0, 0.0, 0.0], [-1.177772803433264e-07, 0.0, 0.0, 0.0, 0.0], [0.0005445126082564879, 0.0, 0.0, 0.0, 0.0], [-6.196516744984809e-06, 0.0, 0.0, 0.0, 0.0], [4.982863902180327e-06, 0.0, 0.0, 0.0, 0.0], [-4.3513297875467e-06, 0.0, 0.0, 0.0, 0.0]], [[0.0005633208814794432, -1.5448356490956512e-06, 0.00029480117760654283, 0.0001470799699334099, -3.0244020419402264e-06, 0.00039993882716748047, -1.0585486638140284e-06, -1.0751565268945857e-06, 0.0008099880379334797, -1.115501933812069e-05, -3.155937760490349e-06, -3.1981873553735884e-07, 0.00030111459338318694, -3.2889026708628527e-06, -1.7356053059930464e-06, -1.0436834479110585e-06]]], "vb": [[0.0013964639025018173, -7.492965346260864e-06, 0.0008197686970033513, 0.00022409618716918918, -1.2056914275331303e-05, 0.0009149905370785382, -5.866332725194216e-06, -2.747643682960391e-06, 0.0019185088127304738, 7.4639249730161255e-06, 5.846285971815926e-07, -1.7786358136465187e-07, 0.0008173825611120723, -9.359440636002136e-06, 7.527600608782697e-06, -6.573101835465339e-06], [0.00172241573676668]]}}