{"version": 1, "model": {"layer_sizes": [5, 16, 1], "lr": 0.03, "momentum": 0.9, "grad_clip": 3.0, "total_samples": 33, "W": [[[0.8416298866227666, 0.9167098936040888, 0.041954449334932704, -0.48353986153823236, -0.6907509918316201], [-0.01816640378667712, -0.6464348041825333, -0.9087307311439718, 0.12605596212771603, 0.08435350654913912], [0.39570334602102203, -0.5780459794834379, 0.003165619319023322, -0.04094628450130507, -0.9523698821441012], [0.2904182989264817, 0.20283551001133254, 1.5110071283958506, 0.12836897902201092, -0.09151777529694573], [0.5369347347057638, 0.12572662463981144, 0.5749217012808462, -0.23119049338194606, 0.137983970293719], [0.6359815743757994, 0.4403452810123505, 0.08125298436065588, -0.6845116975202081, 0.2815829729115831], [0.014078334718612053, 0.45566371728464317, 0.13675771771954995, 0.6882288831510016, -0.032609575100486295], [0.07595440944756607, 0.4217064472385048, -0.6874061856520259, -0.25403225348189823, -0.3162458346088078], [1.2551481163453564, -0.05873110184204383, 0.41250028865134114, 0.3917271844754705, -0.17763995472297467], [-0.9796178824531273, 0.6102209068034645, -0.25753384959998116, 0.45407565931871485, -0.8255219594097656], [-0.27690466101586986, 0.7948836121736637, 0.9050463886060675, -0.8237471601839077, -0.84294146328566], [-0.028023080470505383, 0.46058025358844906, 0.10151207239074857, 0.19198485424004202, -0.6253950672515969], [0.414207932383887, 0.7063594416167539, -0.2755434956086589, -0.9066174559682012, -0.4799204277611376], [0.302100503277218, -1.0964863798482016, -0.05810798271313834, -0.6267686722314738, -0.08293670326895732], [-0.15344100791456466, 0.010028710300835318, 0.9494469225219566, 0.2660806474441458, 0.8435140039500585], [-0.09048676971348031, -0.3033172032094295, 0.23958084834702262, -1.7935115707259193, -0.02522790151826406]], [[0.28534267589699674, -0.43558155513658486, 0.27090938795514075, -0.11753543463856718, -0.7160530834353495, 0.09809820044694942, -0.3414119035347084, -0.16197412655230992, 0.28805334995431214, 0.4395867568639117, 0.03570529922643826, -0.010148405818702758, 0.24945646216229592, -0.5529345299855206, 0.4380268753294495, -0.38105683748671415]]], "b": [[0.053820626416317546, -0.07596818460099755, 0.10017289278213475, -0.09968198587239799, -0.48545872059097084, -0.02367093346555726, -0.06906879901219681, -0.10355775524329125, 0.004993495400040273, 0.002434896294155381, 0.00020022303333046696, -5.558407373461568e-05, 0.08617653366165047, -0.3592286320642394, 0.0024160446517695047, -0.002099032504726243], [0.5511400657958966]], "vW": [[[7.69320071744289e-05, 0.0, 0.0, 0.0, 0.0], [-0.0001450401822318502, 0.0, 0.0, 0.0, 0.0], [0.0002536427263464364, 0.0, 0.0, 0.0, 0.0], [-0.00031694771374715723, 0.0, 0.0, 0.0, 0.0], [-0.0020225309794005084, 0.0, 0.0, 0.0, 0.0], [-0.00012875810173548552, 0.0, 0.0, 0.0, 0.0], [-0.00012943761594136295, 0.0, 0.0, 0.0, 0.0], [-0.0004090836290323688, 0.0, 0.0, 0.0, 0.0], [-0.00010391000715832789, 0.0, 0.0, 0.0, 0.0], [7.350558582672757e-06, 0.0, 0.0, 0.0, 0.0], [6.063116653227513e-07, 0.0, 0.0, 0.0, 0.0], [-1.673193017891018e-07, 0.0, 0.0, 0.0, 0.0], [0.00021124137584502788, 0.0, 0.0, 0.0, 0.0], [-0.0014166744041031966, 0.0, 0.0, 0.0, 0.0], [7.285849605261178e-06, 0.0, 0.0, 0.0, 0.0], [-6.327732306421059e-06, 0.0, 0.0, 0.0, 0.0]], [[0.0012804127017744201, 3.8170352204110205e-06, 0.0005325363866585627, 0.0005515489248638207, 0.0009481156813254672, 0.0010272482554419735, 1.7799337152090548e-05, 0.00012102802781053082, 0.0019793580484595767, -1.630098342437608e-05, -4.60316593246004e-06, -4.651359810894584e-07, 0.0005747727558309363, 0.0005087751814525048, -2.5723236492176456e-06, -1.4839623841699978e-06]]], "vb": [[0.0001538640143488578, -0.0002900803644637004, 0.0005072854526928728, -0.0006338954274943145, -0.004045061958801017, -0.00025751620347097103, -0.0002588752318827259, -0.0008181672580647376, -0.00020782001431665577, 1.4701117165345514e-05, 1.2126233306455026e-06, -3.346386035782036e-07, 0.00042248275169005575, -0.002833348808206393, 1.4571699210522357e-05, -1.2655464612842118e-05], [0.003323392673967629]]}}