{"version": 1, "model": {"layer_sizes": [5, 16, 1], "lr": 0.03, "momentum": 0.9, "grad_clip": 3.0, "total_samples": 1407, "W": [[[1.2349320113005768, 0.9167098936040888, 0.041954449334932704, -0.48353986153823236, -0.6907509918316201], [-0.022789577648522224, -0.6464348041825333, -0.9087307311439718, 0.12605596212771603, 0.08435350654913912], [0.6512076112400629, -0.5780459794834379, 0.003165619319023322, -0.04094628450130507, -0.9523698821441012], [0.3146407116088569, 0.20283551001133254, 1.5110071283958506, 0.12836897902201092, -0.09151777529694573], [0.5133766506228672, 0.12572662463981144, 0.5749217012808462, -0.23119049338194606, 0.137983970293719], [0.872519862373867, 0.4403452810123505, 0.08125298436065588, -0.6845116975202081, 0.2815829729115831], [0.0103150479630464, 0.45566371728464317, 0.13675771771954995, 0.6882288831510016, -0.032609575100486295], [0.07105348174545245, 0.4217064472385048, -0.6874061856520259, -0.25403225348189823, -0.3162458346088078], [1.7707239618809754, -0.05873110184204383, 0.41250028865134114, 0.3917271844754705, -0.17763995472297467], [-0.9762210537445662, 0.6102209068034645, -0.25753384959998116, 0.45407565931871485, -0.8255219594097656], [-0.27663308049045887, 0.7948836121736637, 0.9050463886060675, -0.8237471601839077, -0.84294146328566], [-0.028102610542452163, 0.46058025358844906, 0.10151207239074857, 0.19198485424004202, -0.6253950672515969], [0.664047725446606, 0.7063594416167539, -0.2755434956086589, -0.9066174559682012, -0.4799204277611376], [0.2851963315468692, -1.0964863798482016, -0.05810798271313834, -0.6267686722314738, -0.08293670326895732], [-0.15003819827966686, 0.010028710300835318, 0.9494469225219566, 0.2660806474441458, 0.8435140039500585], [-0.09345191761793772, -0.3033172032094295, 0.23958084834702262, -1.7935115707259193, -0.02522790151826406]], [[0.915545727598507, -0.4351048284570556, 0.529049202535982, 0.1601972765485751, -0.699602889243865, 0.6071068480206021, -0.3406153489709903, -0.15949192696017908, 1.2662577579692957, 0.4319574743550088, 0.03355103195782772, -0.010366067215811047, 0.5291889867544438, -0.5432289975749209, 0.43682240411862705, -0.3817507340061781]]], "b": [[-0.3772995464376241, -0.07525777028074504, -0.19318791481619027, -0.1052445362274174, -0.5164832727029538, -0.2715337023853505, -0.06879734885931955, -0.1096964365706266, -0.5467977522438381, -0.0007536925450439228, -5.2518249583171724e-05, 1.9632507576694638e-05, -0.19828087336083927, -0.3805552601228843, -0.0007872895656852825, 0.0006947687305204157], [-0.18128544968193816]], "vW": [[[0.0010405607995831179, 0.0, 0.0, 0.0, 0.0], [-5.057596883328111e-06, 0.0, 0.0, 0.0, 0.0], [0.000601961566526632, 0.0, 0.0, 0.0, 0.0], [0.0001810099265102175, 0.0, 0.0, 0.0, 0.0], [-8.131058839097783e-06, 0.0, 0.0, 0.0, 0.0], [0.0006894277751782068, 0.0, 0.0, 0.0, 0.0], [-3.959306934366986e-06, 0.0, 0.0, 0.0, 0.0], [-1.8535343385587033e-06, 0.0, 0.0, 0.0, 0.0], [0.001438485657275927, 0.0, 0.0, 0.0, 0.0], [5.026417954414057e-06, 0.0, 0.0, 0.0, 0.0], [3.9136000426437724e-07, 0.0, 0.0, 0.0, 0.0], [-1.2038022274274663e-07, 0.0, 0.0, 0.0, 0.0], [0.0006019841373061657, 0.0, 0.0, 0.0, 0.0], [-6.3132724546374046e-06, 0.0, 0.0, 0.0, 0.0], [5.0790770498750954e-06, 0.0, 0.0, 0.0, 0.0], [-4.437680845744902e-06, 0.0, 0.0, 0.0, 0.0]], [[0.0005351703890189139, -1.6263656182692855e-06, 0.0002819189537295119, 0.00013680846070358757, -3.4281023296320557e-06, 0.00037836332688780263, -1.1259618339180232e-06, -1.1694247022118876e-06, 0.0007676513589270587, -1.1373033611343207e-05, -3.2177884439322047e-06, -3.2611313758685163e-07, 0.00028754184409029537, -3.6072506892722054e-06, -1.7688136878867373e-06, -1.0648949134247115e-06]]], "vb": [[0.0016235303695437656, -7.928043008033901e-06, 0.0009392674112479529, 0.00028232587831938233, -1.2745159202024049e-05, 0.0010756254514305984, -6.2064251124332125e-06, -2.905305133760245e-06, 0.002244330994119763, 7.881243532685401e-06, 6.139915082309295e-07, -1.8866129266257228e-07, 0.0009392905536365743, -9.895727021484328e-06, 7.962339343916739e-06, -6.956443788450349e-06], [0.0018224686751150548]]}}