{"version": 1, "model": {"layer_sizes": [5, 16, 1], "lr": 0.03, "momentum": 0.9, "grad_clip": 3.0, "total_samples": 1446, "W": [[[1.247630232932231, 0.9167098936040888, 0.041954449334932704, -0.48353986153823236, -0.6907509918316201], [-0.022853734760385394, -0.6464348041825333, -0.9087307311439718, 0.12605596212771603, 0.08435350654913912], [0.658564343151916, -0.5780459794834379, 0.003165619319023322, -0.04094628450130507, -0.9523698821441012], [0.3168324902511564, 0.20283551001133254, 1.5110071283958506, 0.12836897902201092, -0.09151777529694573], [0.513273537615133, 0.12572662463981144, 0.5749217012808462, -0.23119049338194606, 0.137983970293719], [0.8809238000861046, 0.4403452810123505, 0.08125298436065588, -0.6845116975202081, 0.2815829729115831], [0.010264822197648089, 0.45566371728464317, 0.13675771771954995, 0.6882288831510016, -0.032609575100486295], [0.0710299795542391, 0.4217064472385048, -0.6874061856520259, -0.25403225348189823, -0.3162458346088078], [1.788267255442904, -0.05873110184204383, 0.41250028865134114, 0.3917271844754705, -0.17763995472297467], [-0.9761571648189501, 0.6102209068034645, -0.25753384959998116, 0.45407565931871485, -0.8255219594097656], [-0.27662808402743494, 0.7948836121736637, 0.9050463886060675, -0.8237471601839077, -0.84294146328566], [-0.028104134996957554, 0.46058025358844906, 0.10151207239074857, 0.19198485424004202, -0.6253950672515969], [0.6714025338424264, 0.7063594416167539, -0.2755434956086589, -0.9066174559682012, -0.4799204277611376], [0.28511627825066466, -1.0964863798482016, -0.05810798271313834, -0.6267686722314738, -0.08293670326895732], [-0.14997373187566657, 0.010028710300835318, 0.9494469225219566, 0.2660806474441458, 0.8435140039500585], [-0.09350821841446304, -0.3033172032094295, 0.23958084834702262, -1.7935115707259193, -0.02522790151826406]], [[0.9283921456587875, -0.4351025778998105, 0.5353820395907616, 0.16416747439235468, -0.6994906248237378, 0.6165625691005489, -0.34060874623865844, -0.15947367684888172, 1.2851215106093776, 0.43181313778515124, 0.033510197141496646, -0.010370205307793241, 0.5357448819795028, -0.5431599845787676, 0.43679994532614375, -0.3817642366570228]]], "b": [[-0.3854026506174808, -0.07522744730989372, -0.1978228905772133, -0.10673726172675432, -0.5164344349124399, -0.276947691565044, -0.06877361404135178, -0.10968529210524136, -0.5580525264063853, -0.0007833892445802967, -5.475366213696532e-05, 2.036343432240356e-05, -0.20292669930534535, -0.38051731257406196, -0.0008176175260228745, 0.0007213527602669553], [-0.18824061187547933]], "vW": [[[0.0010580851188368096, 0.0, 0.0, 0.0, 0.0], [-5.068826860635327e-06, 0.0, 0.0, 0.0, 0.0], [0.0006108095343167266, 0.0, 0.0, 0.0, 0.0], [0.00018609558209333103, 0.0, 0.0, 0.0, 0.0], [-8.147846154441577e-06, 0.0, 0.0, 0.0, 0.0], [0.0007021470201873586, 0.0, 0.0, 0.0, 0.0], [-3.968041637886549e-06, 0.0, 0.0, 0.0, 0.0], [-1.8574471238459101e-06, 0.0, 0.0, 0.0, 0.0], [0.0014640082543006647, 0.0, 0.0, 0.0, 0.0], [5.03590951512792e-06, 0.0, 0.0, 0.0, 0.0], [3.9175168266851595e-07, 0.0, 0.0, 0.0, 0.0], [-1.206966728397465e-07, 0.0, 0.0, 0.0, 0.0], [0.0006110939948061156, 0.0, 0.0, 0.0, 0.0], [-6.326519414357123e-06, 0.0, 0.0, 0.0, 0.0], [5.090116126422487e-06, 0.0, 0.0, 0.0, 0.0], [-4.4477146366993756e-06, 0.0, 0.0, 0.0, 0.0]], [[0.0005301984755598647, -1.637252390352881e-06, 0.00027958248938101993, 0.00013509100960863976, -3.484491925910484e-06, 0.00037460529222972536, -1.1350834634078997e-06, -1.1823883523764748e-06, 0.000760235441712586, -1.1398189238289156e-05, -3.2249342493929897e-06, -3.268417666576579e-07, 0.0002850958318621508, -3.6512185813861075e-06, -1.7726072972257342e-06, -1.0673859744043137e-06]]], "vb": [[0.001659695467845011, -7.986437305782782e-06, 0.0009581576841739385, 0.0002918251037047261, -1.2837058018011212e-05, 0.0011013323112678219, -6.252049470780219e-06, -2.9263903386867573e-06, 0.002296368181230355, 7.936612867836407e-06, 6.177494922305088e-07, -1.901292949640083e-07, 0.0009585934273459338, -9.96741757239481e-06, 8.020594680649306e-06, -7.007961572402673e-06], [0.001835899024087317]]}}