{"version": 1, "model": {"layer_sizes": [5, 16, 1], "lr": 0.03, "momentum": 0.9, "grad_clip": 3.0, "total_samples": 272, "W": [[[0.8767941607040978, 0.9167098936040888, 0.041954449334932704, -0.48353986153823236, -0.6907509918316201], [-0.020182377922592244, -0.6464348041825333, -0.9087307311439718, 0.12605596212771603, 0.08435350654913912], [0.42743648777653315, -0.5780459794834379, 0.003165619319023322, -0.04094628450130507, -0.9523698821441012], [0.2785438023643713, 0.20283551001133254, 1.5110071283958506, 0.12836897902201092, -0.09151777529694573], [0.5175818143616685, 0.12572662463981144, 0.5749217012808462, -0.23119049338194606, 0.137983970293719], [0.6494908131599987, 0.4403452810123505, 0.08125298436065588, -0.6845116975202081, 0.2815829729115831], [0.012356720612867276, 0.45566371728464317, 0.13675771771954995, 0.6882288831510016, -0.032609575100486295], [0.0720110701829916, 0.4217064472385048, -0.6874061856520259, -0.25403225348189823, -0.3162458346088078], [1.2923077653960438, -0.05873110184204383, 0.41250028865134114, 0.3917271844754705, -0.17763995472297467], [-0.9788328463367656, 0.6102209068034645, -0.25753384959998116, 0.45407565931871485, -0.8255219594097656], [-0.2768406637370644, 0.7948836121736637, 0.9050463886060675, -0.8237471601839077, -0.84294146328566], [-0.028041144222636826, 0.46058025358844906, 0.10151207239074857, 0.19198485424004202, -0.6253950672515969], [0.4436323529979318, 0.7063594416167539, -0.2755434956086589, -0.9066174559682012, -0.4799204277611376], [0.28845889217152193, -1.0964863798482016, -0.05810798271313834, -0.6267686722314738, -0.08293670326895732], [-0.15265972874021344, 0.010028710300835318, 0.9494469225219566, 0.2660806474441458, 0.8435140039500585], [-0.0911661708444776, -0.3033172032094295, 0.23958084834702262, -1.7935115707259193, -0.02522790151826406]], [[0.3983037910260847, -0.4352633237468568, 0.2870723437783077, -0.020198724788056913, -0.7045886316207972, 0.21520963725635278, -0.3409440159269329, -0.1603237646610166, 0.4936614649836568, 0.4378274437690538, 0.03521048356234968, -0.010198095970877327, 0.27559415314327457, -0.5463462089759522, 0.437740959010621, -0.38120752399258534]]], "b": [[-0.08606273863784727, -0.07683802151420059, -0.016159870911100414, -0.06808467524412937, -0.5190356003140286, -0.08591989263277158, -0.07003472833355341, -0.11027802886187132, -0.15278225360026065, 0.0008142572164774943, 6.950690903638944e-05, -1.7933580521803916e-05, -0.022979703935282515, -0.3825364021881755, 0.0007973218083989462, -0.000689797787923964], [0.18142812425797897]], "vW": [[[0.0005812214786406057, 0.0, 0.0, 0.0, 0.0], [-6.788284675556286e-06, 0.0, 0.0, 0.0, 0.0], [0.0004259341196274197, 0.0, 0.0, 0.0, 0.0], [-4.057261226006729e-05, 0.0, 0.0, 0.0, 0.0], [-1.0987970629345665e-05, 0.0, 0.0, 0.0, 0.0], [0.00030800465812625994, 0.0, 0.0, 0.0, 0.0], [-5.3173619479533324e-06, 0.0, 0.0, 0.0, 0.0], [-2.5000490770011908e-06, 0.0, 0.0, 0.0, 0.0], [0.0007133074010601543, 0.0, 0.0, 0.0, 0.0], [6.8345214318519515e-06, 0.0, 0.0, 0.0, 0.0], [5.507348162041296e-07, 0.0, 0.0, 0.0, 0.0], [-1.5891175685676652e-07, 0.0, 0.0, 0.0, 0.0], [0.00040776009234055053, 0.0, 0.0, 0.0, 0.0], [-8.519762527097033e-06, 0.0, 0.0, 0.0, 0.0], [6.828600663616601e-06, 0.0, 0.0, 0.0, 0.0], [-5.945459359888342e-06, 0.0, 0.0, 0.0, 0.0]], [[0.001096198963960712, -1.8096813295366751e-06, 0.0005605720332583902, 0.00030690083633692846, -2.082960770536398e-06, 0.0007895211753257257, -1.1712404573418104e-06, -1.0343437836221416e-06, 0.0015893721533265207, -1.5263009203354417e-05, -4.317639354400482e-06, -4.3746397405805883e-07, 0.0005755134750141464, -2.9851489580401243e-06, -2.3769173716126823e-06, -1.425576943915927e-06]]], "vb": [[0.0007143617714619719, -8.530498412873092e-06, 0.0005246734692311372, -5.171568179330696e-05, -1.3805935279308933e-05, 0.00037755314295721473, -6.682046060776781e-06, -3.1411660054219316e-06, 0.0008755275959794421, 8.591701999542197e-06, 6.928128210852222e-07, -1.9964485054904858e-07, 0.0005020989592052006, -1.0704631472479698e-05, 8.582249248142721e-06, -7.47176333057016e-06], [0.0019602538185651023]]}}