{"version": 1, "model": {"layer_sizes": [5, 16, 1], "lr": 0.03, "momentum": 0.9, "grad_clip": 3.0, "total_samples": 1342, "W": [[[1.213731711610194, 0.9167098936040888, 0.041954449334932704, -0.48353986153823236, -0.6907509918316201], [-0.02268032545338187, -0.6464348041825333, -0.9087307311439718, 0.12605596212771603, 0.08435350654913912], [0.6388872692696224, -0.5780459794834379, 0.003165619319023322, -0.04094628450130507, -0.9523698821441012], [0.311041323908347, 0.20283551001133254, 1.5110071283958506, 0.12836897902201092, -0.09151777529694573], [0.51355227908529, 0.12572662463981144, 0.5749217012808462, -0.23119049338194606, 0.137983970293719], [0.8585216664302133, 0.4403452810123505, 0.08125298436065588, -0.6845116975202081, 0.2815829729115831], [0.010400578277345758, 0.45566371728464317, 0.13675771771954995, 0.6882288831510016, -0.032609575100486295], [0.07109350981943065, 0.4217064472385048, -0.6874061856520259, -0.25403225348189823, -0.3162458346088078], [1.7414727019729934, -0.05873110184204383, 0.41250028865134114, 0.3917271844754705, -0.17763995472297467], [-0.9763298902282831, 0.6102209068034645, -0.25753384959998116, 0.45407565931871485, -0.8255219594097656], [-0.27664160088017886, 0.7948836121736637, 0.9050463886060675, -0.8237471601839077, -0.84294146328566], [-0.028100015847259754, 0.46058025358844906, 0.10151207239074857, 0.19198485424004202, -0.6253950672515969], [0.651738283142297, 0.7063594416167539, -0.2755434956086589, -0.9066174559682012, -0.4799204277611376], [0.28533267754839087, -1.0964863798482016, -0.05810798271313834, -0.6267686722314738, -0.08293670326895732], [-0.15014798190022147, 0.010028710300835318, 0.9494469225219566, 0.2660806474441458, 0.8435140039500585], [-0.0933560495324233, -0.3033172032094295, 0.23958084834702262, -1.7935115707259193, -0.02522790151826406]], [[0.893605971429549, -0.4351088013610086, 0.5182548464235661, 0.1533833200000649, -0.6997949583302672, 0.5909396920564549, -0.34062671930458344, -0.15952319550648195, 1.2340200024011128, 0.432203270008336, 0.03362056868560069, -0.010359020900668089, 0.5180093864102696, -0.543347179911848, 0.4368606594223652, -0.3817277506904436]]], "b": [[-0.3635868131451116, -0.07531014428145309, -0.18532619442512502, -0.1027469131479923, -0.5165676379449208, -0.2623872090798486, -0.06883834473187019, -0.10971568632882575, -0.5277696397531167, -0.0007023522763854374, -4.864435242194493e-05, 1.8371245011124298e-05, -0.1904044483667619, -0.38062080840905027, -0.0007348966060170684, 0.0006488538501139662], [-0.16927167368717463]], "vW": [[[0.0010101089549003578, 0.0, 0.0, 0.0, 0.0], [-5.035201786420664e-06, 0.0, 0.0, 0.0, 0.0], [0.0005865588690178518, 0.0, 0.0, 0.0, 0.0], [0.00017221633052102826, 0.0, 0.0, 0.0, 0.0], [-8.09720508596663e-06, 0.0, 0.0, 0.0, 0.0], [0.0006673494394961608, 0.0, 0.0, 0.0, 0.0], [-3.941871079449679e-06, 0.0, 0.0, 0.0, 0.0], [-1.8456713811125662e-06, 0.0, 0.0, 0.0, 0.0], [0.001394163096404599, 0.0, 0.0, 0.0, 0.0], [5.0069872269279285e-06, 0.0, 0.0, 0.0, 0.0], [3.904354254177169e-07, 0.0, 0.0, 0.0, 0.0], [-1.1976389878331268e-07, 0.0, 0.0, 0.0, 0.0], [0.0005861319660676277, 0.0, 0.0, 0.0, 0.0], [-6.286626691241416e-06, 0.0, 0.0, 0.0, 0.0], [5.056990067578399e-06, 0.0, 0.0, 0.0, 0.0], [-4.417724602696901e-06, 0.0, 0.0, 0.0, 0.0]], [[0.0005434901053706287, -1.606031723648164e-06, 0.00028579345729841914, 0.00013973794741059366, -3.324791527448134e-06, 0.0003846820602497034, -1.109022040201846e-06, -1.1455159442133169e-06, 0.0007800961235381918, -1.1322835174043907e-05, -3.2035376795536287e-06, -3.246614052039148e-07, 0.00029160679621227344, -3.5263100199996992e-06, -1.7612067973918346e-06, -1.0599658642702144e-06]]], "vb": [[0.0015606724388395276, -7.819212858914056e-06, 0.0009063397765217208, 0.0002659651409481376, -1.2573506176538973e-05, 0.0010310262550899524, -6.1213772984157305e-06, -2.865947946209291e-06, 0.0021539813489885734, 7.777537271517667e-06, 6.068411389261433e-07, -1.8594040118941436e-07, 0.000905665001167007, -9.76188614805311e-06, 7.853693308133332e-06, -6.8604833373641765e-06], [0.0017974397045866187]]}}