{"version": 1, "model": {"layer_sizes": [5, 16, 1], "lr": 0.03, "momentum": 0.9, "grad_clip": 3.0, "total_samples": 1017, "W": [[[1.1073687228969435, 0.9167098936040888, 0.041954449334932704, -0.48353986153823236, -0.6907509918316201], [-0.022083082580959545, -0.6464348041825333, -0.9087307311439718, 0.12605596212771603, 0.08435350654913912], [0.576176665627552, -0.5780459794834379, 0.003165619319023322, -0.04094628450130507, -0.9523698821441012], [0.2944026817493861, 0.20283551001133254, 1.5110071283958506, 0.12836897902201092, -0.09151777529694573], [0.5145132522168078, 0.12572662463981144, 0.5749217012808462, -0.23119049338194606, 0.137983970293719], [0.7890644303667093, 0.4403452810123505, 0.08125298436065588, -0.6845116975202081, 0.2815829729115831], [0.010868178103151969, 0.45566371728464317, 0.13675771771954995, 0.6882288831510016, -0.032609575100486295], [0.07131247647484082, 0.4217064472385048, -0.6874061856520259, -0.25403225348189823, -0.3162458346088078], [1.5956212822010098, -0.05873110184204383, 0.41250028865134114, 0.3917271844754705, -0.17763995472297467], [-0.9769257791791776, 0.6102209068034645, -0.25753384959998116, 0.45407565931871485, -0.8255219594097656], [-0.27668844766507755, 0.7948836121736637, 0.9050463886060675, -0.8237471601839077, -0.84294146328566], [-0.028085860206601063, 0.46058025358844906, 0.10151207239074857, 0.19198485424004202, -0.6253950672515969], [0.5892646003437726, 0.7063594416167539, -0.2755434956086589, -0.9066174559682012, -0.4799204277611376], [0.28607858305375816, -1.0964863798482016, -0.05810798271313834, -0.6267686722314738, -0.08293670326895732], [-0.1507482354921202, 0.010028710300835318, 0.9494469225219566, 0.2660806474441458, 0.8435140039500585], [-0.09283210140177149, -0.3033172032094295, 0.23958084834702262, -1.7935115707259193, -0.02522790151826406]], [[0.7726134088433647, -0.43513424326336164, 0.45926749334913897, 0.11495151353904201, -0.7008688019057152, 0.5013167555906076, -0.3406922372524547, -0.1596992106781143, 1.0556925366935008, 0.4335471264008226, 0.034000696325976625, -0.010320510326437052, 0.4567878208339095, -0.5440108572565147, 0.4370700470159254, -0.38160235686901767]]], "b": [[-0.2903051018790279, -0.07561614678481178, -0.14284654542973257, -0.09013568766740782, -0.5170608629023647, -0.21390834802456019, -0.06907789216839359, -0.10982818244533489, -0.4265508318720522, -0.00040125886116138936, -2.5706325510609035e-05, 1.1030542356623214e-05, -0.14794072353670804, -0.3810039159949844, -0.00042854220961304526, 0.00038062097649442685], [-0.09906180276866776]], "vW": [[[0.0008330838330254266, 0.0, 0.0, 0.0, 0.0], [-4.839789101883509e-06, 0.0, 0.0, 0.0, 0.0], [0.000496419748743676, 0.0, 0.0, 0.0, 0.0], [0.00012204266782711671, 0.0, 0.0, 0.0, 0.0], [-7.794449380419995e-06, 0.0, 0.0, 0.0, 0.0], [0.0005395165748449376, 0.0, 0.0, 0.0, 0.0], [-3.7894002712799324e-06, 0.0, 0.0, 0.0, 0.0], [-1.7758888932605724e-06, 0.0, 0.0, 0.0, 0.0], [0.0011371057422170136, 0.0, 0.0, 0.0, 0.0], [4.827581294198458e-06, 0.0, 0.0, 0.0, 0.0], [3.795528977569163e-07, 0.0, 0.0, 0.0, 0.0], [-1.1467527589636587e-07, 0.0, 0.0, 0.0, 0.0], [0.00049350135993485, 0.0, 0.0, 0.0, 0.0], [-6.049658310030263e-06, 0.0, 0.0, 0.0, 0.0], [4.8628383824579746e-06, 0.0, 0.0, 0.0, 0.0], [-4.244636720154323e-06, 0.0, 0.0, 0.0, 0.0]], [[0.0005835016421582202, -1.4557430333363526e-06, 0.0003034345936546321, 0.00015539387338472558, -2.6039251116774086e-06, 0.00041592314431813254, -9.858751945629878e-07, -9.752857744927526e-07, 0.0008409436453313778, -1.0884240679696988e-05, -3.079184590446571e-06, -3.120180818332722e-07, 0.0003103650348028667, -2.953196643482314e-06, -1.6940813451319163e-06, -1.0176563097809468e-06]]], "vb": [[0.0011978984185772473, -7.020222274042663e-06, 0.0007140287470647603, 0.00017513474390056405, -1.1305111614507246e-05, 0.0007755843038772985, -5.496618645711795e-06, -2.575700949738099e-06, 0.0016348304293824951, 7.005110956570659e-06, 5.51192297928896e-07, -1.6628827727937898e-07, 0.0007097872554179428, -8.77431768246131e-06, 7.054444221762716e-06, -6.157136665238624e-06], [0.0016137151862432812]]}}