{"version": 1, "model": {"layer_sizes": [5, 16, 1], "lr": 0.03, "momentum": 0.9, "grad_clip": 3.0, "total_samples": 1316, "W": [[[1.2052394620802436, 0.9167098936040888, 0.041954449334932704, -0.48353986153823236, -0.6907509918316201], [-0.02263577048207534, -0.6464348041825333, -0.9087307311439718, 0.12605596212771603, 0.08435350654913912], [0.6339379277107874, -0.5780459794834379, 0.003165619319023322, -0.04094628450130507, -0.9523698821441012], [0.309621868266187, 0.20283551001133254, 1.5110071283958506, 0.12836897902201092, -0.09151777529694573], [0.5136239175636335, 0.12572662463981144, 0.5749217012808462, -0.23119049338194606, 0.137983970293719], [0.8529265442732163, 0.4403452810123505, 0.08125298436065588, -0.6845116975202081, 0.2815829729115831], [0.010435459628496745, 0.45566371728464317, 0.13675771771954995, 0.6882288831510016, -0.032609575100486295], [0.07110983634769467, 0.4217064472385048, -0.6874061856520259, -0.25403225348189823, -0.3162458346088078], [1.7297696938665614, -0.05873110184204383, 0.41250028865134114, 0.3917271844754705, -0.17763995472297467], [-0.9763742905036694, 0.6102209068034645, -0.25753384959998116, 0.45407565931871485, -0.8255219594097656], [-0.27664507998673993, 0.7948836121736637, 0.9050463886060675, -0.8237471601839077, -0.84294146328566], [-0.028098958147028626, 0.46058025358844906, 0.10151207239074857, 0.19198485424004202, -0.6253950672515969], [0.6467961777859043, 0.7063594416167539, -0.2755434956086589, -0.9066174559682012, -0.4799204277611376], [0.28538829071718685, -1.0964863798482016, -0.05810798271313834, -0.6267686722314738, -0.08293670326895732], [-0.15019275530724724, 0.010028710300835318, 0.9494469225219566, 0.2660806474441458, 0.8435140039500585], [-0.09331695490793272, -0.3033172032094295, 0.23958084834702262, -1.7935115707259193, -0.02522790151826406]], [[0.8846366067853059, -0.4351104750104729, 0.5138498152642148, 0.1505851832340728, -0.6998736288990766, 0.5843234850691811, -0.3406314045164206, -0.15953602005641357, 1.2208326943803325, 0.4323035124225787, 0.03364892689161995, -0.010356147428952835, 0.5134452598687739, -0.5433956287449588, 0.4368762645052999, -0.3817183814296401]]], "b": [[-0.35802444167259656, -0.0753317846369894, -0.1821303855593381, -0.10174455426745088, -0.516602501270124, -0.25868292418971794, -0.06885528412388786, -0.10972364048128351, -0.5200580143562572, -0.000681121597226382, -4.703901344787778e-05, 1.785054166223863e-05, -0.18720405673819063, -0.38064789411643607, -0.0007132446625451496, 0.000629882777053724], [-0.16430743262501094]], "vW": [[[0.0009974818594710756, 0.0, 0.0, 0.0, 0.0], [-5.024880406661224e-06, 0.0, 0.0, 0.0, 0.0], [0.0005801621524620101, 0.0, 0.0, 0.0, 0.0], [0.00016858558300930624, 0.0, 0.0, 0.0, 0.0], [-8.081485172474722e-06, 0.0, 0.0, 0.0, 0.0], [0.0006582029651184204, 0.0, 0.0, 0.0, 0.0], [-3.933830018621901e-06, 0.0, 0.0, 0.0, 0.0], [-1.8420287887752155e-06, 0.0, 0.0, 0.0, 0.0], [0.0013757943207595477, 0.0, 0.0, 0.0, 0.0], [4.9978749353718825e-06, 0.0, 0.0, 0.0, 0.0], [3.899644409274771e-07, 0.0, 0.0, 0.0, 0.0], [-1.194844607392023e-07, 0.0, 0.0, 0.0, 0.0], [0.000579550872395467, 0.0, 0.0, 0.0, 0.0], [-6.27427494032159e-06, 0.0, 0.0, 0.0, 0.0], [5.04678797673258e-06, 0.0, 0.0, 0.0, 0.0], [-4.408543913232271e-06, 0.0, 0.0, 0.0, 0.0]], [[0.0005468204648641376, -1.5970905663932967e-06, 0.0002873306193017886, 0.00014093239568649217, -3.2800365372519743e-06, 0.0003872232836140392, -1.1016058050609988e-06, -1.135104653011395e-06, 0.0007850915936733229, -1.129968994774694e-05, -3.196969710557008e-06, -3.239927403125728e-07, 0.0002932229904098011, -3.4911140216714763e-06, -1.75768820907982e-06, -1.0577060474062786e-06]]], "vb": [[0.0015346156707650984, -7.771438724984033e-06, 0.0008926554543895241, 0.00025923784381398965, -1.2498025895196795e-05, 0.0010125681691460714, -6.0840373195200054e-06, -2.848650583836542e-06, 0.0021165631971072764, 7.731839068181163e-06, 6.036528255006334e-07, -1.8475106242433756e-07, 0.0008916984012906776, -9.703055129242568e-06, 7.805974732438361e-06, -6.81837689770966e-06], [0.0017864529648414207]]}}