{"version": 1, "model": {"layer_sizes": [5, 16, 1], "lr": 0.03, "momentum": 0.9, "grad_clip": 3.0, "total_samples": 1095, "W": [[[1.1328847123274528, 0.9167098936040888, 0.041954449334932704, -0.48353986153823236, -0.6907509918316201], [-0.022235003188140565, -0.6464348041825333, -0.9087307311439718, 0.12605596212771603, 0.08435350654913912], [0.5913822732354992, -0.5780459794834379, 0.003165619319023322, -0.04094628450130507, -0.9523698821441012], [0.2981389327333278, 0.20283551001133254, 1.5110071283958506, 0.12836897902201092, -0.09151777529694573], [0.5142686681618229, 0.12572662463981144, 0.5749217012808462, -0.23119049338194606, 0.137983970293719], [0.8055880035034169, 0.4403452810123505, 0.08125298436065588, -0.6845116975202081, 0.2815829729115831], [0.010749228962049136, 0.45566371728464317, 0.13675771771954995, 0.6882288831510016, -0.032609575100486295], [0.07125675411143098, 0.4217064472385048, -0.6874061856520259, -0.25403225348189823, -0.3162458346088078], [1.6304478714094919, -0.05873110184204383, 0.41250028865134114, 0.3917271844754705, -0.17763995472297467], [-0.9767740546939483, 0.6102209068034645, -0.25753384959998116, 0.45407565931871485, -0.8255219594097656], [-0.27667648785144777, 0.7948836121736637, 0.9050463886060675, -0.8237471601839077, -0.84294146328566], [-0.028089456351626817, 0.46058025358844906, 0.10151207239074857, 0.19198485424004202, -0.6253950672515969], [0.6043806022887483, 0.7063594416167539, -0.2755434956086589, -0.9066174559682012, -0.4799204277611376], [0.28588875815046305, -1.0964863798482016, -0.05810798271313834, -0.6267686722314738, -0.08293670326895732], [-0.15059553203376244, 0.010028710300835318, 0.9494469225219566, 0.2660806474441458, 0.8435140039500585], [-0.09296535724407504, -0.3033172032094295, 0.23958084834702262, -1.7935115707259193, -0.02522790151826406]], [[0.8035038264512566, -0.43512710262330156, 0.4742311804886617, 0.12491554895448602, -0.7005913508910222, 0.5242809853223845, -0.3406749674617007, -0.15965352302059582, 1.1013178338154628, 0.4332052575375521, 0.033904003850162026, -0.010330304698576029, 0.47234144203993794, -0.5438388663309446, 0.4370167397523223, -0.3816342102186846]]], "b": [[-0.30870068917454013, -0.07553476075113445, -0.15359445407092814, -0.09316807510743166, -0.5169296308938307, -0.2260052280613392, -0.06901417714612831, -0.10979825763760369, -0.451874464231841, -0.00048151675059839944, -3.185490312137723e-05, 1.2978430475058904e-05, -0.15866751684171204, -0.38090199991977014, -0.0005100592867856378, 0.00045195622639483267], [-0.117737852739947]], "vW": [[[0.0008794172397310622, 0.0, 0.0, 0.0, 0.0], [-4.901091649511451e-06, 0.0, 0.0, 0.0, 0.0], [0.000520100974311978, 0.0, 0.0, 0.0, 0.0], [0.0001350345428319639, 0.0, 0.0, 0.0, 0.0], [-7.89018183126426e-06, 0.0, 0.0, 0.0, 0.0], [0.0005728984084894999, 0.0, 0.0, 0.0, 0.0], [-3.837265623157808e-06, 0.0, 0.0, 0.0, 0.0], [-1.7979005421330073e-06, 0.0, 0.0, 0.0, 0.0], [0.0012042969916785016, 0.0, 0.0, 0.0, 0.0], [4.8848778517907025e-06, 0.0, 0.0, 0.0, 0.0], [3.832566749847002e-07, 0.0, 0.0, 0.0, 0.0], [-1.1624185029571671e-07, 0.0, 0.0, 0.0, 0.0], [0.0005178166870841902, 0.0, 0.0, 0.0, 0.0], [-6.124455496816688e-06, 0.0, 0.0, 0.0, 0.0], [4.9238927076079015e-06, 0.0, 0.0, 0.0, 0.0], [-4.29882864482739e-06, 0.0, 0.0, 0.0, 0.0]], [[0.0005744687548238327, -1.5000587029785168e-06, 0.00029966339496865975, 0.00015152551401033173, -2.811175255057444e-06, 0.000408688564048028, -1.0219330221472108e-06, -1.0246726934794393e-06, 0.0008269943381453883, -1.1021882957901326e-05, -3.118195264626476e-06, -3.1598215298224447e-07, 0.00030629877814870247, -3.1190590476337074e-06, -1.7152076482140756e-06, -1.030864921369093e-06]]], "vb": [[0.0012920915057387373, -7.255102466421071e-06, 0.0007643340710553523, 0.00019813036696457096, -1.1679006425930142e-05, 0.0008415889405425294, -5.680325822453424e-06, -2.661188006430351e-06, 0.0017692518705576558, 7.233562631873613e-06, 5.67945384668148e-07, -1.7202499670181205e-07, 0.0007609431620297688, -9.065254694202976e-06, 7.289601314100984e-06, -6.363755255308272e-06], [0.001667721219105649]]}}