{"version": 1, "model": {"layer_sizes": [5, 16, 1], "lr": 0.03, "momentum": 0.9, "grad_clip": 3.0, "total_samples": 114, "W": [[[0.8409251937626575, 0.9167098936040888, 0.041954449334932704, -0.48353986153823236, -0.6907509918316201], [-0.019627567601591827, -0.6464348041825333, -0.9087307311439718, 0.12605596212771603, 0.08435350654913912], [0.39782926202452396, -0.5780459794834379, 0.003165619319023322, -0.04094628450130507, -0.9523698821441012], [0.2862939600994935, 0.20283551001133254, 1.5110071283958506, 0.12836897902201092, -0.09151777529694573], [0.51848390737055, 0.12572662463981144, 0.5749217012808462, -0.23119049338194606, 0.137983970293719], [0.6333373593736221, 0.4403452810123505, 0.08125298436065588, -0.6845116975202081, 0.2815829729115831], [0.012791382476424121, 0.45566371728464317, 0.13675771771954995, 0.6882288831510016, -0.032609575100486295], [0.07221616113975494, 0.4217064472385048, -0.6874061856520259, -0.25403225348189823, -0.3162458346088078], [1.251626742396862, -0.05873110184204383, 0.41250028865134114, 0.3917271844754705, -0.17763995472297467], [-0.9793926313053091, 0.6102209068034645, -0.25753384959998116, 0.45407565931871485, -0.8255219594097656], [-0.2768860603281081, 0.7948836121736637, 0.9050463886060675, -0.8237471601839077, -0.84294146328566], [-0.028028202474594054, 0.46058025358844906, 0.10151207239074857, 0.19198485424004202, -0.6253950672515969], [0.41582014591065686, 0.7063594416167539, -0.2755434956086589, -0.9066174559682012, -0.4799204277611376], [0.2891579130332701, -1.0964863798482016, -0.05810798271313834, -0.6267686722314738, -0.08293670326895732], [-0.1532178265182064, 0.010028710300835318, 0.9494469225219566, 0.2660806474441458, 0.8435140039500585], [-0.09068057813948727, -0.3033172032094295, 0.23958084834702262, -1.7935115707259193, -0.02522790151826406]], [[0.2982477834802977, -0.4353062956743616, 0.24607894408474448, -0.06427940874419374, -0.705701034489587, 0.13440321810464975, -0.34102207652303723, -0.1605116638606243, 0.33836315242301596, 0.4390779537900906, 0.035563518178916835, -0.010162437146521099, 0.2311743667904571, -0.5470473703090478, 0.43793867369418915, -0.3810941199652857]]], "b": [[-0.038575399078457764, -0.07721284927086755, 0.016132149133328232, -0.06743832372737578, -0.5196365676415519, -0.05859981819185573, -0.0703282649088406, -0.11041500541032127, -0.09198173353153354, 0.001189742986402512, 9.935669169221238e-05, -2.676866004443444e-05, 0.008335936527018417, -0.3830030570060761, 0.0011741805940520009, -0.001018378618498285], [0.26758012847019663]], "vW": [[[0.000978089614690457, 0.0, 0.0, 0.0, 0.0], [-1.684404439974281e-05, 0.0, 0.0, 0.0, 0.0], [0.0008634219891551112, 0.0, 0.0, 0.0, 0.0], [-0.00029991221967608824, 0.0, 0.0, 0.0, 0.0], [-2.765936100708281e-05, 0.0, 0.0, 0.0, 0.0], [0.00039228461878111837, 0.0, 0.0, 0.0, 0.0], [-1.3199219567679254e-05, 0.0, 0.0, 0.0, 0.0], [-6.280256833074399e-06, 0.0, 0.0, 0.0, 0.0], [0.0010529252066246845, 0.0, 0.0, 0.0, 0.0], [1.6988545496909654e-05, 0.0, 0.0, 0.0, 0.0], [1.3806598716538722e-06, 0.0, 0.0, 0.0, 0.0], [-3.92003939831234e-07, 0.0, 0.0, 0.0, 0.0], [0.000803104360760738, 0.0, 0.0, 0.0, 0.0], [-2.1409272186236702e-05, 0.0, 0.0, 0.0, 0.0], [1.6925049150536558e-05, 0.0, 0.0, 0.0, 0.0], [-1.4722892635482983e-05, 0.0, 0.0, 0.0, 0.0]], [[0.0028475033739005368, -5.2187691167313605e-06, 0.0014709585117223876, 0.0007738214214612668, -9.966878128639826e-06, 0.002038146704723804, -3.569717332282016e-06, -3.599215798561222e-06, 0.004113690149241845, -3.78051347280362e-05, -1.0695361721578903e-05, -1.0838031114055078e-06, 0.0015067682996269041, -1.0974465176106782e-05, -5.883464207735498e-06, -3.535542437954456e-06]]], "vb": [[0.0015084968686231305, -2.5379979989019146e-05, 0.00131236049052355, -0.00043208971943912544, -4.184490437160493e-05, 0.0006215901365220464, -1.9889446690238786e-05, -9.496633114378972e-06, 0.0016433043990835112, 2.5579379782200683e-05, 2.0778415761727806e-06, -5.904895615858563e-07, 0.0012232434934246006, -3.2375679954817576e-05, 2.548792585597662e-05, -2.2172764455034235e-05], [0.005818918718488792]]}}