{"version": 1, "model": {"layer_sizes": [5, 16, 1], "lr": 0.03, "momentum": 0.9, "grad_clip": 3.0, "total_samples": 11, "W": [[[0.822285979969994, 0.9167098936040888, 0.041954449334932704, -0.48353986153823236, -0.6907509918316201], [-0.006084247824299835, -0.6464348041825333, -0.9087307311439718, 0.12605596212771603, 0.08435350654913912], [0.3640179018271059, -0.5780459794834379, 0.003165619319023322, -0.04094628450130507, -0.9523698821441012], [0.31942500272729696, 0.20283551001133254, 1.5110071283958506, 0.12836897902201092, -0.09151777529694573], [0.6867956389377111, 0.12572662463981144, 0.5749217012808462, -0.23119049338194606, 0.137983970293719], [0.6407783122599486, 0.4403452810123505, 0.08125298436065588, -0.6845116975202081, 0.2815829729115831], [0.024846348028925408, 0.45566371728464317, 0.13675771771954995, 0.6882288831510016, -0.032609575100486295], [0.10800742854745037, 0.4217064472385048, -0.6874061856520259, -0.25403225348189823, -0.3162458346088078], [1.2490120393529174, -0.05873110184204383, 0.41250028865134114, 0.3917271844754705, -0.17763995472297467], [-0.980356246349037, 0.6102209068034645, -0.25753384959998116, 0.45407565931871485, -0.8255219594097656], [-0.2769653044135764, 0.7948836121736637, 0.9050463886060675, -0.8237471601839077, -0.84294146328566], [-0.028006206358492967, 0.46058025358844906, 0.10151207239074857, 0.19198485424004202, -0.6253950672515969], [0.3866774723756244, 0.7063594416167539, -0.2755434956086589, -0.9066174559682012, -0.4799204277611376], [0.4131180166912739, -1.0964863798482016, -0.05810798271313834, -0.6267686722314738, -0.08293670326895732], [-0.15417395838072048, 0.010028710300835318, 0.9494469225219566, 0.2660806474441458, 0.8435140039500585], [-0.08984990767782744, -0.3033172032094295, 0.23958084834702262, -1.7935115707259193, -0.02522790151826406]], [[0.14543129266470195, -0.43584019204250934, 0.2030781454453541, -0.162576113866399, -0.7925387362594563, -0.00586469684402819, -0.34283707616629694, -0.17182724008027422, 0.0814603576202404, 0.4412241430633462, 0.036168261438857714, -0.010101533473449427, 0.17896469749075317, -0.5940757599176778, 0.4382828078664307, -0.3809049796150507]]], "b": [[0.015132813110772695, -0.05180387267624301, 0.03680200439430224, -0.0416685782707676, -0.18573691212707633, -0.01407745769725864, -0.04753277239157008, -0.03945171704352263, -0.007278658584838261, 0.0009581685023362987, 7.893623791741171e-05, -2.1835849709784315e-05, 0.031115613645125398, -0.1371936052361272, 0.0009501437194578583, -0.0008253084334204638], [0.21671751214142207]], "vW": [[[0.001194419370694103, 0.0, 0.0, 0.0, 0.0], [-0.0014536454527938362, 0.0, 0.0, 0.0, 0.0], [0.00225830031028036, 0.0, 0.0, 0.0, 0.0], [-0.0022678059857578836, 0.0, 0.0, 0.0, 0.0], [-0.0103999835965272, 0.0, 0.0, 0.0, 0.0], [-0.0005555730861863289, 0.0, 0.0, 0.0, 0.0], [-0.0012992547905553748, 0.0, 0.0, 0.0, 0.0], [-0.00222399092153256, 0.0, 0.0, 0.0, 0.0], [7.542554252754012e-05, 0.0, 0.0, 0.0, 0.0], [5.51031730053175e-05, 0.0, 0.0, 0.0, 0.0], [4.531771380420026e-06, 0.0, 0.0, 0.0, 0.0], [-1.2577463367777103e-06, 0.0, 0.0, 0.0, 0.0], [0.001940547140171789, 0.0, 0.0, 0.0, 0.0], [-0.007719114339577832, 0.0, 0.0, 0.0, 0.0], [5.467403390646036e-05, 0.0, 0.0, 0.0, 0.0], [-4.7499500063021225e-05, 0.0, 0.0, 0.0, 0.0]], [[0.01035121517209324, 4.120957106524071e-05, 0.004809777165045286, 0.0036618611175545466, 0.007147087760550311, 0.00787091429372706, 0.00018172936111433778, 0.0010466019366901275, 0.015494369288931185, -0.00012219719753029523, -3.453700859197802e-05, -3.4945671903154344e-06, 0.005048918590983156, 0.00410668199716486, -1.9156786034952877e-05, -1.126831977238386e-05]]], "vb": [[0.002388838741388206, -0.0029072909055876724, 0.00451660062056072, -0.004535611971515767, -0.0207999671930544, -0.0011111461723726577, -0.0025985095811107495, -0.00444798184306512, 0.00015085108505508024, 0.000110206346010635, 9.063542760840052e-06, -2.5154926735554206e-06, 0.003881094280343578, -0.015438228679155664, 0.00010934806781292072, -9.499900012604245e-05], [0.024943898542344377]]}}