{"version": 1, "model": {"layer_sizes": [5, 16, 1], "lr": 0.03, "momentum": 0.9, "grad_clip": 3.0, "total_samples": 1355, "W": [[[1.2179753196338474, 0.9167098936040888, 0.041954449334932704, -0.48353986153823236, -0.6907509918316201], [-0.022702416374670617, -0.6464348041825333, -0.9087307311439718, 0.12605596212771603, 0.08435350654913912], [0.6413573626136355, -0.5780459794834379, 0.003165619319023322, -0.04094628450130507, -0.9523698821441012], [0.311755544311675, 0.20283551001133254, 1.5110071283958506, 0.12836897902201092, -0.09151777529694573], [0.5135167628486932, 0.12572662463981144, 0.5749217012808462, -0.23119049338194606, 0.137983970293719], [0.8613202426060145, 0.4403452810123505, 0.08125298436065588, -0.6845116975202081, 0.2815829729115831], [0.01038328378488956, 0.45566371728464317, 0.13675771771954995, 0.6882288831510016, -0.032609575100486295], [0.07108541542984409, 0.4217064472385048, -0.6874061856520259, -0.25403225348189823, -0.3162458346088078], [1.7473238651336014, -0.05873110184204383, 0.41250028865134114, 0.3917271844754705, -0.17763995472297467], [-0.9763078791967538, 0.6102209068034645, -0.25753384959998116, 0.45407565931871485, -0.8255219594097656], [-0.2766398768281743, 0.7948836121736637, 0.9050463886060675, -0.8237471601839077, -0.84294146328566], [-0.028100540367854903, 0.46058025358844906, 0.10151207239074857, 0.19198485424004202, -0.6253950672515969], [0.6542053912211515, 0.7063594416167539, -0.2755434956086589, -0.9066174559682012, -0.4799204277611376], [0.28530510573934464, -1.0964863798482016, -0.05810798271313834, -0.6267686722314738, -0.08293670326895732], [-0.15012578304321553, 0.010028710300835318, 0.9494469225219566, 0.2660806474441458, 0.8435140039500585], [-0.09337543358983341, -0.3033172032094295, 0.23958084834702262, -1.7935115707259193, -0.02522790151826406]], [[0.8980484936437542, -0.4351079832507054, 0.5204383719836625, 0.15476652603608215, -0.6997560273201897, 0.594215221965306, -0.340624406876763, -0.159516852868288, 1.2405499451853808, 0.43215356911267855, 0.033606508305816025, -0.01036044563473164, 0.5202713639922509, -0.5433232136156945, 0.4368529230681846, -0.3817323968994291]]], "b": [[-0.36635103899828025, -0.07529947641606581, -0.18691286033950003, -0.10324739670375029, -0.5165504526388044, -0.26422934126137027, -0.06882999433673004, -0.10971176531598636, -0.5316034418185718, -0.0007128144580552402, -4.9434721071372155e-05, 1.8628025081939023e-05, -0.1919936946764866, -0.3806074566001879, -0.0007455693823014549, 0.0006582059577069867], [-0.17171879406331503]], "vW": [[[0.0010163259812164894, 0.0, 0.0, 0.0, 0.0], [-5.040063654116728e-06, 0.0, 0.0, 0.0, 0.0], [0.0005897062418154879, 0.0, 0.0, 0.0, 0.0], [0.0001740072504870469, 0.0, 0.0, 0.0, 0.0], [-8.104587481823445e-06, 0.0, 0.0, 0.0, 0.0], [0.0006718545564085106, 0.0, 0.0, 0.0, 0.0], [-3.945657798308369e-06, 0.0, 0.0, 0.0, 0.0], [-1.8473836395155863e-06, 0.0, 0.0, 0.0, 0.0], [0.001403209173746835, 0.0, 0.0, 0.0, 0.0], [5.011249536607586e-06, 0.0, 0.0, 0.0, 0.0], [3.906487098284606e-07, 0.0, 0.0, 0.0, 0.0], [-1.1989640853655953e-07, 0.0, 0.0, 0.0, 0.0], [0.0005893705416025362, 0.0, 0.0, 0.0, 0.0], [-6.2924313382280256e-06, 0.0, 0.0, 0.0, 0.0], [5.06179140350428e-06, 0.0, 0.0, 0.0, 0.0], [-4.422052335502395e-06, 0.0, 0.0, 0.0, 0.0]], [[0.0005418245970831609, -1.6103256418318548e-06, 0.0002850216294306217, 0.00013914549430682504, -3.3464195379844936e-06, 0.0003834138578627885, -1.1125901336672824e-06, -1.1505362912265668e-06, 0.0007776010075278306, -1.1333735814161322e-05, -3.2066314871856822e-06, -3.2497645532299547e-07, 0.00029079607201264174, -3.5432917938058873e-06, -1.7628618091871794e-06, -1.0610325936955814e-06]]], "vb": [[0.0015735044114563237, -7.842172214165483e-06, 0.0009130713603890137, 0.0002692898113812051, -1.2609754779945278e-05, 0.0010401225469636739, -6.139321029184313e-06, -2.8742566315361215e-06, 0.0021724158404196644, 7.799464084725272e-06, 6.083634297531927e-07, -1.8651299657382195e-07, 0.0009125371020101121, -9.790143596440808e-06, 7.876620878400281e-06, -6.880722561412287e-06], [0.0018027198166126572]]}}