{"version": 1, "model": {"layer_sizes": [5, 16, 1], "lr": 0.03, "momentum": 0.9, "grad_clip": 3.0, "total_samples": 642, "W": [[[0.975558854849726, 0.9167098936040888, 0.041954449334932704, -0.48353986153823236, -0.6907509918316201], [-0.021171221338411476, -0.6464348041825333, -0.9087307311439718, 0.12605596212771603, 0.08435350654913912], [0.49502756493550776, -0.5780459794834379, 0.003165619319023322, -0.04094628450130507, -0.9523698821441012], [0.2792092648487311, 0.20283551001133254, 1.5110071283958506, 0.12836897902201092, -0.09151777529694573], [0.5159833776204859, 0.12572662463981144, 0.5749217012808462, -0.23119049338194606, 0.137983970293719], [0.7059420629198655, 0.4403452810123505, 0.08125298436065588, -0.6845116975202081, 0.2815829729115831], [0.011582220907013737, 0.45566371728464317, 0.13675771771954995, 0.6882288831510016, -0.032609575100486295], [0.0716472892787524, 0.4217064472385048, -0.6874061856520259, -0.25403225348189823, -0.3162458346088078], [1.41832927296975, -0.05873110184204383, 0.41250028865134114, 0.3917271844754705, -0.17763995472297467], [-0.9778384956363658, 0.6102209068034645, -0.25753384959998116, 0.45407565931871485, -0.8255219594097656], [-0.27676083285876496, 0.7948836121736637, 0.9050463886060675, -0.8237471601839077, -0.84294146328566], [-0.028064339962960847, 0.46058025358844906, 0.10151207239074857, 0.19198485424004202, -0.6253950672515969], [0.5091056071965087, 0.7063594416167539, -0.2755434956086589, -0.9066174559682012, -0.4799204277611376], [0.2872192729698041, -1.0964863798482016, -0.05810798271313834, -0.6267686722314738, -0.08293670326895732], [-0.15166500865481672, 0.010028710300835318, 0.9494469225219566, 0.2660806474441458, 0.8435140039500585], [-0.09203257818782302, -0.3033172032094295, 0.23958084834702262, -1.7935115707259193, -0.02522790151826406]], [[0.5945870843646394, -0.43515002754606175, 0.37397949615518006, 0.05602657466302249, -0.7023465062062519, 0.3681538118095935, -0.3407710942802092, -0.15993360760197378, 0.7917916023780434, 0.4355994191521867, 0.0345810349538736, -0.010261744360202772, 0.36790731076081107, -0.5449049886671851, 0.4373905657551384, -0.38141171506285393]]], "b": [[-0.21589099633126246, -0.07594615424302864, -0.09902429536947559, -0.07841339689072671, -0.5175935359797339, -0.1652700533478709, -0.06933625909341291, -0.10994963920285819, -0.32445779590014023, -7.60132826035699e-05, -8.044389435903337e-07, 3.132797877918791e-06, -0.10427376766382916, -0.381417573087903, -9.813014099143299e-05, 9.146177800937022e-05], [-0.023359976547482612]], "vW": [[[-0.0009005005334453819, 0.0, 0.0, 0.0, 0.0], [6.3949293176380935e-06, 0.0, 0.0, 0.0, 0.0], [-0.0005643846968401224, 0.0, 0.0, 0.0, 0.0], [-8.80209258175168e-05, 0.0, 0.0, 0.0, 0.0], [1.0322922975305837e-05, 0.0, 0.0, 0.0, 0.0], [-0.0005592920848900805, 0.0, 0.0, 0.0, 0.0], [5.007907818707905e-06, 0.0, 0.0, 0.0, 0.0], [2.350806377054367e-06, 0.0, 0.0, 0.0, 0.0], [-0.0012011832669101118, 0.0, 0.0, 0.0, 0.0], [-6.396017966065907e-06, 0.0, 0.0, 0.0, 0.0], [-5.06813301419563e-07, 0.0, 0.0, 0.0, 0.0], [1.5091932390677027e-07, 0.0, 0.0, 0.0, 0.0], [-0.000555595156857141, 0.0, 0.0, 0.0, 0.0], [8.009223877302284e-06, 0.0, 0.0, 0.0, 0.0], [-6.426273846301811e-06, 0.0, 0.0, 0.0, 0.0], [5.604884487353365e-06, 0.0, 0.0, 0.0, 0.0]], [[-0.0003374366777843373, 4.813982350763809e-06, -0.00025549786723602316, 3.653137938232511e-05, 2.3038281029049392e-05, -0.00017175632000352814, 3.939094478625329e-06, 5.452010642705505e-06, -0.0004058613948073552, 1.4359661157215292e-05, 4.065715169222109e-06, 4.1250070103889244e-07, -0.00024328095250912638, 1.8344574248557613e-05, 2.2211580260635847e-06, 1.358428067253056e-06]]], "vb": [[-0.0035647701283323327, 2.5727191550168982e-05, -0.0022397325214015803, -0.0003397118463527261, 4.1529120482534954e-05, -0.002209292603073473, 2.01472370528891e-05, 9.456984700112529e-06, -0.004749510619552394, -2.574191806571089e-05, -2.041604934537135e-06, 6.069285691314289e-07, -0.002203816814518352, 3.222035395694161e-05, -2.585599982661212e-05, 2.2549078337967285e-05], [-0.005911764656188775]]}}