{"version": 1, "model": {"layer_sizes": [5, 16, 1], "lr": 0.03, "momentum": 0.9, "grad_clip": 3.0, "total_samples": 1511, "W": [[[1.268756846831222, 0.9167098936040888, 0.041954449334932704, -0.48353986153823236, -0.6907509918316201], [-0.02295848637646606, -0.6464348041825333, -0.9087307311439718, 0.12605596212771603, 0.08435350654913912], [0.6707691938362557, -0.5780459794834379, 0.003165619319023322, -0.04094628450130507, -0.9523698821441012], [0.32053414813587117, 0.20283551001133254, 1.5110071283958506, 0.12836897902201092, -0.09151777529694573], [0.5131052174561206, 0.12572662463981144, 0.5749217012808462, -0.23119049338194606, 0.137983970293719], [0.8949357936085864, 0.4403452810123505, 0.08125298436065588, -0.6845116975202081, 0.2815829729115831], [0.010182818282867911, 0.45566371728464317, 0.13675771771954995, 0.6882288831510016, -0.032609575100486295], [0.0709916127659217, 0.4217064472385048, -0.6874061856520259, -0.25403225348189823, -0.3162458346088078], [1.8174899069932964, -0.05873110184204383, 0.41250028865134114, 0.3917271844754705, -0.17763995472297467], [-0.9760528893249083, 0.6102209068034645, -0.25753384959998116, 0.45407565931871485, -0.8255219594097656], [-0.27661993730633105, 0.7948836121736637, 0.9050463886060675, -0.8237471601839077, -0.84294146328566], [-0.028106625218135263, 0.46058025358844906, 0.10151207239074857, 0.19198485424004202, -0.6253950672515969], [0.6836112566077277, 0.7063594416167539, -0.2755434956086589, -0.9066174559682012, -0.4799204277611376], [0.28498559508418647, -1.0964863798482016, -0.05810798271313834, -0.6267686722314738, -0.08293670326895732], [-0.14986847970394748, 0.010028710300835318, 0.9494469225219566, 0.2660806474441458, 0.8435140039500585], [-0.09360014805013904, -0.3033172032094295, 0.23958084834702262, -1.7935115707259193, -0.02522790151826406]], [[0.9493049834734715, -0.4350990260826467, 0.5457104156993083, 0.17060047858018476, -0.6993081067560183, 0.6319392580899337, -0.3405980763193537, -0.15944404534916878, 1.3158108621040774, 0.431577480739316, 0.033443524415128975, -0.010376962068262044, 0.5464325097040295, -0.5430478804423029, 0.43676328573160245, -0.3817862922279731]]], "b": [[-0.39871710844446334, -0.07517857943349349, -0.20542269026496143, -0.1092153876547405, -0.5163557400435342, -0.2858573931578733, -0.06873536437166496, -0.10966733277862882, -0.5765617462343842, -0.0008312042014384971, -5.834449444296602e-05, 2.1542469639133546e-05, -0.21054758557416497, -0.3804561616150422, -0.0008664840194252735, 0.0007641961088236161], [-0.19944869193609746]], "vW": [[[0.0010860910583762146, 0.0, 0.0, 0.0, 0.0], [-5.084130369574568e-06, 0.0, 0.0, 0.0, 0.0], [0.0006249241227145577, 0.0, 0.0, 0.0, 0.0], [0.00019426336001021838, 0.0, 0.0, 0.0, 0.0], [-8.170377139465929e-06, 0.0, 0.0, 0.0, 0.0], [0.0007224958069413391, 0.0, 0.0, 0.0, 0.0], [-3.979929219695718e-06, 0.0, 0.0, 0.0, 0.0], [-1.862724065477724e-06, 0.0, 0.0, 0.0, 0.0], [0.0015048220399719503, 0.0, 0.0, 0.0, 0.0], [5.048382616788629e-06, 0.0, 0.0, 0.0, 0.0], [3.921536564026791e-07, 0.0, 0.0, 0.0, 0.0], [-1.2114145868904376e-07, 0.0, 0.0, 0.0, 0.0], [0.0006256322868047307, 0.0, 0.0, 0.0, 0.0], [-6.344361588953509e-06, 0.0, 0.0, 0.0, 0.0], [5.105092879712513e-06, 0.0, 0.0, 0.0, 0.0], [-4.461437145481767e-06, 0.0, 0.0, 0.0, 0.0]], [[0.0005219727005118587, -1.6533553132636129e-06, 0.0002756865260077129, 0.00013229759674075975, -3.5697470921357e-06, 0.0003684139453336558, -1.1486649162930593e-06, -1.2018425291056895e-06, 0.0007479967548980505, -1.1432439309835839e-05, -3.2346716930553433e-06, -3.2783592814858287e-07, 0.000281024791476048, -3.717336958642088e-06, -1.7777380684011262e-06, -1.0708168342854582e-06]]], "vb": [[0.0017174385653525382, -8.073023789198617e-06, 0.000988234092629363, 0.00030712599829782467, -1.2972979272432659e-05, 0.001142450106452321, -6.319685230259895e-06, -2.957600345661588e-06, 0.0023795387406005627, 8.018247260267591e-06, 6.231886466331474e-07, -1.923196991304826e-07, 0.00098934580813754, -1.0073510291968864e-05, 8.106907118367307e-06, -7.0844005712455175e-06], [0.001855814623324813]]}}