{"version": 1, "model": {"layer_sizes": [5, 16, 1], "lr": 0.03, "momentum": 0.9, "grad_clip": 3.0, "total_samples": 534, "W": [[[0.9522255967150011, 0.9167098936040888, 0.041954449334932704, -0.48353986153823236, -0.6907509918316201], [-0.020966518176245206, -0.6464348041825333, -0.9087307311439718, 0.12605596212771603, 0.08435350654913912], [0.47981329796554195, -0.5780459794834379, 0.003165619319023322, -0.04094628450130507, -0.9523698821441012], [0.2778608109654101, 0.20283551001133254, 1.5110071283958506, 0.12836897902201092, -0.09151777529694573], [0.5163138875440604, 0.12572662463981144, 0.5749217012808462, -0.23119049338194606, 0.137983970293719], [0.6919572570032261, 0.4403452810123505, 0.08125298436065588, -0.6845116975202081, 0.2815829729115831], [0.011742538320073086, 0.45566371728464317, 0.13675771771954995, 0.6882288831510016, -0.032609575100486295], [0.07172252640297978, 0.4217064472385048, -0.6874061856520259, -0.25403225348189823, -0.3162458346088078], [1.3877983186841878, -0.05873110184204383, 0.41250028865134114, 0.3917271844754705, -0.17763995472297467], [-0.9780440902923546, 0.6102209068034645, -0.25753384959998116, 0.45407565931871485, -0.8255219594097656], [-0.27677728090262255, 0.7948836121736637, 0.9050463886060675, -0.8237471601839077, -0.84294146328566], [-0.028059529063587132, 0.46058025358844906, 0.10151207239074857, 0.19198485424004202, -0.6253950672515969], [0.494238764212759, 0.7063594416167539, -0.2755434956086589, -0.9066174559682012, -0.4799204277611376], [0.2874756344038298, -1.0964863798482016, -0.05810798271313834, -0.6267686722314738, -0.08293670326895732], [-0.1518709215143542, 0.010028710300835318, 0.9494469225219566, 0.2660806474441458, 0.8435140039500585], [-0.0918531612371414, -0.3033172032094295, 0.23958084834702262, -1.7935115707259193, -0.02522790151826406]], [[0.5476153258739835, -0.4352071988430472, 0.35333088077311076, 0.037550407352174325, -0.7030399146290985, 0.3314255005374732, -0.34083766213515265, -0.1600630750840114, 0.7202977065694495, 0.43606081279547115, 0.03471137129915263, -0.010248567213604778, 0.3459348402848451, -0.5453722816777207, 0.4374631854488185, -0.38136949612105897]]], "b": [[-0.15933639226142304, -0.07632338691162568, -0.06364441856954545, -0.07278196493527059, -0.5182028580164542, -0.13008827791758099, -0.06963167266154324, -0.11008841251235452, -0.24895343629885253, 0.000300513969370645, 2.8905539370251714e-05, -5.783909006833597e-06, -0.06943263091571913, -0.3818903606781701, 0.00028070195814546727, -0.0002390904026196509], [0.06328332044486641]], "vW": [[[0.0004924678967227837, 0.0, 0.0, 0.0, 0.0], [-4.170540903210444e-06, 0.0, 0.0, 0.0, 0.0], [0.00032080749631147076, 0.0, 0.0, 0.0, 0.0], [2.8937743563785384e-05, 0.0, 0.0, 0.0, 0.0], [-6.736273465259365e-06, 0.0, 0.0, 0.0, 0.0], [0.0002954208089706784, 0.0, 0.0, 0.0, 0.0], [-3.266257207150893e-06, 0.0, 0.0, 0.0, 0.0], [-1.533513159935524e-06, 0.0, 0.0, 0.0, 0.0], [0.0006446852214810183, 0.0, 0.0, 0.0, 0.0], [4.184306677178616e-06, 0.0, 0.0, 0.0, 0.0], [3.340546021964605e-07, 0.0, 0.0, 0.0, 0.0], [-9.809196630272646e-08, 0.0, 0.0, 0.0, 0.0], [0.00031353611728857626, 0.0, 0.0, 0.0, 0.0], [-5.225187254387392e-06, 0.0, 0.0, 0.0, 0.0], [4.193699178193274e-06, 0.0, 0.0, 0.0, 0.0], [-3.6548633822609563e-06, 0.0, 0.0, 0.0, 0.0]], [[0.0006084821203393382, -1.0259061496509372e-06, 0.0003063515756555206, 0.00017795738044192158, -7.057523629456114e-07, 0.000442386333888502, -6.4140510410718e-07, -5.135574193410568e-07, 0.0008870731559795902, -9.381325725224371e-06, -2.653336997925184e-06, -2.687625582850626e-07, 0.0003156211273321635, -1.4110533257450027e-06, -1.4629462618734655e-06, -8.739537257026974e-07]]], "vb": [[0.0005410379272380418, -4.7612302852629545e-06, 0.00035390410100512, 2.9490888767560297e-05, -7.688904295393577e-06, 0.0003233050386671401, -3.728883081155383e-06, -1.7502882756336238e-06, 0.0007068032595235196, 4.781045038041243e-06, 3.823816770991385e-07, -1.1190506007178946e-07, 0.00034562022522770046, -5.963903151254298e-06, 4.788915404710638e-06, -4.172827521475325e-06], [0.0010943887115364035]]}}