{"version": 1, "model": {"layer_sizes": [5, 16, 1], "lr": 0.03, "momentum": 0.9, "grad_clip": 3.0, "total_samples": 1537, "W": [[[1.2771948470491643, 0.9167098936040888, 0.041954449334932704, -0.48353986153823236, -0.6907509918316201], [-0.02299966318425234, -0.6464348041825333, -0.9087307311439718, 0.12605596212771603, 0.08435350654913912], [0.675632336742414, -0.5780459794834379, 0.003165619319023322, -0.04094628450130507, -0.9523698821441012], [0.3220307473613674, 0.20283551001133254, 1.5110071283958506, 0.12836897902201092, -0.09151777529694573], [0.5130390647330046, 0.12572662463981144, 0.5749217012808462, -0.23119049338194606, 0.137983970293719], [0.9005420803076122, 0.4403452810123505, 0.08125298436065588, -0.6845116975202081, 0.2815829729115831], [0.010150583873844586, 0.45566371728464317, 0.13675771771954995, 0.6882288831510016, -0.032609575100486295], [0.07097653322529422, 0.4217064472385048, -0.6874061856520259, -0.25403225348189823, -0.3162458346088078], [1.8291730303059075, -0.05873110184204383, 0.41250028865134114, 0.3917271844754705, -0.17763995472297467], [-0.9760119126640195, 0.6102209068034645, -0.25753384959998116, 0.45407565931871485, -0.8255219594097656], [-0.2766167387087734, 0.7948836121736637, 0.9050463886060675, -0.8237471601839077, -0.84294146328566], [-0.028107604502767464, 0.46058025358844906, 0.10151207239074857, 0.19198485424004202, -0.6253950672515969], [0.6884782760805588, 0.7063594416167539, -0.2755434956086589, -0.9066174559682012, -0.4799204277611376], [0.28493423253553646, -1.0964863798482016, -0.05810798271313834, -0.6267686722314738, -0.08293670326895732], [-0.1498271076445219, 0.010028710300835318, 0.9494469225219566, 0.2660806474441458, 0.8435140039500585], [-0.0936362864628875, -0.3033172032094295, 0.23958084834702262, -1.7935115707259193, -0.02522790151826406]], [[0.957504299754691, -0.435097669473967, 0.5497662219127788, 0.17311264303263277, -0.6992366114489623, 0.6379625541829803, -0.3405939177185513, -0.15943245089746352, 1.3278368813686727, 0.43148484849546354, 0.033417315950314934, -0.010379618200438865, 0.5506278805818831, -0.5430039985243446, 0.4367488784730174, -0.3817949651849563]]], "b": [[-0.40398055819308, -0.07515957591761936, -0.2084217934446378, -0.11020330849872337, -0.5163251412714722, -0.2893840626552958, -0.06872049030981672, -0.10966034912605986, -0.5838840462086202, -0.0008497835562719349, -5.973693375041261e-05, 2.2001334318462967e-05, -0.21355608652459027, -0.3804323830254342, -0.0008854838187705747, 0.0007808571927317087], [-0.2038069965557924]], "vW": [[[0.0010968853478686594, 0.0, 0.0, 0.0, 0.0], [-5.089124109720422e-06, 0.0, 0.0, 0.0, 0.0], [0.0006303555521756443, 0.0, 0.0, 0.0, 0.0], [0.00019742525391202225, 0.0, 0.0, 0.0, 0.0], [-8.177590409325982e-06, 0.0, 0.0, 0.0, 0.0], [0.0007303463187473308, 0.0, 0.0, 0.0, 0.0], [-3.983802061596225e-06, 0.0, 0.0, 0.0, 0.0], [-1.8644238389747862e-06, 0.0, 0.0, 0.0, 0.0], [0.0015205616226563084, 0.0, 0.0, 0.0, 0.0], [5.052267508873313e-06, 0.0, 0.0, 0.0, 0.0], [3.922319139188775e-07, 0.0, 0.0, 0.0, 0.0], [-1.21292038270439e-07, 0.0, 0.0, 0.0, 0.0], [0.0006312287950405031, 0.0, 0.0, 0.0, 0.0], [-6.350099371532101e-06, 0.0, 0.0, 0.0, 0.0], [5.1099532658783354e-06, 0.0, 0.0, 0.0, 0.0], [-4.46593470734884e-06, 0.0, 0.0, 0.0, 0.0]], [[0.0005187095319539691, -1.6591198268316267e-06, 0.0002741313762288115, 0.00013120464235908698, -3.6009510463187186e-06, 0.00036596610207894947, -1.1535599236191106e-06, -1.2089101239594922e-06, 0.0007431513335972396, -1.144360320997366e-05, -3.237848982167488e-06, -3.2816083578064436e-07, 0.00027940213891952415, -3.7414074595462324e-06, -1.7793965155361875e-06, -1.0719510552438482e-06]]], "vb": [[0.0017396664797785996, -8.104098510684851e-06, 0.0009997833896520378, 0.0003130609604466259, -1.3021633176908951e-05, 0.0011583026567763834, -6.343953089706602e-06, -2.968781094161645e-06, 0.002411583446204168, 8.047374003774895e-06, 6.250919740785779e-07, -1.9311080520327623e-07, 0.00100116108860129, -1.0111508932835899e-05, 8.137858619220174e-06, -7.111851409065695e-06], [0.001862962507702682]]}}