{"version": 1, "model": {"layer_sizes": [5, 16, 1], "lr": 0.03, "momentum": 0.9, "grad_clip": 3.0, "total_samples": 521, "W": [[[0.9485243879382657, 0.9167098936040888, 0.041954449334932704, -0.48353986153823236, -0.6907509918316201], [-0.02093353029590612, -0.6464348041825333, -0.9087307311439718, 0.12605596212771603, 0.08435350654913912], [0.4773774248899364, -0.5780459794834379, 0.003165619319023322, -0.04094628450130507, -0.9523698821441012], [0.2776824985451854, 0.20283551001133254, 1.5110071283958506, 0.12836897902201092, -0.09151777529694573], [0.5163671709156958, 0.12572662463981144, 0.5749217012808462, -0.23119049338194606, 0.137983970293719], [0.6897582958591395, 0.4403452810123505, 0.08125298436065588, -0.6845116975202081, 0.2815829729115831], [0.011768373986545325, 0.45566371728464317, 0.13675771771954995, 0.6882288831510016, -0.032609575100486295], [0.07173465537276072, 0.4217064472385048, -0.6874061856520259, -0.25403225348189823, -0.3162458346088078], [1.3829780345641836, -0.05873110184204383, 0.41250028865134114, 0.3917271844754705, -0.17763995472297467], [-0.9780772175768598, 0.6102209068034645, -0.25753384959998116, 0.45407565931871485, -0.8255219594097656], [-0.2767799311517767, 0.7948836121736637, 0.9050463886060675, -0.8237471601839077, -0.84294146328566], [-0.028058753885186565, 0.46058025358844906, 0.10151207239074857, 0.19198485424004202, -0.6253950672515969], [0.4918625686377471, 0.7063594416167539, -0.2755434956086589, -0.9066174559682012, -0.4799204277611376], [0.287516962778295, -1.0964863798482016, -0.05810798271313834, -0.6267686722314738, -0.08293670326895732], [-0.1519041001105669, 0.010028710300835318, 0.9494469225219566, 0.2660806474441458, 0.8435140039500585], [-0.091824251897548, -0.3033172032094295, 0.23958084834702262, -1.7935115707259193, -0.02522790151826406]], [[0.5411293299579353, -0.43520999055433013, 0.3503885400933049, 0.035143088187203915, -0.7031081351248909, 0.32643225671856585, -0.34084253287691657, -0.16007469275664987, 0.7105172332604869, 0.436135115522199, 0.0347323685889786, -0.010246443127679321, 0.34282817266207666, -0.5454155120489238, 0.43747484694454414, -0.38136265931412994]]], "b": [[-0.15555273710148126, -0.07634764735972298, -0.06126539998574255, -0.07242417606233731, -0.5182420779917256, -0.12774484339199116, -0.06965067160676808, -0.11009734521514308, -0.24391406570926086, 0.0003246905072743011, 3.080739383153478e-05, -6.3579329081582385e-06, -0.06709209046539419, -0.3819207931569928, 0.0003050506748650034, -0.00026034254004696244], [0.06885314462778763]], "vW": [[[0.00048271628375387413, 0.0, 0.0, 0.0, 0.0], [-4.1438493970177135e-06, 0.0, 0.0, 0.0, 0.0], [0.00031571361122389844, 0.0, 0.0, 0.0, 0.0], [2.6376804305017993e-05, 0.0, 0.0, 0.0, 0.0], [-6.693765204471271e-06, 0.0, 0.0, 0.0, 0.0], [0.0002884894145379438, 0.0, 0.0, 0.0, 0.0], [-3.2453791472391353e-06, 0.0, 0.0, 0.0, 0.0], [-1.5237976733833504e-06, 0.0, 0.0, 0.0, 0.0], [0.0006306541182047537, 0.0, 0.0, 0.0, 0.0], [4.158248872781023e-06, 0.0, 0.0, 0.0, 0.0], [3.321249958853048e-07, 0.0, 0.0, 0.0, 0.0], [-9.744242074095551e-08, 0.0, 0.0, 0.0, 0.0], [0.00030833103520970257, 0.0, 0.0, 0.0, 0.0], [-5.192119267196005e-06, 0.0, 0.0, 0.0, 0.0], [4.166954517190425e-06, 0.0, 0.0, 0.0, 0.0], [-3.6313849857844395e-06, 0.0, 0.0, 0.0, 0.0]], [[0.0006075752160804812, -1.0103108184376153e-06, 0.00030545286733923505, 0.00017839045405362522, -6.406231390551626e-07, 0.00044210692783392514, -6.290802372536892e-07, -4.973891024011173e-07, 0.0008861955162611506, -9.321404411492102e-06, -2.636356657403032e-06, -2.670375035774512e-07, 0.00031479824196712134, -1.3573419048497884e-06, -1.4537382717517263e-06, -8.682158651576733e-07]]], "vb": [[0.0005234854640816758, -4.68002550894735e-06, 0.000343921059682442, 2.616745525915341e-05, -7.558404264942104e-06, 0.0003115286193796584, -3.6653153253585904e-06, -1.720534983551633e-06, 0.0006823665618075404, 4.700451246493113e-06, 3.7612846774482817e-07, -1.0996926575816204e-07, 0.00033560213053405183, -5.862565852491442e-06, 4.7073860855400515e-06, -4.1015694101628265e-06], [0.0010757232395896522]]}}