{"version": 1, "model": {"layer_sizes": [5, 16, 1], "lr": 0.03, "momentum": 0.9, "grad_clip": 3.0, "total_samples": 1004, "W": [[[1.1031240222608136, 0.9167098936040888, 0.041954449334932704, -0.48353986153823236, -0.6907509918316201], [-0.022057181365035518, -0.6464348041825333, -0.9087307311439718, 0.12605596212771603, 0.08435350654913912], [0.573635102263383, -0.5780459794834379, 0.003165619319023322, -0.04094628450130507, -0.9523698821441012], [0.29380015888710037, 0.20283551001133254, 1.5110071283958506, 0.12836897902201092, -0.09151777529694573], [0.5145549615113508, 0.12572662463981144, 0.5749217012808462, -0.23119049338194606, 0.137983970293719], [0.7863260072946466, 0.4403452810123505, 0.08125298436065588, -0.6845116975202081, 0.2815829729115831], [0.010888458355100297, 0.45566371728464317, 0.13675771771954995, 0.6882288831510016, -0.032609575100486295], [0.07132197831896117, 0.4217064472385048, -0.6874061856520259, -0.25403225348189823, -0.3162458346088078], [1.5898398272959553, -0.05873110184204383, 0.41250028865134114, 0.3917271844754705, -0.17763995472297467], [-0.9769516571497061, 0.6102209068034645, -0.25753384959998116, 0.45407565931871485, -0.8255219594097656], [-0.2766904896983827, 0.7948836121736637, 0.9050463886060675, -0.8237471601839077, -0.84294146328566], [-0.028085247411237798, 0.46058025358844906, 0.10151207239074857, 0.19198485424004202, -0.6253950672515969], [0.586740384728622, 0.7063594416167539, -0.2755434956086589, -0.9066174559682012, -0.4799204277611376], [0.28611095275902904, -1.0964863798482016, -0.05810798271313834, -0.6267686722314738, -0.08293670326895732], [-0.15077427134709798, 0.010028710300835318, 0.9494469225219566, 0.2660806474441458, 0.8435140039500585], [-0.09280938380412163, -0.3033172032094295, 0.23958084834702262, -1.7935115707259193, -0.02522790151826406]], [[0.7673442712155241, -0.43513551207539014, 0.45672256500275693, 0.11324004290823277, -0.7009164354870826, 0.49739317911223, -0.34069522801891766, -0.15970707037879847, 1.0479024496017046, 0.4336054147841962, 0.03401718158658515, -0.010318840581624354, 0.4541407427776273, -0.5440404241482593, 0.43707913892257694, -0.3815969293901683]]], "b": [[-0.287183827609472, -0.07563029540069577, -0.14101636292927391, -0.08963147986006251, -0.5170836808140747, -0.21186141915702575, -0.06908896901661013, -0.10983338512634779, -0.42226060487498357, -0.0003872942271797164, -2.4634138280015874e-05, 1.0692219433706337e-05, -0.1461154476209214, -0.38102163542436984, -0.0004143682905564571, 0.00036822005983788914], [-0.09581487982116607]], "vW": [[[0.000825127928900527, 0.0, 0.0, 0.0, 0.0], [-4.828566829101769e-06, 0.0, 0.0, 0.0, 0.0], [0.0004923477959201449, 0.0, 0.0, 0.0, 0.0], [0.0001198207620005123, 0.0, 0.0, 0.0, 0.0], [-7.776881681018418e-06, 0.0, 0.0, 0.0, 0.0], [0.000533789441312645, 0.0, 0.0, 0.0, 0.0], [-3.780635942306208e-06, 0.0, 0.0, 0.0, 0.0], [-1.7718525882081942e-06, 0.0, 0.0, 0.0, 0.0], [0.0011255740228155655, 0.0, 0.0, 0.0, 0.0], [4.817034947861009e-06, 0.0, 0.0, 0.0, 0.0], [3.788584855504e-07, 0.0, 0.0, 0.0, 0.0], [-1.1439017488006508e-07, 0.0, 0.0, 0.0, 0.0], [0.0004893216715935554, 0.0, 0.0, 0.0, 0.0], [-6.035939859620284e-06, 0.0, 0.0, 0.0, 0.0], [4.8516531927517656e-06, 0.0, 0.0, 0.0, 0.0], [-4.234722176649496e-06, 0.0, 0.0, 0.0, 0.0]], [[0.0005849426994361784, -1.447794951936001e-06, 0.0003040170673983379, 0.0001560412772873955, -2.5670875397265368e-06, 0.00041709377759290863, -9.79424021659132e-07, -9.664791287821905e-07, 0.0008431883068526516, -1.0859041164869645e-05, -3.0720431891595347e-06, -3.112925109025081e-07, 0.00031099846572374315, -2.923645949535118e-06, -1.690210780718776e-06, -1.01524123962705e-06]]], "vb": [[0.0011818025892382715, -6.978145603006252e-06, 0.0007054055466362817, 0.00017124781543960963, -1.1238068375190177e-05, 0.0007643285249473535, -5.463706306487174e-06, -2.5603766260572236e-06, 0.001611887440360553, 6.964100714472479e-06, 5.481668209336515e-07, -1.652630925236342e-07, 0.0007010241736862734, -8.722160512764242e-06, 7.012305581197463e-06, -6.1201317897999244e-06], [0.0016040407278347033]]}}