{"version": 1, "model": {"layer_sizes": [5, 16, 1], "lr": 0.03, "momentum": 0.9, "grad_clip": 3.0, "total_samples": 101, "W": [[[0.8263555110968387, 0.9167098936040888, 0.041954449334932704, -0.48353986153823236, -0.6907509918316201], [-0.01935617250561102, -0.6464348041825333, -0.9087307311439718, 0.12605596212771603, 0.08435350654913912], [0.38449396566587396, -0.5780459794834379, 0.003165619319023322, -0.04094628450130507, -0.9523698821441012], [0.29150968901220237, 0.20283551001133254, 1.5110071283958506, 0.12836897902201092, -0.09151777529694573], [0.5189332032277107, 0.12572662463981144, 0.5749217012808462, -0.23119049338194606, 0.137983970293719], [0.6279009623522382, 0.4403452810123505, 0.08125298436065588, -0.6845116975202081, 0.2815829729115831], [0.01300408622090073, 0.45566371728464317, 0.13675771771954995, 0.6882288831510016, -0.032609575100486295], [0.0723180692351305, 0.4217064472385048, -0.6874061856520259, -0.25403225348189823, -0.3162458346088078], [1.2364185600020645, -0.05873110184204383, 0.41250028865134114, 0.3917271844754705, -0.17763995472297467], [-0.9796662453439541, 0.6102209068034645, -0.25753384959998116, 0.45407565931871485, -0.8255219594097656], [-0.27690832852614183, 0.7948836121736637, 0.9050463886060675, -0.8237471601839077, -0.84294146328566], [-0.02802189704124417, 0.46058025358844906, 0.10151207239074857, 0.19198485424004202, -0.6253950672515969], [0.4034793900229269, 0.7063594416167539, -0.2755434956086589, -0.9066174559682012, -0.4799204277611376], [0.28950536641304897, -1.0964863798482016, -0.05810798271313834, -0.6267686722314738, -0.08293670326895732], [-0.15349028627022537, 0.010028710300835318, 0.9494469225219566, 0.2660806474441458, 0.8435140039500585], [-0.09044360458440465, -0.3033172032094295, 0.23958084834702262, -1.7935115707259193, -0.02522790151826406]], [[0.25246597658153924, -0.43523690599241177, 0.22346250029399994, -0.0783531268259444, -0.7056399737037203, 0.10074602106222623, -0.3409779354611247, -0.16047468619529762, 0.2711847513515663, 0.43968687136796414, 0.035735708607202904, -0.010145000370676038, 0.20777264499671905, -0.5469435906205015, 0.43803375820102236, -0.38103754060371836]]], "b": [[-0.056144977436839466, -0.07688520290253996, 0.0001858462891720803, -0.06136147998840679, -0.5190868912270128, -0.0652713528117309, -0.07007141206436839, -0.11029053067978602, -0.1104567320246263, 0.0008599822807734433, 7.25203055665061e-05, -1.9168985154717393e-05, -0.006438366666154839, -0.3825785761416541, 0.0008458054821496556, -0.0007327708193439109], [0.19262050412975884]], "vW": [[[0.0011283757051588834, 0.0, 0.0, 0.0, 0.0], [-2.2234247570628556e-05, 0.0, 0.0, 0.0, 0.0], [0.0010608371505384756, 0.0, 0.0, 0.0, 0.0], [-0.00044826324357727674, 0.0, 0.0, 0.0, 0.0], [-3.74331744400775e-05, 0.0, 0.0, 0.0, 0.0], [0.0003969167372080242, 0.0, 0.0, 0.0, 0.0], [-1.7431588812963644e-05, 0.0, 0.0, 0.0, 0.0], [-8.472830870100494e-06, 0.0, 0.0, 0.0, 0.0], [0.001149613909059562, 0.0, 0.0, 0.0, 0.0], [2.2376425888490527e-05, 0.0, 0.0, 0.0, 0.0], [1.822770527377886e-06, 0.0, 0.0, 0.0, 0.0], [-5.152397775932315e-07, 0.0, 0.0, 0.0, 0.0], [0.0009781237839079683, 0.0, 0.0, 0.0, 0.0], [-2.8895888040858494e-05, 0.0, 0.0, 0.0, 0.0], [2.2275126028309668e-05, 0.0, 0.0, 0.0, 0.0], [-1.937204865466695e-05, 0.0, 0.0, 0.0, 0.0]], [[0.003660429588830706, -6.091947635693458e-06, 0.0017974172993593593, 0.0011423900937460557, -7.5608322232344945e-06, 0.0027003481585749192, -3.987201582680306e-06, -3.5963492797636547e-06, 0.005382080411187784, -4.978532973180932e-05, -1.4077182712892946e-05, -1.425336758217353e-06, 0.0018624038070264204, -1.0442478393673184e-05, -7.779028329703791e-06, -4.620372171743448e-06]]], "vb": [[0.0015193409685251027, -2.9323933633626953e-05, 0.0013947922239410378, -0.0005504946152182927, -5.029676775847757e-05, 0.0005633255622806331, -2.29977999241837e-05, -1.1359318570536527e-05, 0.0015817276327046393, 2.943417356471226e-05, 2.39659736442658e-06, -6.780320528554635e-07, 0.0012902342136535331, -3.875077460895087e-05, 2.930548010619744e-05, -2.5487391165276258e-05], [0.006689480250225897]]}}