{"version": 1, "model": {"layer_sizes": [5, 16, 1], "lr": 0.03, "momentum": 0.9, "grad_clip": 3.0, "total_samples": 731, "W": [[[1.0153732558162427, 0.9167098936040888, 0.041954449334932704, -0.48353986153823236, -0.6907509918316201], [-0.02147135498882018, -0.6464348041825333, -0.9087307311439718, 0.12605596212771603, 0.08435350654913912], [0.5200939378095891, -0.5780459794834379, 0.003165619319023322, -0.04094628450130507, -0.9523698821441012], [0.28292270609397424, 0.20283551001133254, 1.5110071283958506, 0.12836897902201092, -0.09151777529694573], [0.5154990974795097, 0.12572662463981144, 0.5749217012808462, -0.23119049338194606, 0.137983970293719], [0.7305733958871572, 0.4403452810123505, 0.08125298436065588, -0.6845116975202081, 0.2815829729115831], [0.011347182923562326, 0.45566371728464317, 0.13675771771954995, 0.6882288831510016, -0.032609575100486295], [0.07153701764088843, 0.4217064472385048, -0.6874061856520259, -0.25403225348189823, -0.3162458346088078], [1.47132446908027, -0.05873110184204383, 0.41250028865134114, 0.3917271844754705, -0.17763995472297467], [-0.9775377612093619, 0.6102209068034645, -0.25753384959998116, 0.45407565931871485, -0.8255219594097656], [-0.27673691102936976, 0.7948836121736637, 0.9050463886060675, -0.8237471601839077, -0.84294146328566], [-0.02807141243932474, 0.46058025358844906, 0.10151207239074857, 0.19198485424004202, -0.6253950672515969], [0.5337604770858301, 0.7063594416167539, -0.2755434956086589, -0.9066174559682012, -0.4799204277611376], [0.28684356429779, -1.0964863798482016, -0.05810798271313834, -0.6267686722314738, -0.08293670326895732], [-0.15136323505408814, 0.010028710300835318, 0.9494469225219566, 0.2660806474441458, 0.8435140039500585], [-0.09229567635968192, -0.3033172032094295, 0.23958084834702262, -1.7935115707259193, -0.02522790151826406]], [[0.648544323925447, -0.43516865272629524, 0.40004165682201864, 0.0735501074766448, -0.7020223053672381, 0.4083309081717341, -0.340766883124019, -0.1598909059051813, 0.8715624833412473, 0.4349240058966412, 0.03439004261367484, -0.010281084820266047, 0.3950152088310477, -0.5447301955479835, 0.437285090164367, -0.38147446442748495]]], "b": [[-0.2177906182275664, -0.07597383951629831, -0.09973408268951629, -0.0793584836193256, -0.5176380688628648, -0.16686307524784053, -0.06935794944818606, -0.10995975041295032, -0.3274750898516527, -4.72369337128574e-05, 1.6662154993369262e-06, 2.5026677266951873e-06, -0.1050624946920098, -0.3814520515053982, -7.001165739105718e-05, 6.71516985310687e-05], [-0.016963700874184605]], "vW": [[[0.0006551357134323977, 0.0, 0.0, 0.0, 0.0], [-4.592596050497857e-06, 0.0, 0.0, 0.0, 0.0], [0.00040610969996, 0.0, 0.0, 0.0, 0.0], [7.113505552747997e-05, 0.0, 0.0, 0.0, 0.0], [-7.407940576079871e-06, 0.0, 0.0, 0.0, 0.0], [0.00041076019793419397, 0.0, 0.0, 0.0, 0.0], [-3.5963641934675796e-06, 0.0, 0.0, 0.0, 0.0], [-1.6870648718146348e-06, 0.0, 0.0, 0.0, 0.0], [0.0008784074488308766, 0.0, 0.0, 0.0, 0.0], [4.595532024015731e-06, 0.0, 0.0, 0.0, 0.0], [3.6433911150483926e-07, 0.0, 0.0, 0.0, 0.0], [-1.0838551196102197e-07, 0.0, 0.0, 0.0, 0.0], [0.0004006262017474223, 0.0, 0.0, 0.0, 0.0], [-5.7477853492429235e-06, 0.0, 0.0, 0.0, 0.0], [4.616460796005177e-06, 0.0, 0.0, 0.0, 0.0], [-4.0261782548385175e-06, 0.0, 0.0, 0.0, 0.0]], [[0.0006178724571066285, -1.2695299560129457e-06, 0.00031687471948374084, 0.0001715499229220314, -1.717414567568182e-06, 0.0004442329346596849, -8.336267900664547e-07, -7.653427776901965e-07, 0.0008949362645840561, -1.0329187626944757e-05, -2.921858961453615e-06, -2.960295579856217e-07, 0.0003251122948439925, -2.2469293559584537e-06, -1.6089383131936918e-06, -9.643339958671637e-07]]], "vb": [[0.0008455170269749848, -6.030449557244683e-06, 0.0005247253557245548, 9.085770764820264e-05, -9.72605820422765e-06, 0.0005296100243926617, -4.722326752375491e-06, -2.214915622659869e-06, 0.0011330670414834284, 6.037532124626211e-06, 4.792039765143491e-07, -1.4225611340664203e-07, 0.0005175265341376858, -7.546230113054532e-06, 6.06277077050439e-06, -5.286946639543768e-06], [0.0013861434277077154]]}}