{"version": 1, "model": {"layer_sizes": [5, 16, 1], "lr": 0.03, "momentum": 0.9, "grad_clip": 3.0, "total_samples": 311, "W": [[[0.8909591348220305, 0.9167098936040888, 0.041954449334932704, -0.48353986153823236, -0.6907509918316201], [-0.020349390382306196, -0.6464348041825333, -0.9087307311439718, 0.12605596212771603, 0.08435350654913912], [0.4378127824924476, -0.5780459794834379, 0.003165619319023322, -0.04094628450130507, -0.9523698821441012], [0.27756158302554784, 0.20283551001133254, 1.5110071283958506, 0.12836897902201092, -0.09151777529694573], [0.5173115057441444, 0.12572662463981144, 0.5749217012808462, -0.23119049338194606, 0.137983970293719], [0.6570007869726643, 0.4403452810123505, 0.08125298436065588, -0.6845116975202081, 0.2815829729115831], [0.012225897755819727, 0.45566371728464317, 0.13675771771954995, 0.6882288831510016, -0.032609575100486295], [0.07194956807867316, 0.4217064472385048, -0.6874061856520259, -0.25403225348189823, -0.3162458346088078], [1.3096959980717175, -0.05873110184204383, 0.41250028865134114, 0.3917271844754705, -0.17763995472297467], [-0.9786646682366327, 0.6102209068034645, -0.25753384959998116, 0.45407565931871485, -0.8255219594097656], [-0.27682710770017904, 0.7948836121736637, 0.9050463886060675, -0.8237471601839077, -0.84294146328566], [-0.028045053556078326, 0.46058025358844906, 0.10151207239074857, 0.19198485424004202, -0.6253950672515969], [0.45356657203193745, 0.7063594416167539, -0.2755434956086589, -0.9066174559682012, -0.4799204277611376], [0.28824930276463423, -1.0964863798482016, -0.05810798271313834, -0.6267686722314738, -0.08293670326895732], [-0.1524917131018974, 0.010028710300835318, 0.9494469225219566, 0.2660806474441458, 0.8435140039500585], [-0.0913124525073473, -0.3033172032094295, 0.23958084834702262, -1.7935115707259193, -0.02522790151826406]], [[0.42826415479190977, -0.4352716662454574, 0.3008962799036246, -0.009446071397442211, -0.7043959930945971, 0.23807476254198345, -0.3409398669372805, -0.1602973931666524, 0.5386059944245899, 0.43745142311462026, 0.03510421032403896, -0.010208848615556375, 0.2901300023350596, -0.5462399009612027, 0.4376819989771919, -0.3812421853257864]]], "b": [[-0.08842791356965116, -0.07684350295593728, -0.01738601726952252, -0.0687205537895652, -0.5190444070665998, -0.08760906810606933, -0.07003902603652279, -0.11028002028307833, -0.15619476880963906, 0.0008202218169216475, 7.006506203381412e-05, -1.805237346818927e-05, -0.02423471277193343, -0.3825432006943656, 0.0008029580674112249, -0.000694617366465111], [0.1827020265371354]], "vW": [[[0.0003125943864657222, 0.0, 0.0, 0.0, 0.0], [-3.5643394238156625e-06, 0.0, 0.0, 0.0, 0.0], [0.00022530447263066682, 0.0, 0.0, 0.0, 0.0], [-1.5861847887079428e-05, 0.0, 0.0, 0.0, 0.0], [-5.767359326885411e-06, 0.0, 0.0, 0.0, 0.0], [0.000168894306945692, 0.0, 0.0, 0.0, 0.0], [-2.791933700169538e-06, 0.0, 0.0, 0.0, 0.0], [-1.3122958150480203e-06, 0.0, 0.0, 0.0, 0.0], [0.0003874263082989332, 0.0, 0.0, 0.0, 0.0], [3.588087941157126e-06, 0.0, 0.0, 0.0, 0.0], [2.889646083464084e-07, 0.0, 0.0, 0.0, 0.0], [-8.347102362832107e-08, 0.0, 0.0, 0.0, 0.0], [0.00021629499497186094, 0.0, 0.0, 0.0, 0.0], [-4.472026961109671e-06, 0.0, 0.0, 0.0, 0.0], [3.5856811545902162e-06, 0.0, 0.0, 0.0, 0.0], [-3.1221363477766055e-06, 0.0, 0.0, 0.0, 0.0]], [[0.000564668110451399, -6.869051512309489e-07, 0.00027331216146918465, 0.0001824869464292386, 6.687562428067503e-07, 0.0004199685388735966, -3.753844781366489e-07, -1.6858743418087278e-07, 0.0008342385420570004, -8.020873234428263e-06, -2.2677617607721725e-06, -2.2958312073634439e-07, 0.00028414055719152935, -2.6832406062003497e-07, -1.2541128130497907e-06, -7.43424900806724e-07]]], "vb": [[0.00022895994185011172, -3.0051518309101246e-06, 0.00016966621494024438, -1.894971615872612e-05, -4.8607243992506514e-06, 0.00011971762560472078, -2.3539482949026395e-06, -1.1058693505844204e-06, 0.00027910385558654297, 3.030873316206091e-06, 2.450465090007202e-07, -7.026278995247177e-08, 0.00016212608092849054, -3.7687007160861022e-06, 3.0248510940877826e-06, -2.6327256244222883e-06], [0.0006907897565463098]]}}