{"version": 1, "model": {"layer_sizes": [5, 16, 1], "lr": 0.03, "momentum": 0.9, "grad_clip": 3.0, "total_samples": 192, "W": [[[0.8617335996495887, 0.9167098936040888, 0.041954449334932704, -0.48353986153823236, -0.6907509918316201], [-0.019973668593601474, -0.6464348041825333, -0.9087307311439718, 0.12605596212771603, 0.08435350654913912], [0.4157176955074941, -0.5780459794834379, 0.003165619319023322, -0.04094628450130507, -0.9523698821441012], [0.28067236423826963, 0.20283551001133254, 1.5110071283958506, 0.12836897902201092, -0.09151777529694573], [0.5179197717561826, 0.12572662463981144, 0.5749217012808462, -0.23119049338194606, 0.137983970293719], [0.6420959435513924, 0.4403452810123505, 0.08125298436065588, -0.6845116975202081, 0.2815829729115831], [0.012520213892538334, 0.45566371728464317, 0.13675771771954995, 0.6882288831510016, -0.032609575100486295], [0.07208794948121115, 0.4217064472385048, -0.6874061856520259, -0.25403225348189823, -0.3162458346088078], [1.2745102950424247, -0.05873110184204383, 0.41250028865134114, 0.3917271844754705, -0.17763995472297467], [-0.9790433425556742, 0.6102209068034645, -0.25753384959998116, 0.45407565931871485, -0.8255219594097656], [-0.2768576955732833, 0.7948836121736637, 0.9050463886060675, -0.8237471601839077, -0.84294146328566], [-0.028036267808429178, 0.46058025358844906, 0.10151207239074857, 0.19198485424004202, -0.6253950672515969], [0.4325227660113359, 0.7063594416167539, -0.2755434956086589, -0.9066174559682012, -0.4799204277611376], [0.28872089839693504, -1.0964863798482016, -0.05810798271313834, -0.6267686722314738, -0.08293670326895732], [-0.15286975172596506, 0.010028710300835318, 0.9494469225219566, 0.2660806474441458, 0.8435140039500585], [-0.09098338905780741, -0.3033172032094295, 0.23958084834702262, -1.7935115707259193, -0.02522790151826406]], [[0.3587380718993246, -0.4353156398575374, 0.27216408659591335, -0.039686289185893, -0.7052502200119887, 0.18213697695837683, -0.3410063135206779, -0.16044615126219905, 0.43094196991905875, 0.43829860684775074, 0.03534339879653228, -0.010184686215512278, 0.2590669982623117, -0.546789267975454, 0.43781587018589807, -0.38116527214853296]]], "b": [[-0.050434066503333534, -0.07718338249663262, 0.00923647886323474, -0.0694451743211738, -0.5195950971123204, -0.06642634939956052, -0.07030525420244108, -0.11040534908823285, -0.10833966524903667, 0.0011609428456656578, 9.727577694868552e-05, -2.6037472612433945e-05, 0.0014471993557237449, -0.382970268468022, 0.0011444055038593184, -0.0009921828529609374], [0.2607370525955362]], "vW": [[[0.00023511023401764594, 0.0, 0.0, 0.0, 0.0], [-3.3255951336505992e-06, 0.0, 0.0, 0.0, 0.0], [0.00018603677285711348, 0.0, 0.0, 0.0, 0.0], [-3.811722881584936e-05, 0.0, 0.0, 0.0, 0.0], [-5.387037797312605e-06, 0.0, 0.0, 0.0, 0.0], [0.00011278155301808288, 0.0, 0.0, 0.0, 0.0], [-2.6051717169601436e-06, 0.0, 0.0, 0.0, 0.0], [-1.225402638053442e-06, 0.0, 0.0, 0.0, 0.0], [0.00027472460644482465, 0.0, 0.0, 0.0, 0.0], [3.354091056797964e-06, 0.0, 0.0, 0.0, 0.0], [2.7146051018899123e-07, 0.0, 0.0, 0.0, 0.0], [-7.768342482219468e-08, 0.0, 0.0, 0.0, 0.0], [0.00017589899077056868, 0.0, 0.0, 0.0, 0.0], [-4.176243026474591e-06, 0.0, 0.0, 0.0, 0.0], [3.346251760218671e-06, 0.0, 0.0, 0.0, 0.0], [-2.9121422917533967e-06, 0.0, 0.0, 0.0, 0.0]], [[0.0005433901184919493, -5.442915839561449e-07, 0.00025499100128636596, 0.00018828126762874333, 1.2661705214693705e-06, 0.00041103725166949227, -2.6245844644886294e-07, -2.07787843192052e-08, 0.0008108677653269334, -7.485929725760548e-06, -2.115923234476929e-06, -2.141192539356416e-07, 0.0002670378579024508, 2.2313726067992148e-07, -1.1729416688244703e-06, -6.910211567541269e-07]]], "vb": [[0.00011655721130010132, -2.2677799170647858e-06, 0.00010076086041932789, -3.237315535793258e-05, -3.6714598038395743e-06, 4.8579739260654954e-05, -1.7765393474067829e-06, -8.349982814913482e-07, 0.00012761830644980512, 2.2938783764683454e-06, 1.8677021785857474e-07, -5.284138616536575e-08, 9.400510308037364e-05, -2.8458774446297487e-06, 2.2838597201570186e-06, -1.986308077519534e-06], [0.0005213370491136569]]}}