{"version": 1, "model": {"layer_sizes": [5, 16, 1], "lr": 0.03, "momentum": 0.9, "grad_clip": 3.0, "total_samples": 417, "W": [[[0.9207475579946235, 0.9167098936040888, 0.041954449334932704, -0.48353986153823236, -0.6907509918316201], [-0.02066931828947311, -0.6464348041825333, -0.9087307311439718, 0.12605596212771603, 0.08435350654913912], [0.45871793863129035, -0.5780459794834379, 0.003165619319023322, -0.04094628450130507, -0.9523698821441012], [0.2769425256537174, 0.20283551001133254, 1.5110071283958506, 0.12836897902201092, -0.09151777529694573], [0.516794116985236, 0.12572662463981144, 0.5749217012808462, -0.23119049338194606, 0.137983970293719], [0.6735810225805158, 0.4403452810123505, 0.08125298436065588, -0.6845116975202081, 0.2815829729115831], [0.01197530881603975, 0.45566371728464317, 0.13675771771954995, 0.6882288831510016, -0.032609575100486295], [0.07183183081630258, 0.4217064472385048, -0.6874061856520259, -0.25403225348189823, -0.3162458346088078], [1.3471835513543111, -0.05873110184204383, 0.41250028865134114, 0.3917271844754705, -0.17763995472297467], [-0.9783427432511573, 0.6102209068034645, -0.25753384959998116, 0.45407565931871485, -0.8255219594097656], [-0.2768012153923845, 0.7948836121736637, 0.9050463886060675, -0.8237471601839077, -0.84294146328566], [-0.028052551273932472, 0.46058025358844906, 0.10151207239074857, 0.19198485424004202, -0.6253950672515969], [0.47372774164343856, 0.7063594416167539, -0.2755434956086589, -0.9066174559682012, -0.4799204277611376], [0.2878480895171816, -1.0964863798482016, -0.05810798271313834, -0.6267686722314738, -0.08293670326895732], [-0.15216986340494928, 0.010028710300835318, 0.9494469225219566, 0.2660806474441458, 0.8435140039500585], [-0.09159273273734693, -0.3033172032094295, 0.23958084834702262, -1.7935115707259193, -0.02522790151826406]], [[0.4894902011889663, -0.435236934297846, 0.32739691309875474, 0.015291057543172, -0.7036848526918624, 0.28630471780748684, -0.34088570599762064, -0.1601741875654983, 0.6322121317436789, 0.4367303865930149, 0.034900552358914365, -0.010229435026329151, 0.31844019701790177, -0.5457841117069511, 0.43756841620121856, -0.38130805119392935]]], "b": [[-0.12348060589842895, -0.07656722406670388, -0.04076522874673093, -0.06991961467887466, -0.5185971792280152, -0.10816814134850722, -0.06982263506205408, -0.1101782095192903, -0.20153410135368077, 0.000543819867869091, 4.8106206369799216e-05, -1.1545087402502613e-05, -0.04698588591325146, -0.3821962990940249, 0.0005254865669648501, -0.0004526757854436389], [0.1192676729168617]], "vW": [[[0.0003786695654565685, 0.0, 0.0, 0.0, 0.0], [-3.6836529229730156e-06, 0.0, 0.0, 0.0, 0.0], [0.00025746649575567043, 0.0, 0.0, 0.0, 0.0], [5.207509250894393e-06, 0.0, 0.0, 0.0, 0.0], [-5.954853611686402e-06, 0.0, 0.0, 0.0, 0.0], [0.00021788251841778708, 0.0, 0.0, 0.0, 0.0], [-2.8851590517015632e-06, 0.0, 0.0, 0.0, 0.0], [-1.3552943278462959e-06, 0.0, 0.0, 0.0, 0.0], [0.0004848644217629428, 0.0, 0.0, 0.0, 0.0], [3.7021015693628263e-06, 0.0, 0.0, 0.0, 0.0], [2.9686210732002196e-07, 0.0, 0.0, 0.0, 0.0], [-8.645298990687601e-08, 0.0, 0.0, 0.0, 0.0], [0.00024968758967518196, 0.0, 0.0, 0.0, 0.0], [-4.618243463593273e-06, 0.0, 0.0, 0.0, 0.0], [3.704973541875161e-06, 0.0, 0.0, 0.0, 0.0], [-3.2274607216524603e-06, 0.0, 0.0, 0.0, 0.0]], [[0.0005614713671601046, -7.841935174092166e-07, 0.00027621057725925216, 0.00017443189342569807, 1.943374449784881e-07, 0.000413770405087107, -4.555324713752075e-07, -2.7982958380418293e-07, 0.000825046078023286, -8.28823685112601e-06, -2.3436928695141032e-06, -2.3732284429990007e-07, 0.00028607629517112107, -6.435682287838727e-07, -1.2945046278452614e-06, -7.698187434330474e-07]]], "vb": [[0.00033312680357635086, -3.521178755337393e-06, 0.0002293274601208996, 1.1665757586178745e-07, -5.690533836941037e-06, 0.00018924857186364253, -2.75792461099886e-06, -1.2950190874267765e-06, 0.00042370778557897833, 3.5439158803220835e-06, 2.8503493038795453e-07, -8.253897104937273e-08, 0.00022191103348246592, -4.412969019652406e-06, 3.5430908851298238e-06, -3.0854733472739477e-06], [0.0008094050867887945]]}}