{"version": 1, "model": {"layer_sizes": [5, 16, 1], "lr": 0.03, "momentum": 0.9, "grad_clip": 3.0, "total_samples": 952, "W": [[[1.086180870466167, 0.9167098936040888, 0.041954449334932704, -0.48353986153823236, -0.6907509918316201], [-0.02195185599066502, -0.6464348041825333, -0.9087307311439718, 0.12605596212771603, 0.08435350654913912], [0.5634526213968002, -0.5780459794834379, 0.003165619319023322, -0.04094628450130507, -0.9523698821441012], [0.2914544751335621, 0.20283551001133254, 1.5110071283958506, 0.12836897902201092, -0.09151777529694573], [0.5147245985775952, 0.12572662463981144, 0.5749217012808462, -0.23119049338194606, 0.137983970293719], [0.7754276049584141, 0.4403452810123505, 0.08125298436065588, -0.6845116975202081, 0.2815829729115831], [0.010970927703008098, 0.45566371728464317, 0.13675771771954995, 0.6882288831510016, -0.032609575100486295], [0.07136062180441417, 0.4217064472385048, -0.6874061856520259, -0.25403225348189823, -0.3162458346088078], [1.566800341111057, -0.05873110184204383, 0.41250028865134114, 0.3917271844754705, -0.17763995472297467], [-0.9770569187368938, 0.6102209068034645, -0.25753384959998116, 0.45407565931871485, -0.8255219594097656], [-0.2766988024727735, 0.7948836121736637, 0.9050463886060675, -0.8237471601839077, -0.84294146328566], [-0.02808275648282643, 0.46058025358844906, 0.10151207239074857, 0.19198485424004202, -0.6253950672515969], [0.5766347672858, 0.7063594416167539, -0.2755434956086589, -0.9066174559682012, -0.4799204277611376], [0.2862426002119315, -1.0964863798482016, -0.05810798271313834, -0.6267686722314738, -0.08293670326895732], [-0.15088014774925046, 0.010028710300835318, 0.9494469225219566, 0.2660806474441458, 0.8435140039500585], [-0.09271700868630164, -0.3033172032094295, 0.23958084834702262, -1.7935115707259193, -0.02522790151826406]], [[0.7459177496128959, -0.43514083434233225, 0.4463978921902051, 0.10624246428291965, -0.7011111804543617, 0.48141758565156845, -0.34070753671276954, -0.1597392539918781, 1.0162004894144245, 0.43384244840665076, 0.03408421768184548, -0.010312051048470964, 0.44339580574492415, -0.5441614279597996, 0.43711612145684475, -0.3815748692460716]]], "b": [[-0.2745344732053586, -0.07568869423041151, -0.13357851467541002, -0.08762097546664994, -0.5171778742722715, -0.20358386314748825, -0.06913468983790774, -0.10985486058282187, -0.404894839889199, -0.0003296182100777111, -2.019874690598935e-05, 9.296716966117295e-06, -0.13870170210988023, -0.38109477849377243, -0.00035585748894105887, 0.0003170362296869036], [-0.08241261225963863]], "vW": [[[0.0007926523243878791, 0.0, 0.0, 0.0, 0.0], [-4.780657449386762e-06, 0.0, 0.0, 0.0, 0.0], [0.0004757098893248773, 0.0, 0.0, 0.0, 0.0], [0.00011077695333240672, 0.0, 0.0, 0.0, 0.0], [-7.701763201148475e-06, 0.0, 0.0, 0.0, 0.0], [0.0005104256594967136, 0.0, 0.0, 0.0, 0.0], [-3.743214454288031e-06, 0.0, 0.0, 0.0, 0.0], [-1.7546020414672708e-06, 0.0, 0.0, 0.0, 0.0], [0.001078518604434904, 0.0, 0.0, 0.0, 0.0], [4.7718495048529865e-06, 0.0, 0.0, 0.0, 0.0], [3.7584782149753445e-07, 0.0, 0.0, 0.0, 0.0], [-1.1317777436341252e-07, 0.0, 0.0, 0.0, 0.0], [0.00047224731868205483, 0.0, 0.0, 0.0, 0.0], [-5.97730147133285e-06, 0.0, 0.0, 0.0, 0.0], [4.803878565266692e-06, 0.0, 0.0, 0.0, 0.0], [-4.19241261788489e-06, 0.0, 0.0, 0.0, 0.0]], [[0.0005904771650337426, -1.4143344221728984e-06, 0.0003061881440314481, 0.00015863183450903732, -2.41298552419786e-06, 0.00042164633866722504, -9.523117987202429e-07, -9.295545046671982e-07, 0.0008518753646693053, -1.0751455960650173e-05, -3.0415557731369748e-06, -3.081952223205524e-07, 0.0003133786175063759, -2.799821382024452e-06, -1.6736792524073406e-06, -1.0049382448763256e-06]]], "vb": [[0.001116369372155322, -6.801159521851994e-06, 0.0006702667302703423, 0.0001555785151458082, -1.095588173798751e-05, 0.0007186430095763535, -5.325259640218248e-06, -2.4958889329959644e-06, 0.0015187029466396992, 6.791353117105253e-06, 5.353702573972598e-07, -1.6095813283206226e-07, 0.0006653336457936403, -8.502661255775904e-06, 6.835023015319786e-06, -5.964505223805418e-06], [0.0015633479910644658]]}}