{"version": 1, "model": {"layer_sizes": [5, 16, 1], "lr": 0.03, "momentum": 0.9, "grad_clip": 3.0, "total_samples": 560, "W": [[[0.9597186230437501, 0.9167098936040888, 0.041954449334932704, -0.48353986153823236, -0.6907509918316201], [-0.021031982380702464, -0.6464348041825333, -0.9087307311439718, 0.12605596212771603, 0.08435350654913912], [0.48471478829758674, -0.5780459794834379, 0.003165619319023322, -0.04094628450130507, -0.9523698821441012], [0.2782690088890318, 0.20283551001133254, 1.5110071283958506, 0.12836897902201092, -0.09151777529694573], [0.5162081617574488, 0.12572662463981144, 0.5749217012808462, -0.23119049338194606, 0.137983970293719], [0.6964346971052299, 0.4403452810123505, 0.08125298436065588, -0.6845116975202081, 0.2815829729115831], [0.011691268232693133, 0.45566371728464317, 0.13675771771954995, 0.6882288831510016, -0.032609575100486295], [0.07169845903079139, 0.4217064472385048, -0.6874061856520259, -0.25403225348189823, -0.3162458346088078], [1.3975869403618817, -0.05873110184204383, 0.41250028865134114, 0.3917271844754705, -0.17763995472297467], [-0.9779783646399742, 0.6102209068034645, -0.25753384959998116, 0.45407565931871485, -0.8255219594097656], [-0.2767720259576512, 0.7948836121736637, 0.9050463886060675, -0.8237471601839077, -0.84294146328566], [-0.028061067874894537, 0.46058025358844906, 0.10151207239074857, 0.19198485424004202, -0.6253950672515969], [0.49902549844489297, 0.7063594416167539, -0.2755434956086589, -0.9066174559682012, -0.4799204277611376], [0.28739362779670985, -1.0964863798482016, -0.05810798271313834, -0.6267686722314738, -0.08293670326895732], [-0.15180508055449576, 0.010028710300835318, 0.9494469225219566, 0.2660806474441458, 0.8435140039500585], [-0.09191053376741676, -0.3033172032094295, 0.23958084834702262, -1.7935115707259193, -0.02522790151826406]], [[0.5605234080379513, -0.43520180768400685, 0.35921142063143313, 0.042302073668560626, -0.7029054928126187, 0.34134143092245495, -0.3408281308160525, -0.1600402244091741, 0.7397372970505443, 0.4359133679255405, 0.03466970265899424, -0.010252782729153396, 0.35213737629412667, -0.545287200478656, 0.4374400530737032, -0.3813830726179301]]], "b": [[-0.1668485229854165, -0.07627603754662854, -0.06834723682954723, -0.07352474231051193, -0.5181263209346896, -0.13475860914926457, -0.06959459270589638, -0.11007097970229339, -0.25897931932754864, 0.0002533463328439508, 2.5198643443042183e-05, -4.66309354902041e-06, -0.07406321535044513, -0.3818309702668902, 0.00023318356429079408, -0.00019761122369563554], [0.052412755373236135]], "vW": [[[0.0005115946343374612, 0.0, 0.0, 0.0, 0.0], [-4.219716391119004e-06, 0.0, 0.0, 0.0, 0.0], [0.0003307448510494633, 0.0, 0.0, 0.0, 0.0], [3.404565001793645e-05, 0.0, 0.0, 0.0, 0.0], [-6.814487421442256e-06, 0.0, 0.0, 0.0, 0.0], [0.00030906218534747026, 0.0, 0.0, 0.0, 0.0], [-3.304717800877739e-06, 0.0, 0.0, 0.0, 0.0], [-1.5513959990091652e-06, 0.0, 0.0, 0.0, 0.0], [0.0006722597586586341, 0.0, 0.0, 0.0, 0.0], [4.232191362688867e-06, 0.0, 0.0, 0.0, 0.0], [3.37574101266859e-07, 0.0, 0.0, 0.0, 0.0], [-9.92923697725301e-08, 0.0, 0.0, 0.0, 0.0], [0.00032370247118973516, 0.0, 0.0, 0.0, 0.0], [-5.286047782738174e-06, 0.0, 0.0, 0.0, 0.0], [4.2429561564960425e-06, 0.0, 0.0, 0.0, 0.0], [-3.698133818714612e-06, 0.0, 0.0, 0.0, 0.0]], [[0.000609570855648572, -1.055368799125544e-06, 0.0003077258356899224, 0.00017697095368922517, -8.306860184497468e-07, 0.0004424679287381751, -6.647778058802254e-07, -5.443955448835686e-07, 0.0008878298078180928, -9.491724223567985e-06, -2.6846224485899743e-06, -2.7194104594754687e-07, 0.00031684447667519773, -1.5136520724104266e-06, -1.479906722744167e-06, -8.845299733773622e-07]]], "vb": [[0.0005756587170490724, -4.914984033812006e-06, 0.00037346397098600784, 3.625277629776041e-05, -7.935871639167783e-06, 0.00034664551425750813, -3.849237466670791e-06, -1.8066033628157951e-06, 0.0007551341969824063, 4.933494232880562e-06, 3.9417895642202344e-07, -1.1557474959372128e-07, 0.0003652757667450832, -6.155700422595731e-06, 4.9432640219709916e-06, -4.3077658345553275e-06], [0.0011297309990703614]]}}