{"version": 1, "model": {"layer_sizes": [5, 16, 1], "lr": 0.03, "momentum": 0.9, "grad_clip": 3.0, "total_samples": 1329, "W": [[[1.209486408280345, 0.9167098936040888, 0.041954449334932704, -0.48353986153823236, -0.6907509918316201], [-0.022658110752605456, -0.6464348041825333, -0.9087307311439718, 0.12605596212771603, 0.08435350654913912], [0.6364141282850917, -0.5780459794834379, 0.003165619319023322, -0.04094628450130507, -0.9523698821441012], [0.3103300732573917, 0.20283551001133254, 1.5110071283958506, 0.12836897902201092, -0.09151777529694573], [0.5135879963520856, 0.12572662463981144, 0.5749217012808462, -0.23119049338194606, 0.137983970293719], [0.8557237432928622, 0.4403452810123505, 0.08125298436065588, -0.6845116975202081, 0.2815829729115831], [0.01041796975753418, 0.45566371728464317, 0.13675771771954995, 0.6882288831510016, -0.032609575100486295], [0.07110164990467387, 0.4217064472385048, -0.6874061856520259, -0.25403225348189823, -0.3162458346088078], [1.7356212732177299, -0.05873110184204383, 0.41250028865134114, 0.3917271844754705, -0.17763995472297467], [-0.9763520267236064, 0.6102209068034645, -0.25753384959998116, 0.45407565931871485, -0.8255219594097656], [-0.27664333521615964, 0.7948836121736637, 0.9050463886060675, -0.8237471601839077, -0.84294146328566], [-0.028099488454098112, 0.46058025358844906, 0.10151207239074857, 0.19198485424004202, -0.6253950672515969], [0.6492685464555846, 0.7063594416167539, -0.2755434956086589, -0.9066174559682012, -0.4799204277611376], [0.285360405121889, -1.0964863798482016, -0.05810798271313834, -0.6267686722314738, -0.08293670326895732], [-0.15017030538718093, 0.010028710300835318, 0.9494469225219566, 0.2660806474441458, 0.8435140039500585], [-0.09333655716030619, -0.3033172032094295, 0.23958084834702262, -1.7935115707259193, -0.02522790151826406]], [[0.8891354585462916, -0.4351096318418572, 0.5160587071072025, 0.15198959225096442, -0.6998341572612644, 0.5876425412785646, -0.34062905171298824, -0.15952958428219596, 1.2274477669236756, 0.432253249765651, 0.03363470783439785, -0.010357588203742536, 0.5157340688637195, -0.5433713172398049, 0.43686843968782535, -0.3817230789883655]]], "b": [[-0.36081134779434193, -0.07532091294958145, -0.18373208422839823, -0.1022459627277095, -0.5165849862924382, -0.26053843989037656, -0.0688467740821663, -0.10971964444508447, -0.5239212473790243, -0.0006917887332453615, -4.784584314794086e-05, 1.811210116635268e-05, -0.1888079485763973, -0.3806342866536043, -0.0007241224426018101, 0.0006394134369555315], [-0.16680138962818386]], "vW": [[[0.001003827718912899, 0.0, 0.0, 0.0, 0.0], [-5.030141841172483e-06, 0.0, 0.0, 0.0, 0.0], [0.0005833775840126742, 0.0, 0.0, 0.0, 0.0], [0.00017040913467214112, 0.0, 0.0, 0.0, 0.0], [-8.089506148965878e-06, 0.0, 0.0, 0.0, 0.0], [0.0006627990018928366, 0.0, 0.0, 0.0, 0.0], [-3.937929376758867e-06, 0.0, 0.0, 0.0, 0.0], [-1.8438868482138053e-06, 0.0, 0.0, 0.0, 0.0], [0.001385025004435793, 0.0, 0.0, 0.0, 0.0], [5.002530167234092e-06, 0.0, 0.0, 0.0, 0.0], [3.9020742666245756e-07, 0.0, 0.0, 0.0, 0.0], [-1.1962660964151475e-07, 0.0, 0.0, 0.0, 0.0], [0.0005828588214544892, 0.0, 0.0, 0.0, 0.0], [-6.280575980546385e-06, 0.0, 0.0, 0.0, 0.0], [5.051990069395894e-06, 0.0, 0.0, 0.0, 0.0], [-4.4132227925650125e-06, 0.0, 0.0, 0.0, 0.0]], [[0.0005451555489812798, -1.6016206400462844e-06, 0.0002865632168397516, 0.0001403335970609446, -3.3026662645203393e-06, 0.00038595196511782804, -1.1053610714097043e-06, -1.1403726748202285e-06, 0.0007825931919656058, -1.1311489107072235e-05, -3.2003178109521554e-06, -3.2433357364015286e-07, 0.0002924158638545269, -3.508919444226157e-06, -1.7594826586216606e-06, -1.0588572579521087e-06]]], "vb": [[0.0015477096030937156, -7.795638180656348e-06, 0.0008995345591176311, 0.000262614436115779, -1.2536268325937336e-05, 0.0010218414800297134, -6.102951864314152e-06, -2.8574137589786408e-06, 0.002135363869003349, 7.75499879208684e-06, 6.05271198672266e-07, -1.853531630443717e-07, 0.00089871884416673, -9.732860619732015e-06, 7.830147766589922e-06, -6.839704208376216e-06], [0.0017920181449450358]]}}