{"version": 1, "model": {"layer_sizes": [5, 16, 1], "lr": 0.03, "momentum": 0.9, "grad_clip": 3.0, "total_samples": 1472, "W": [[[1.2560864001928296, 0.9167098936040888, 0.041954449334932704, -0.48353986153823236, -0.6907509918316201], [-0.022895953675076564, -0.6464348041825333, -0.9087307311439718, 0.12605596212771603, 0.08435350654913912], [0.6634545512232579, -0.5780459794834379, 0.003165619319023322, -0.04094628450130507, -0.9523698821441012], [0.3183061003878204, 0.20283551001133254, 1.5110071283958506, 0.12836897902201092, -0.09151777529694573], [0.513205692756717, 0.12572662463981144, 0.5749217012808462, -0.23119049338194606, 0.137983970293719], [0.8865278958267833, 0.4403452810123505, 0.08125298436065588, -0.6845116975202081, 0.2815829729115831], [0.01023177125563595, 0.45566371728464317, 0.13675771771954995, 0.6882288831510016, -0.032609575100486295], [0.07101451536268043, 0.4217064472385048, -0.6874061856520259, -0.25403225348189823, -0.3162458346088078], [1.7999588485603297, -0.05873110184204383, 0.41250028865134114, 0.3917271844754705, -0.17763995472297467], [-0.9761151320936576, 0.6102209068034645, -0.25753384959998116, 0.45407565931871485, -0.8255219594097656], [-0.27662479891845226, 0.7948836121736637, 0.9050463886060675, -0.8237471601839077, -0.84294146328566], [-0.028105138474071034, 0.46058025358844906, 0.10151207239074857, 0.19198485424004202, -0.6253950672515969], [0.6762932622038755, 0.7063594416167539, -0.2755434956086589, -0.9066174559682012, -0.4799204277611376], [0.28506360454311064, -1.0964863798482016, -0.05810798271313834, -0.6267686722314738, -0.08293670326895732], [-0.14993131055487086, 0.010028710300835318, 0.9494469225219566, 0.2660806474441458, 0.8435140039500585], [-0.09354526878917416, -0.3033172032094295, 0.23958084834702262, -1.7935115707259193, -0.02522790151826406]], [[0.9368301521326696, -0.43510112853948585, 0.5395465600713684, 0.16676754535726038, -0.69941694983364, 0.6227692481909515, -0.3406044297809178, -0.15946171010942117, 1.2975070237039124, 0.43171815801001745, 0.03348332551656995, -0.010372928489285572, 0.540054926580171, -0.5431147187367297, 0.436785168668031, -0.38177312451544115]]], "b": [[-0.3907560854380342, -0.07520765862515504, -0.20088093422377057, -0.1077299621124722, -0.5164025663505393, -0.2805280647345778, -0.06875812499003743, -0.10967801948049499, -0.5654923016371569, -0.0008027580850724821, -5.620949517349084e-05, 2.0840713098589984e-05, -0.20599274686154098, -0.38049254927155096, -0.0008374070612679788, 0.0007387016973543797], [-0.19277934829038113]], "vW": [[[0.001069465073547749, 0.0, 0.0, 0.0, 0.0], [-5.075445566781696e-06, 0.0, 0.0, 0.0, 0.0], [0.0006165487332512078, 0.0, 0.0, 0.0, 0.0], [0.00018940837626820235, 0.0, 0.0, 0.0, 0.0], [-8.15765214011143e-06, 0.0, 0.0, 0.0, 0.0], [0.0007104122389215181, 0.0, 0.0, 0.0, 0.0], [-3.9731857272321445e-06, 0.0, 0.0, 0.0, 0.0], [-1.8597391807614828e-06, 0.0, 0.0, 0.0, 0.0], [0.001480588671759085, 0.0, 0.0, 0.0, 0.0], [5.041386034253797e-06, 0.0, 0.0, 0.0, 0.0], [3.919489419185705e-07, 0.0, 0.0, 0.0, 0.0], [-1.2088663448965899e-07, 0.0, 0.0, 0.0, 0.0], [0.0006170045778680943, 0.0, 0.0, 0.0, 0.0], [-6.334273388478235e-06, 0.0, 0.0, 0.0, 0.0], [5.096605339842322e-06, 0.0, 0.0, 0.0, 0.0], [-4.453640844500714e-06, 0.0, 0.0, 0.0, 0.0]], [[0.0005268976911883955, -1.6439915503779909e-06, 0.0002780234904421227, 0.00013396322084312104, -3.5198691674871706e-06, 0.00037211713361654913, -1.1407527345648852e-06, -1.1904843167185098e-06, 0.0007553200120317607, -1.1413007695457504e-05, -3.229145728859871e-06, -3.272715176249549e-07, 0.00028346569774735756, -3.678711993258487e-06, -1.774833287060403e-06, -1.0688633425991969e-06]]], "vb": [[0.0016831690971458755, -8.022639364170874e-06, 0.0009703970209361422, 0.0002980251000665766, -1.2893943240301902e-05, 0.0011180365146794768, -6.280330710471082e-06, -2.9394482625922515e-06, 0.0023301657477113073, 7.970820307802538e-06, 6.200452622423693e-07, -1.9104288788911904e-07, 0.0009711049793564132, -1.0011809275517122e-05, 8.056693211496915e-06, -7.03991298116314e-06], [0.001844225596409213]]}}