{"version": 1, "model": {"layer_sizes": [5, 16, 1], "lr": 0.03, "momentum": 0.9, "grad_clip": 3.0, "total_samples": 508, "W": [[[0.9448562034557549, 0.9167098936040888, 0.041954449334932704, -0.48353986153823236, -0.6907509918316201], [-0.020900386956587896, -0.6464348041825333, -0.9087307311439718, 0.12605596212771603, 0.08435350654913912], [0.47495303229686836, -0.5780459794834379, 0.003165619319023322, -0.04094628450130507, -0.9523698821441012], [0.2775219728175915, 0.20283551001133254, 1.5110071283958506, 0.12836897902201092, -0.09151777529694573], [0.5164207104032207, 0.12572662463981144, 0.5749217012808462, -0.23119049338194606, 0.137983970293719], [0.6875877670245543, 0.4403452810123505, 0.08125298436065588, -0.6845116975202081, 0.2815829729115831], [0.011794331612130823, 0.45566371728464317, 0.13675771771954995, 0.6882288831510016, -0.032609575100486295], [0.07174684234801981, 0.4217064472385048, -0.6874061856520259, -0.25403225348189823, -0.3162458346088078], [1.378211068645424, -0.05873110184204383, 0.41250028865134114, 0.3917271844754705, -0.17763995472297467], [-0.9781105061843303, 0.6102209068034645, -0.25753384959998116, 0.45407565931871485, -0.8255219594097656], [-0.27678259541627226, 0.7948836121736637, 0.9050463886060675, -0.8237471601839077, -0.84294146328566], [-0.028057975216458694, 0.46058025358844906, 0.10151207239074857, 0.19198485424004202, -0.6253950672515969], [0.4894994000360077, 0.7063594416167539, -0.2755434956086589, -0.9066174559682012, -0.4799204277611376], [0.2875584890751852, -1.0964863798482016, -0.05810798271313834, -0.6267686722314738, -0.08293670326895732], [-0.15193743565539614, 0.010028710300835318, 0.9494469225219566, 0.2660806474441458, 0.8435140039500585], [-0.09179520705719191, -0.3033172032094295, 0.23958084834702262, -1.7935115707259193, -0.02522790151826406]], [[0.5346251520966598, -0.43521285300695123, 0.34744685377601064, 0.03271495927228508, -0.7031770503258106, 0.3214173648488189, -0.3408474786567335, -0.16008644456940785, 0.70070039235863, 0.43620977140808326, 0.03475346495527692, -0.01024430913159534, 0.33971989375133504, -0.5454592214501373, 0.4374865668819981, -0.3813557934555753]]], "b": [[-0.15174816895030757, -0.07637233133385794, -0.05886594819124115, -0.07207591447171262, -0.518281985787618, -0.12539471593558074, -0.06967000239484458, -0.11010643429263074, -0.23885416461456022, 0.00034929546963016175, 3.2744210708766004e-05, -6.941805493819249e-06, -0.06473280630620877, -0.3819517586489691, 0.0003298256129940623, -0.0002819652783951258], [0.07452024675407956]], "vW": [[[0.0004730408822236422, 0.0, 0.0, 0.0, 0.0], [-4.117345862602626e-06, 0.0, 0.0, 0.0, 0.0], [0.000310666339705481, 0.0, 0.0, 0.0, 0.0], [2.3825133413932825e-05, 0.0, 0.0, 0.0, 0.0], [-6.6515586011778964e-06, 0.0, 0.0, 0.0, 0.0], [0.0002816063439612353, 0.0, 0.0, 0.0, 0.0], [-3.2246481784264392e-06, 0.0, 0.0, 0.0, 0.0], [-1.5141510783376337e-06, 0.0, 0.0, 0.0, 0.0], [0.0006167258316412473, 0.0, 0.0, 0.0, 0.0], [4.1323743227393e-06, 0.0, 0.0, 0.0, 0.0], [3.302089923054833e-07, 0.0, 0.0, 0.0, 0.0], [-9.679743482292508e-08, 0.0, 0.0, 0.0, 0.0], [0.00030317205631179707, 0.0, 0.0, 0.0, 0.0], [-5.159285808637433e-06, 0.0, 0.0, 0.0, 0.0], [4.140397805176052e-06, 0.0, 0.0, 0.0, 0.0], [-3.608071548631973e-06, 0.0, 0.0, 0.0, 0.0]], [[0.0006066704480123709, -9.947401632785176e-07, 0.00030454791437083356, 0.00017883571450962157, -5.753883245027996e-07, 0.0004418353656874347, -6.167648421090842e-07, -4.812146748008813e-07, 0.0008853283502820251, -9.261906955751403e-06, -2.619495846927168e-06, -2.6532450190716473e-07, 0.0003139706286660302, -1.3035926549958502e-06, -1.4445978401436304e-06, -8.625158219202771e-07]]], "vb": [[0.0005061574667010195, -4.598921730178118e-06, 0.00033405011095448823, 2.2911120582507993e-05, -7.428050348622143e-06, 0.00029991618367322713, -3.601825896380819e-06, -1.6908161317303357e-06, 0.0006582580243889853, 4.619935490954886e-06, 3.6987671006772796e-07, -1.0803652701036023e-07, 0.0003256997342212986, -5.76134480174922e-06, 4.625954898649306e-06, -4.0304022143602086e-06], [0.0010570810337496503]]}}