{"version": 1, "model": {"layer_sizes": [5, 16, 1], "lr": 0.03, "momentum": 0.9, "grad_clip": 3.0, "total_samples": 430, "W": [[[0.9237294719027039, 0.9167098936040888, 0.041954449334932704, -0.48353986153823236, -0.6907509918316201], [-0.020699669545392835, -0.6464348041825333, -0.9087307311439718, 0.12605596212771603, 0.08435350654913912], [0.46076381538823574, -0.5780459794834379, 0.003165619319023322, -0.04094628450130507, -0.9523698821441012], [0.276954467321269, 0.20283551001133254, 1.5110071283958506, 0.12836897902201092, -0.09151777529694573], [0.5167450551549588, 0.12572662463981144, 0.5749217012808462, -0.23119049338194606, 0.137983970293719], [0.6752809702144101, 0.4403452810123505, 0.08125298436065588, -0.6845116975202081, 0.2815829729115831], [0.011951536486772914, 0.45566371728464317, 0.13675771771954995, 0.6882288831510016, -0.032609575100486295], [0.07182066523968353, 0.4217064472385048, -0.6874061856520259, -0.25403225348189823, -0.3162458346088078], [1.3509832181390558, -0.05873110184204383, 0.41250028865134114, 0.3917271844754705, -0.17763995472297467], [-0.9783122171393134, 0.6102209068034645, -0.25753384959998116, 0.45407565931871485, -0.8255219594097656], [-0.27679876358123706, 0.7948836121736637, 0.9050463886060675, -0.8237471601839077, -0.84294146328566], [-0.028053263105757936, 0.46058025358844906, 0.10151207239074857, 0.19198485424004202, -0.6253950672515969], [0.47570863068497693, 0.7063594416167539, -0.2755434956086589, -0.9066174559682012, -0.4799204277611376], [0.28781004154204043, -1.0964863798482016, -0.05810798271313834, -0.6267686722314738, -0.08293670326895732], [-0.1521393302876515, 0.010028710300835318, 0.9494469225219566, 0.2660806474441458, 0.8435140039500585], [-0.09161932609586218, -0.3033172032094295, 0.23958084834702262, -1.7935115707259193, -0.02522790151826406]], [[0.49548667173155153, -0.4352320832802892, 0.3299739678623325, 0.017742892576552215, -0.7036068328996792, 0.2910441773331149, -0.34087914837987676, -0.16016025704712852, 0.6413984164969437, 0.4366619690103459, 0.03488122936358456, -0.010231387998751578, 0.3211982133706333, -0.5457330934968011, 0.43755763163907263, -0.38131429313541443]]], "b": [[-0.12824340490184194, -0.07653215259208593, -0.04385886394509538, -0.0702136741313877, -0.5185404515959154, -0.11103296408881495, -0.06979516753585589, -0.11016529339216212, -0.20777807287478958, 0.000508764689511601, 4.532852967093309e-05, -1.0717917062912296e-05, -0.05001101955325359, -0.3821522917449587, 0.0004902653276826175, -0.00042195636852706983], [0.1112142415362343]], "vW": [[[0.000385649699098459, 0.0, 0.0, 0.0, 0.0], [-3.6875563411518798e-06, 0.0, 0.0, 0.0, 0.0], [0.00026069229346478354, 0.0, 0.0, 0.0, 0.0], [7.704576975706676e-06, 0.0, 0.0, 0.0, 0.0], [-5.960525366140783e-06, 0.0, 0.0, 0.0, 0.0], [0.00022320521796021165, 0.0, 0.0, 0.0, 0.0], [-2.8881893513224254e-06, 0.0, 0.0, 0.0, 0.0], [-1.3566245780890302e-06, 0.0, 0.0, 0.0, 0.0], [0.0004953304110963912, 0.0, 0.0, 0.0, 0.0], [3.7053011673669986e-06, 0.0, 0.0, 0.0, 0.0], [2.9696673196919526e-07, 0.0, 0.0, 0.0, 0.0], [-8.656669870955574e-08, 0.0, 0.0, 0.0, 0.0], [0.00025307821170800486, 0.0, 0.0, 0.0, 0.0], [-4.622739657720167e-06, 0.0, 0.0, 0.0, 0.0], [3.70880907920885e-06, 0.0, 0.0, 0.0, 0.0], [-3.2309736250957524e-06, 0.0, 0.0, 0.0, 0.0]], [[0.0005578560838889777, -7.957208149854497e-07, 0.00027477952390648716, 0.0001727599411785108, 1.222893418866316e-07, 0.0004108075659420297, -4.657636167855108e-07, -2.9547976944162705e-07, 0.0008193843327665034, -8.296971665811167e-06, -2.3461836624837425e-06, -2.3757829693285687e-07, 0.00028451127067898095, -6.975074195004758e-07, -1.2957820830052381e-06, -7.707291801637269e-07]]], "vb": [[0.00034672207412931406, -3.585495838753137e-06, 0.00023700376930944726, 2.7793729852221164e-06, -5.79385334985526e-06, 0.0001984181824578302, -2.8082722186827684e-06, -1.3185745110437246e-06, 0.000442691606621744, 3.607810776763716e-06, 2.9000229127156207e-07, -8.407115582607004e-08, 0.00022962585979408078, -4.493197796732456e-06, 3.6076865888132213e-06, -3.141920207371703e-06], [0.000824192113005533]]}}