{"version": 1, "model": {"layer_sizes": [5, 16, 1], "lr": 0.03, "momentum": 0.9, "grad_clip": 3.0, "total_samples": 1459, "W": [[[1.2518592458205897, 0.9167098936040888, 0.041954449334932704, -0.48353986153823236, -0.6907509918316201], [-0.022874898353527583, -0.6464348041825333, -0.9087307311439718, 0.12605596212771603, 0.08435350654913912], [0.6610108515474136, -0.5780459794834379, 0.003165619319023322, -0.04094628450130507, -0.9523698821441012], [0.3175680878898141, 0.20283551001133254, 1.5110071283958506, 0.12836897902201092, -0.09151777529694573], [0.5132395272808947, 0.12572662463981144, 0.5749217012808462, -0.23119049338194606, 0.137983970293719], [0.8837257187373604, 0.4403452810123505, 0.08125298436065588, -0.6845116975202081, 0.2815829729115831], [0.010248254309025274, 0.45566371728464317, 0.13675771771954995, 0.6882288831510016, -0.032609575100486295], [0.07102222747617301, 0.4217064472385048, -0.6874061856520259, -0.25403225348189823, -0.3162458346088078], [1.7941134651752892, -0.05873110184204383, 0.41250028865134114, 0.3917271844754705, -0.17763995472297467], [-0.9761360935961364, 0.6102209068034645, -0.25753384959998116, 0.45407565931871485, -0.8255219594097656], [-0.2766264369789492, 0.7948836121736637, 0.9050463886060675, -0.8237471601839077, -0.84294146328566], [-0.028104637992279566, 0.46058025358844906, 0.10151207239074857, 0.19198485424004202, -0.6253950672515969], [0.67384912666076, 0.7063594416167539, -0.2755434956086589, -0.9066174559682012, -0.4799204277611376], [0.28508987328329627, -1.0964863798482016, -0.05810798271313834, -0.6267686722314738, -0.08293670326895732], [-0.1499524667081728, 0.010028710300835318, 0.9494469225219566, 0.2660806474441458, 0.8435140039500585], [-0.09352679097656645, -0.3033172032094295, 0.23958084834702262, -1.7935115707259193, -0.02522790151826406]], [[0.9326235352218593, -0.4351018482873217, 0.5374699332543114, 0.16547208435338895, -0.6994536733288991, 0.6196754318609248, -0.34060657970549046, -0.15946767397603154, 1.291332930452434, 0.43176552594644263, 0.03349672687902101, -0.010371570381591363, 0.5379058485937906, -0.5431372791984488, 0.4367925378061142, -0.38176869174875566]]], "b": [[-0.38808410313311675, -0.07521751153441478, -0.19935501869792974, -0.10723385585731872, -0.5164184336245848, -0.2787406999743499, -0.06876583706290079, -0.10968164054375622, -0.5617785908721085, -0.000793115324412521, -5.5484923596952776e-05, 2.0603045441950593e-05, -0.20446275506321038, -0.38050487895936425, -0.0008275539673498211, 0.0007300635264966645], [-0.19051950135031512]], "vW": [[[0.0010638050453045727, 0.0, 0.0, 0.0, 0.0], [-5.072221018351228e-06, 0.0, 0.0, 0.0, 0.0], [0.0006136948886098935, 0.0, 0.0, 0.0, 0.0], [0.00018775966978107207, 0.0, 0.0, 0.0, 0.0], [-8.152884501732381e-06, 0.0, 0.0, 0.0, 0.0], [0.0007063008222549728, 0.0, 0.0, 0.0, 0.0], [-3.970680029217968e-06, 0.0, 0.0, 0.0, 0.0], [-1.8586240695857545e-06, 0.0, 0.0, 0.0, 0.0], [0.0014723414441929347, 0.0, 0.0, 0.0, 0.0], [5.038730905369954e-06, 0.0, 0.0, 0.0, 0.0], [3.918565414826206e-07, 0.0, 0.0, 0.0, 0.0], [-1.207937070671755e-07, 0.0, 0.0, 0.0, 0.0], [0.000614065360265144, 0.0, 0.0, 0.0, 0.0], [-6.330501649966131e-06, 0.0, 0.0, 0.0, 0.0], [5.093445749543387e-06, 0.0, 0.0, 0.0, 0.0], [-4.45075229340325e-06, 0.0, 0.0, 0.0, 0.0]], [[0.0005285465079004213, -1.6406727233575204e-06, 0.0002788029999705486, 0.000134525385721868, -3.5023975608022767e-06, 0.0003733593771930774, -1.137958403632088e-06, -1.1864898372811991e-06, 0.0007577746224964642, -1.1405789189931734e-05, -3.227093961893026e-06, -3.2706211386063254e-07, 0.00028428058800080677, -3.665143346815687e-06, -1.7737499079386831e-06, -1.0681425699750348e-06]]], "vb": [[0.0016714954935164823, -8.00480526162946e-06, 0.000964312469962196, 0.0002949383879566269, -1.2865929274868796e-05, 0.0011097275397947762, -6.266399031027522e-06, -2.9330170456181947e-06, 0.0023133558060502535, 7.953981261729386e-06, 6.189178575418604e-07, -1.9059246292011373e-07, 0.0009648846161182574, -9.98994632056376e-06, 8.03891192383554e-06, -7.0241715563210875e-06], [0.001840123671776662]]}}