{"version": 1, "model": {"layer_sizes": [5, 16, 1], "lr": 0.03, "momentum": 0.9, "grad_clip": 3.0, "total_samples": 391, "W": [[[0.9122907833836534, 0.9167098936040888, 0.041954449334932704, -0.48353986153823236, -0.6907509918316201], [-0.020583633530673332, -0.6464348041825333, -0.9087307311439718, 0.12605596212771603, 0.08435350654913912], [0.45289386847895496, -0.5780459794834379, 0.003165619319023322, -0.04094628450130507, -0.9523698821441012], [0.2769432777898902, 0.20283551001133254, 1.5110071283958506, 0.12836897902201092, -0.09151777529694573], [0.5169326543509196, 0.12572662463981144, 0.5749217012808462, -0.23119049338194606, 0.137983970293719], [0.6687787688925874, 0.4403452810123505, 0.08125298436065588, -0.6845116975202081, 0.2815829729115831], [0.012042421187049894, 0.45566371728464317, 0.13675771771954995, 0.6882288831510016, -0.032609575100486295], [0.07186335916298887, 0.4217064472385048, -0.6874061856520259, -0.25403225348189823, -0.3162458346088078], [1.3364296469432801, -0.05873110184204383, 0.41250028865134114, 0.3917271844754705, -0.17763995472297467], [-0.978428903570774, 0.6102209068034645, -0.25753384959998116, 0.45407565931871485, -0.8255219594097656], [-0.27680813348494127, 0.7948836121736637, 0.9050463886060675, -0.8237471601839077, -0.84294146328566], [-0.028050541562116067, 0.46058025358844906, 0.10151207239074857, 0.19198485424004202, -0.6253950672515969], [0.46809242198860246, 0.7063594416167539, -0.2755434956086589, -0.9066174559682012, -0.4799204277611376], [0.28795552610832986, -1.0964863798482016, -0.05810798271313834, -0.6267686722314738, -0.08293670326895732], [-0.15225605256121233, 0.010028710300835318, 0.9494469225219566, 0.2660806474441458, 0.8435140039500585], [-0.09151766230920612, -0.3033172032094295, 0.23958084834702262, -1.7935115707259193, -0.02522790151826406]], [[0.4736058554322939, -0.43523786175797297, 0.32014538823541167, 0.009467612663315096, -0.703819039945406, 0.27411540112220917, -0.34089258587079674, -0.16019522743268746, 0.6083054525430729, 0.436923349037056, 0.03495508407753719, -0.010223918248009074, 0.3107954911868379, -0.5458647054552794, 0.4375986914614374, -0.3812902854622352]]], "b": [[-0.11877290509036383, -0.07659410039676694, -0.037807464832699214, -0.06947087769046012, -0.5186406829972389, -0.105250450641623, -0.0698436828149017, -0.11018811950508198, -0.19526174223046872, 0.0005705065950648521, 5.018994701281734e-05, -1.218270842995413e-05, -0.04407553916757273, -0.38223005937105176, 0.0005524282977506413, -0.0004762086610566671], [0.12543332377918795]], "vW": [[[0.0006239643630962589, 0.0, 0.0, 0.0, 0.0], [-6.116713402846323e-06, 0.0, 0.0, 0.0, 0.0], [0.00042740272007397794, 0.0, 0.0, 0.0, 0.0], [3.5984619905777433e-06, 0.0, 0.0, 0.0, 0.0], [-9.890640855469076e-06, 0.0, 0.0, 0.0, 0.0], [0.00035631172439327735, 0.0, 0.0, 0.0, 0.0], [-4.790881581997416e-06, 0.0, 0.0, 0.0, 0.0], [-2.2509977272559107e-06, 0.0, 0.0, 0.0, 0.0], [0.0007957788083630428, 0.0, 0.0, 0.0, 0.0], [6.147166803258413e-06, 0.0, 0.0, 0.0, 0.0], [4.929833524188152e-07, 0.0, 0.0, 0.0, 0.0], [-1.4353635081681862e-07, 0.0, 0.0, 0.0, 0.0], [0.0004139452250896613, 0.0, 0.0, 0.0, 0.0], [-7.670458555809961e-06, 0.0, 0.0, 0.0, 0.0], [6.1516950930090546e-06, 0.0, 0.0, 0.0, 0.0], [-5.35877315833292e-06, 0.0, 0.0, 0.0, 0.0]], [[0.0009463009314116416, -1.6817020380174776e-06, 0.0004868477480987451, 0.00026030583166879417, -2.219434456927191e-06, 0.0006790410941087477, -1.1018286524134033e-06, -1.0048432465673449e-06, 0.0013690898945145445, -1.3753235969654615e-05, -3.890720899440918e-06, -3.9423493463545233e-07, 0.0004991519283766908, -2.9424048865102714e-06, -2.1410904048496592e-06, -1.2853728623277971e-06]]], "vb": [[0.0007999092248269322, -7.973318839094962e-06, 0.000548850203567906, 3.1459960460995673e-06, -1.2891401659985917e-05, 0.0004559858899486625, -6.245055028463654e-06, -2.9338883528173987e-06, 0.0010192378649702615, 8.015663257176446e-06, 6.43259109117967e-07, -1.870558516144156e-07, 0.000531409644993412, -9.997513800729065e-06, 8.019782593187966e-06, -6.985589797027081e-06], [0.0018323344480100602]]}}