{"version": 1, "model": {"layer_sizes": [5, 16, 1], "lr": 0.03, "momentum": 0.9, "grad_clip": 3.0, "total_samples": 1056, "W": [[[1.1201183899641614, 0.9167098936040888, 0.041954449334932704, -0.48353986153823236, -0.6907509918316201], [-0.022159779831948664, -0.6464348041825333, -0.9087307311439718, 0.12605596212771603, 0.08435350654913912], [0.5837895105079897, -0.5780459794834379, 0.003165619319023322, -0.04094628450130507, -0.9523698821441012], [0.29624588965180526, 0.20283551001133254, 1.5110071283958506, 0.12836897902201092, -0.09151777529694573], [0.5143897615859498, 0.12572662463981144, 0.5749217012808462, -0.23119049338194606, 0.137983970293719], [0.797307930172432, 0.4403452810123505, 0.08125298436065588, -0.6845116975202081, 0.2815829729115831], [0.010808126025078897, 0.45566371728464317, 0.13675771771954995, 0.6882288831510016, -0.032609575100486295], [0.07128434294171057, 0.4217064472385048, -0.6874061856520259, -0.25403225348189823, -0.3162458346088078], [1.6130081260868885, -0.05873110184204383, 0.41250028865134114, 0.3917271844754705, -0.17763995472297467], [-0.9768491681964722, 0.6102209068034645, -0.25753384959998116, 0.45407565931871485, -0.8255219594097656], [-0.2766824060123122, 0.7948836121736637, 0.9050463886060675, -0.8237471601839077, -0.84294146328566], [-0.028087675326118288, 0.46058025358844906, 0.10151207239074857, 0.19198485424004202, -0.6253950672515969], [0.5968296296074678, 0.7063594416167539, -0.2755434956086589, -0.9066174559682012, -0.4799204277611376], [0.2859827421347399, -1.0964863798482016, -0.05810798271313834, -0.6267686722314738, -0.08293670326895732], [-0.15067114155600797, 0.010028710300835318, 0.9494469225219566, 0.2660806474441458, 0.8435140039500585], [-0.09289937394271484, -0.3033172032094295, 0.23958084834702262, -1.7935115707259193, -0.02522790151826406]], [[0.788212843578925, -0.43513057519162013, 0.4668148701935497, 0.11999777122712375, -0.7007283247074635, 0.5129214088518276, -0.3406834615901668, -0.15967605885690736, 1.0787422026326794, 0.43337453049732255, 0.03395188106698836, -0.010325454881562064, 0.4646349704321548, -0.5439237280326994, 0.4370431305549734, -0.3816184340583482]]], "b": [[-0.2995729989300628, -0.07557472378360176, -0.14826947567317922, -0.09165077484216094, -0.516994065188185, -0.21999599820704885, -0.069045462847074, -0.10981295117417815, -0.43930109340669216, -0.00044212275076198094, -2.8839838842108503e-05, 1.2021574432539906e-05, -0.15335139020127864, -0.3809520416990389, -0.0004700350493456308, 0.0004169279336835764], [-0.10856755589039313]], "vW": [[[0.0008565529045388148, 0.0, 0.0, 0.0, 0.0], [-4.871708469601672e-06, 0.0, 0.0, 0.0, 0.0], [0.000508422050571738, 0.0, 0.0, 0.0, 0.0], [0.0001286121003226408, 0.0, 0.0, 0.0, 0.0], [-7.844349120205108e-06, 0.0, 0.0, 0.0, 0.0], [0.000556419196663662, 0.0, 0.0, 0.0, 0.0], [-3.81432548060516e-06, 0.0, 0.0, 0.0, 0.0], [-1.7873585129099333e-06, 0.0, 0.0, 0.0, 0.0], [0.0011711326660980158, 0.0, 0.0, 0.0, 0.0], [4.857486550244046e-06, 0.0, 0.0, 0.0, 0.0], [3.8150187559481305e-07, 0.0, 0.0, 0.0, 0.0], [-1.154888671857848e-07, 0.0, 0.0, 0.0, 0.0], [0.0005058234015375607, 0.0, 0.0, 0.0, 0.0], [-6.088636402316249e-06, 0.0, 0.0, 0.0, 0.0], [4.894638941985086e-06, 0.0, 0.0, 0.0, 0.0], [-4.272846145050897e-06, 0.0, 0.0, 0.0, 0.0]], [[0.0005790610301593114, -1.478613119974632e-06, 0.00030160403876192484, 0.00015345523252953153, -2.710468259072816e-06, 0.00041234649225051516, -1.0044639627003775e-06, -1.0007098551273525e-06, 0.0008340625863775089, -1.0955911980472498e-05, -3.0994968582778535e-06, -3.1408197976562503e-07, 0.00030838468661119805, -3.0385495601246976e-06, -1.705085562151749e-06, -1.0245300117075163e-06]]], "vb": [[0.0012455174865065007, -7.141377073735009e-06, 0.0007394938485796461, 0.0001867074021773687, -1.1498051135431227e-05, 0.0008089240909592147, -5.591381172539983e-06, -2.6198090356981336e-06, 0.0017027532796333907, 7.123055930937137e-06, 5.598640779575757e-07, -1.6924425543678093e-07, 0.0007356755994958504, -8.92443526797147e-06, 7.175757261339552e-06, -6.26370251677299e-06], [0.0016415720334522345]]}}